{"learner":{"attributes":{"scikit_learn":"{\"_estimator_type\": \"regressor\"}"},"feature_names":["aov_score","cuisine_score"],"feature_types":["float","float"],"gradient_booster":{"model":{"gbtree_model_param":{"num_parallel_tree":"1","num_trees":"100"},"iteration_indptr":[0,1,2,3,4,5,6,7,8,9,10,11,12,13,14,15,16,17,18,19,20,21,22,23,24,25,26,27,28,29,30,31,32,33,34,35,36,37,38,39,40,41,42,43,44,45,46,47,48,49,50,51,52,53,54,55,56,57,58,59,60,61,62,63,64,65,66,67,68,69,70,71,72,73,74,75,76,77,78,79,80,81,82,83,84,85,86,87,88,89,90,91,92,93,94,95,96,97,98,99,100],"tree_info":[0,0,0,0,0,0,0,0,0,0,0,0,0,0,0,0,0,0,0,0,0,0,0,0,0,0,0,0,0,0,0,0,0,0,0,0,0,0,0,0,0,0,0,0,0,0,0,0,0,0,0,0,0,0,0,0,0,0,0,0,0,0,0,0,0,0,0,0,0,0,0,0,0,0,0,0,0,0,0,0,0,0,0,0,0,0,0,0,0,0,0,0,0,0,0,0,0,0,0,0],"trees":[{"base_weights":[-5.907717E-8,-2.5474615E0,5.0614033E0,-1.3679223E0,1.7344217E0,3.0611494E0,3.270316E0,4.1234562E-1,1.5030476E0,1.6495726E0,4.0805387E0,-1.7125928E-1,3.9663157E-1,4.0122223E-1,1.0791112E0,1.0269091E0,1.4837778E0],"categories":[],"categories_nodes":[],"categories_segments":[],"categories_sizes":[],"default_left":[0,0,0,0,0,0,0,0,0,0,0,0,0,0,0,0,0],"id":0,"left_children":[1,3,5,-1,7,9,-1,11,-1,13,15,-1,-1,-1,-1,-1,-1],"loss_changes":[2.9268767E3,1.3089768E3,8.543699E2,0E0,2.1014197E2,7.672772E1,0E0,3.295619E1,0E0,1.0995483E1,1.8468628E0,0E0,0E0,0E0,0E0,0E0,0E0],"parents":[2147483647,0,0,1,1,2,2,4,4,5,5,7,7,9,9,10,10],"right_children":[2,4,6,-1,8,10,-1,12,-1,14,16,-1,-1,-1,-1,-1,-1],"split_conditions":[6E0,4E0,6E0,-1.3679223E0,1E1,8E0,3.270316E0,6E0,1.5030476E0,4E0,1E1,-1.7125928E-1,3.9663157E-1,4.0122223E-1,1.0791112E0,1.0269091E0,1.4837778E0],"split_indices":[1,0,0,0,0,1,0,0,0,0,1,0,0,0,0,0,0],"split_type":[0,0,0,0,0,0,0,0,0,0,0,0,0,0,0,0,0],"sum_hessian":[2.25E2,1.5E2,7.5E1,1.02E2,4.8E1,5.7E1,1.8E1,3.5E1,1.3E1,2.5E1,3.2E1,1.7E1,1.8E1,2.3E1,2E0,2.1E1,1.1E1],"tree_param":{"num_deleted":"0","num_feature":"2","num_nodes":"17","size_leaf_vector":"1"}},{"base_weights":[3.372485E-2,-1.7808356E0,3.6385262E0,-9.615299E-1,1.2493691E0,2.0594935E0,7.42072E0,2.9490227E-1,1.0843415E0,2.8587082E-1,2.8250775E0,1.6000863E0,2.7068834E0,-1.22735776E-1,2.8390467E-1,6.767562E-1,1.0757389E0],"categories":[],"categories_nodes":[],"categories_segments":[],"categories_sizes":[],"default_left":[0,0,0,0,0,0,0,0,0,0,0,0,0,0,0,0,0],"id":1,"left_children":[1,3,5,-1,7,9,11,13,-1,-1,15,-1,-1,-1,-1,-1,-1],"loss_changes":[1.484775E3,6.556919E2,4.3860486E2,0E0,1.0954729E2,4.3903336E1,2.5443115E1,1.6897934E1,0E0,0E0,5.767578E0,0E0,0E0,0E0,0E0,0E0,0E0],"parents":[2147483647,0,0,1,1,2,2,4,4,5,5,6,6,7,7,10,10],"right_children":[2,4,6,-1,8,10,12,14,-1,-1,16,-1,-1,-1,-1,-1,-1],"split_conditions":[6E0,4E0,4E0,-9.615299E-1,1E1,8E0,1E1,6E0,1.0843415E0,2.8587082E-1,1E1,1.6000863E0,2.7068834E0,-1.22735776E-1,2.8390467E-1,6.767562E-1,1.0757389E0],"split_indices":[1,0,0,0,0,1,0,0,0,0,1,0,0,0,0,0,0],"split_type":[0,0,0,0,0,0,0,0,0,0,0,0,0,0,0,0,0],"sum_hessian":[2.25E2,1.5E2,7.5E1,1.02E2,4.8E1,5.4E1,2.1E1,3.5E1,1.3E1,2.3E1,3.1E1,1.1E1,1E1,1.7E1,1.8E1,2E1,1.1E1],"tree_param":{"num_deleted":"0","num_feature":"2","num_nodes":"17","size_leaf_vector":"1"}},{"base_weights":[5.2940667E-2,-1.2447041E0,2.6304595E0,-6.758715E-1,8.99977E-1,1.5781058E0,5.7044625E0,2.1090864E-1,7.82275E-1,8.3566725E-1,2.115236E0,4.0223584E0,1.9686426E0,-8.7960586E-2,2.03216E-1,2.036829E-1,5.4327166E-1,5.2645046E-1,7.799107E-1,5.0503063E-1,1.3350395E0],"categories":[],"categories_nodes":[],"categories_segments":[],"categories_sizes":[],"default_left":[0,0,0,0,0,0,0,0,0,0,0,0,0,0,0,0,0,0,0,0,0],"id":2,"left_children":[1,3,5,-1,7,9,11,13,-1,15,17,19,-1,-1,-1,-1,-1,-1,-1,-1,-1],"loss_changes":[7.5917725E2,3.285302E2,2.3685303E2,0E0,5.710626E1,2.1361984E1,1.0161133E0,8.664246E0,0E0,2.7444286E0,1.1998291E0,1.5132446E0,0E0,0E0,0E0,0E0,0E0,0E0,0E0,0E0,0E0],"parents":[2147483647,0,0,1,1,2,2,4,4,5,5,6,6,7,7,9,9,10,10,11,11],"right_children":[2,4,6,-1,8,10,12,14,-1,16,18,20,-1,-1,-1,-1,-1,-1,-1,-1,-1],"split_conditions":[6E0,4E0,6E0,-6.758715E-1,1E1,8E0,1E1,6E0,7.82275E-1,4E0,1E1,8E0,1.9686426E0,-8.7960586E-2,2.03216E-1,2.036829E-1,5.4327166E-1,5.2645046E-1,7.799107E-1,5.0503063E-1,1.3350395E0],"split_indices":[1,0,0,0,0,1,0,0,0,0,1,1,0,0,0,0,0,0,0,0,0],"split_type":[0,0,0,0,0,0,0,0,0,0,0,0,0,0,0,0,0,0,0,0,0],"sum_hessian":[2.25E2,1.5E2,7.5E1,1.02E2,4.8E1,5.7E1,1.8E1,3.5E1,1.3E1,2.5E1,3.2E1,8E0,1E1,1.7E1,1.8E1,2.3E1,2E0,2.1E1,1.1E1,2E0,6E0],"tree_param":{"num_deleted":"0","num_feature":"2","num_nodes":"21","size_leaf_vector":"1"}},{"base_weights":[6.3977435E-2,-8.69825E-1,1.9184536E0,-4.750786E-1,6.483008E-1,1.0461113E0,4.012107E0,1.508376E-1,5.643555E-1,1.4512406E-1,1.4351938E0,7.025835E-1,1.3906158E0,-6.303839E-2,1.4545985E-1,3.3298275E-1,5.6543523E-1],"categories":[],"categories_nodes":[],"categories_segments":[],"categories_sizes":[],"default_left":[0,0,0,0,0,0,0,0,0,0,0,0,0,0,0,0,0],"id":3,"left_children":[1,3,5,-1,7,9,11,13,-1,-1,15,-1,-1,-1,-1,-1,-1],"loss_changes":[3.9303613E2,1.6464919E2,1.3460794E2,0E0,2.9768652E1,1.1340061E1,1.2045715E1,4.4425044E0,0E0,0E0,2.5873566E0,0E0,0E0,0E0,0E0,0E0,0E0],"parents":[2147483647,0,0,1,1,2,2,4,4,5,5,6,6,7,7,10,10],"right_children":[2,4,6,-1,8,10,12,14,-1,-1,16,-1,-1,-1,-1,-1,-1],"split_conditions":[6E0,4E0,4E0,-4.750786E-1,1E1,8E0,8E0,6E0,5.643555E-1,1.4512406E-1,1E1,7.025835E-1,1.3906158E0,-6.303839E-2,1.4545985E-1,3.3298275E-1,5.6543523E-1],"split_indices":[1,0,0,0,0,1,1,0,0,0,1,0,0,0,0,0,0],"split_type":[0,0,0,0,0,0,0,0,0,0,0,0,0,0,0,0,0],"sum_hessian":[2.25E2,1.5E2,7.5E1,1.02E2,4.8E1,5.4E1,2.1E1,3.5E1,1.3E1,2.3E1,3.1E1,7E0,1.4E1,1.7E1,1.8E1,2E1,1.1E1],"tree_param":{"num_deleted":"0","num_feature":"2","num_nodes":"17","size_leaf_vector":"1"}},{"base_weights":[5.9423365E-2,-6.0774046E-1,1.3841907E0,-3.3393875E-1,4.6701005E-1,7.5125164E-1,2.9036205E0,1.0787589E-1,4.0714204E-1,1.0340092E-1,1.0327114E0,1.9353808E0,1.1087749E0,-4.5177516E-2,1.0411868E-1,2.378449E-1,4.0994063E-1,3.3456507E-1,6.618182E-1],"categories":[],"categories_nodes":[],"categories_segments":[],"categories_sizes":[],"default_left":[0,0,0,0,0,0,0,0,0,0,0,0,0,0,0,0,0,0,0],"id":4,"left_children":[1,3,5,-1,7,9,11,13,-1,-1,15,17,-1,-1,-1,-1,-1,-1,-1],"loss_changes":[2.0058835E2,8.253802E1,7.0908325E1,0E0,1.5517727E1,5.9380608E0,9.723907E0,2.277854E0,0E0,0E0,1.478775E0,2.0378876E-1,0E0,0E0,0E0,0E0,0E0,0E0,0E0],"parents":[2147483647,0,0,1,1,2,2,4,4,5,5,6,6,7,7,10,10,11,11],"right_children":[2,4,6,-1,8,10,12,14,-1,-1,16,18,-1,-1,-1,-1,-1,-1,-1],"split_conditions":[6E0,4E0,4E0,-3.3393875E-1,1E1,8E0,1E1,6E0,4.0714204E-1,1.0340092E-1,1E1,8E0,1.1087749E0,-4.5177516E-2,1.0411868E-1,2.378449E-1,4.0994063E-1,3.3456507E-1,6.618182E-1],"split_indices":[1,0,0,0,0,1,0,0,0,0,1,1,0,0,0,0,0,0,0],"split_type":[0,0,0,0,0,0,0,0,0,0,0,0,0,0,0,0,0,0,0],"sum_hessian":[2.25E2,1.5E2,7.5E1,1.02E2,4.8E1,5.4E1,2.1E1,3.5E1,1.3E1,2.3E1,3.1E1,1.1E1,1E1,1.7E1,1.8E1,2E1,1.1E1,4E0,7E0],"tree_param":{"num_deleted":"0","num_feature":"2","num_nodes":"19","size_leaf_vector":"1"}},{"base_weights":[5.481974E-2,-4.245432E-1,1.0065169E0,-2.3472978E-1,3.3641896E-1,5.395341E-1,2.128223E0,7.715028E-2,2.9372397E-1,7.367322E-2,7.431412E-1,3.4323335E-1,2.5112011E0,-3.2377236E-2,7.452702E-2,1.6988918E-1,2.972069E-1,4.8809084E-1,9.244599E-1],"categories":[],"categories_nodes":[],"categories_segments":[],"categories_sizes":[],"default_left":[0,0,0,0,0,0,0,0,0,0,0,0,0,0,0,0,0,0,0],"id":5,"left_children":[1,3,5,-1,7,9,11,13,-1,-1,15,-1,17,-1,-1,-1,-1,-1,-1],"loss_changes":[1.03530396E2,4.1386597E1,3.8661873E1,0E0,8.088936E0,3.1093445E0,5.418556E0,1.1679484E0,0E0,0E0,8.398533E-1,0E0,2.5510254E0,0E0,0E0,0E0,0E0,0E0,0E0],"parents":[2147483647,0,0,1,1,2,2,4,4,5,5,6,6,7,7,10,10,12,12],"right_children":[2,4,6,-1,8,10,12,14,-1,-1,16,-1,18,-1,-1,-1,-1,-1,-1],"split_conditions":[6E0,4E0,4E0,-2.3472978E-1,1E1,8E0,8E0,6E0,2.9372397E-1,7.367322E-2,1E1,3.4323335E-1,1E1,-3.2377236E-2,7.452702E-2,1.6988918E-1,2.972069E-1,4.8809084E-1,9.244599E-1],"split_indices":[1,0,0,0,0,1,1,0,0,0,1,0,0,0,0,0,0,0,0],"split_type":[0,0,0,0,0,0,0,0,0,0,0,0,0,0,0,0,0,0,0],"sum_hessian":[2.25E2,1.5E2,7.5E1,1.02E2,4.8E1,5.4E1,2.1E1,3.5E1,1.3E1,2.3E1,3.1E1,7E0,1.4E1,1.7E1,1.8E1,2E1,1.1E1,7E0,7E0],"tree_param":{"num_deleted":"0","num_feature":"2","num_nodes":"19","size_leaf_vector":"1"}},{"base_weights":[4.898316E-2,-2.9651037E-1,7.347798E-1,-1.6499452E-1,2.423479E-1,3.875061E-1,1.5695648E0,5.517614E-2,2.1190085E-1,5.249216E-2,5.3479576E-1,1.1766399E0,8.010544E-1,-2.3203684E-2,5.334572E-2,1.2134948E-1,2.1547502E-1,2.1494503E-1,4.6715617E-1],"categories":[],"categories_nodes":[],"categories_segments":[],"categories_sizes":[],"default_left":[0,0,0,0,0,0,0,0,0,0,0,0,0,0,0,0,0,0,0],"id":6,"left_children":[1,3,5,-1,7,9,11,13,-1,-1,15,17,-1,-1,-1,-1,-1,-1,-1],"loss_changes":[5.3765926E1,2.0757637E1,2.1424095E1,0E0,4.2164564E0,1.6281328E0,6.3722687E0,5.988562E-1,0E0,0E0,4.7438526E-1,2.0363064E0,0E0,0E0,0E0,0E0,0E0,0E0,0E0],"parents":[2147483647,0,0,1,1,2,2,4,4,5,5,6,6,7,7,10,10,11,11],"right_children":[2,4,6,-1,8,10,12,14,-1,-1,16,18,-1,-1,-1,-1,-1,-1,-1],"split_conditions":[6E0,4E0,4E0,-1.6499452E-1,1E1,8E0,1E1,6E0,2.1190085E-1,5.249216E-2,1E1,1E1,8.010544E-1,-2.3203684E-2,5.334572E-2,1.2134948E-1,2.1547502E-1,2.1494503E-1,4.6715617E-1],"split_indices":[1,0,0,0,0,1,1,0,0,0,1,0,0,0,0,0,0,0,0],"split_type":[0,0,0,0,0,0,0,0,0,0,0,0,0,0,0,0,0,0,0],"sum_hessian":[2.25E2,1.5E2,7.5E1,1.02E2,4.8E1,5.4E1,2.1E1,3.5E1,1.3E1,2.3E1,3.1E1,1.7E1,4E0,1.7E1,1.8E1,2E1,1.1E1,9E0,8E0],"tree_param":{"num_deleted":"0","num_feature":"2","num_nodes":"19","size_leaf_vector":"1"}},{"base_weights":[4.2914484E-2,-2.0704696E-1,5.389837E-1,-1.1597672E-1,1.7458329E-1,3.6720768E-1,1.5206416E0,3.9460674E-2,1.5287137E-1,2.6962E-1,7.1041757E-1,1.8629229E-1,5.3411853E-1,-1.662926E-2,3.8184315E-2,2.058984E-1,1.5690991E-1,1.5621936E-1,3.697071E-1,3.740067E-2,8.667824E-2],"categories":[],"categories_nodes":[],"categories_segments":[],"categories_sizes":[],"default_left":[0,0,0,0,0,0,0,0,0,0,0,0,0,0,0,0,0,0,0,0,0],"id":7,"left_children":[1,3,5,-1,7,9,11,13,-1,15,17,-1,-1,-1,-1,19,-1,-1,-1,-1,-1],"loss_changes":[2.8135183E1,1.0413815E1,1.22571335E1,0E0,2.1978498E0,2.0189981E0,1.4650288E0,3.0705804E-1,0E0,7.481463E-1,7.443404E-1,0E0,0E0,0E0,0E0,2.6073372E-1,0E0,0E0,0E0,0E0,0E0],"parents":[2147483647,0,0,1,1,2,2,4,4,5,5,6,6,7,7,9,9,10,10,15,15],"right_children":[2,4,6,-1,8,10,12,14,-1,16,18,-1,-1,-1,-1,20,-1,-1,-1,-1,-1],"split_conditions":[6E0,4E0,1E1,-1.1597672E-1,1E1,1E1,8E0,6E0,1.5287137E-1,4E0,4E0,1.8629229E-1,5.3411853E-1,-1.662926E-2,3.8184315E-2,8E0,1.5690991E-1,1.5621936E-1,3.697071E-1,3.740067E-2,8.667824E-2],"split_indices":[1,0,0,0,0,1,1,0,0,0,0,0,0,0,0,1,0,0,0,0,0],"split_type":[0,0,0,0,0,0,0,0,0,0,0,0,0,0,0,0,0,0,0,0,0],"sum_hessian":[2.25E2,1.5E2,7.5E1,1.02E2,4.8E1,6.5E1,1E1,3.5E1,1.3E1,5.2E1,1.3E1,3E0,7E0,1.7E1,1.8E1,4.3E1,9E0,1.1E1,2E0,2.3E1,2E1],"tree_param":{"num_deleted":"0","num_feature":"2","num_nodes":"21","size_leaf_vector":"1"}},{"base_weights":[3.7056867E-2,-1.4454575E-1,3.97385E-1,-8.1521496E-2,1.2576813E-1,1.9992933E-1,8.729612E-1,2.8221276E-2,1.1028584E-1,1.4694892E-1,1.1325901E-1,6.036727E-1,5.0034237E-1,-1.1917648E-2,2.733197E-2,2.6647963E-2,6.1913084E-2,3.818141E-1,2.3493224E-1,1.6285723E-1,7.0573345E-2],"categories":[],"categories_nodes":[],"categories_segments":[],"categories_sizes":[],"default_left":[0,0,0,0,0,0,0,0,0,0,0,0,0,0,0,0,0,0,0,0,0],"id":8,"left_children":[1,3,5,-1,7,9,11,13,-1,15,-1,17,-1,-1,-1,-1,-1,19,-1,-1,-1],"loss_changes":[1.4846097E1,5.225845E0,6.962267E0,0E0,1.1456251E0,4.620371E-1,3.702137E0,1.5744191E-1,0E0,1.3364857E-1,0E0,4.1756344E-1,0E0,0E0,0E0,0E0,0E0,1.0833633E-1,0E0,0E0,0E0],"parents":[2147483647,0,0,1,1,2,2,4,4,5,5,6,6,7,7,9,9,11,11,17,17],"right_children":[2,4,6,-1,8,10,12,14,-1,16,-1,18,-1,-1,-1,-1,-1,20,-1,-1,-1],"split_conditions":[6E0,4E0,4E0,-8.1521496E-2,1E1,1E1,1E1,6E0,1.1028584E-1,8E0,1.1325901E-1,1E1,5.0034237E-1,-1.1917648E-2,2.733197E-2,2.6647963E-2,6.1913084E-2,6E0,2.3493224E-1,1.6285723E-1,7.0573345E-2],"split_indices":[1,0,0,0,0,1,1,0,0,1,0,0,0,0,0,0,0,0,0,0,0],"split_type":[0,0,0,0,0,0,0,0,0,0,0,0,0,0,0,0,0,0,0,0,0],"sum_hessian":[2.25E2,1.5E2,7.5E1,1.02E2,4.8E1,5.4E1,2.1E1,3.5E1,1.3E1,4.3E1,1.1E1,1.7E1,4E0,1.7E1,1.8E1,2.3E1,2E1,9E0,8E0,3E0,6E0],"tree_param":{"num_deleted":"0","num_feature":"2","num_nodes":"21","size_leaf_vector":"1"}},{"base_weights":[3.1314608E-2,-6.4002976E-2,4.056878E-1,-1.2518203E-1,1.7748263E-1,2.6493979E-1,1.0411234E0,-1.6821927E-1,7.8266054E-2,7.779412E-2,8.705614E-2,1.993801E-1,1.4821833E-1,1.974144E-1,4.3806994E-1,-5.7302486E-2,-8.540996E-3,1.898665E-2,5.1598553E-2,1.9563977E-2,3.946247E-2,4.422365E-2,8.211269E-2],"categories":[],"categories_nodes":[],"categories_segments":[],"categories_sizes":[],"default_left":[0,0,0,0,0,0,0,0,0,0,0,0,0,0,0,0,0,0,0,0,0,0,0],"id":9,"left_children":[1,3,5,7,9,11,13,15,17,19,-1,21,-1,-1,-1,-1,-1,-1,-1,-1,-1,-1,-1],"loss_changes":[8.090628E0,2.696287E0,3.8382344E0,1.2827632E0,3.931328E-1,4.873178E-1,3.235016E-1,3.7673163E-1,2.5613457E-2,5.6217313E-3,0E0,8.325899E-2,0E0,0E0,0E0,0E0,0E0,0E0,0E0,0E0,0E0,0E0,0E0],"parents":[2147483647,0,0,1,1,2,2,3,3,4,4,5,5,6,6,7,7,8,8,9,9,11,11],"right_children":[2,4,6,8,10,12,14,16,18,20,-1,22,-1,-1,-1,-1,-1,-1,-1,-1,-1,-1,-1],"split_conditions":[8E0,6E0,1E1,6E0,1E1,4E0,1E1,4E0,4E0,6E0,8.705614E-2,1E1,1.4821833E-1,1.974144E-1,4.3806994E-1,-5.7302486E-2,-8.540996E-3,1.898665E-2,5.1598553E-2,1.9563977E-2,3.946247E-2,4.422365E-2,8.211269E-2],"split_indices":[1,0,0,1,0,0,1,0,0,1,0,1,0,0,0,0,0,0,0,0,0,0,0],"split_type":[0,0,0,0,0,0,0,0,0,0,0,0,0,0,0,0,0,0,0,0,0,0,0],"sum_hessian":[2.25E2,1.8E2,4.5E1,1.44E2,3.6E1,3.8E1,7E0,1.19E2,2.5E1,2E1,1.6E1,3.1E1,7E0,5E0,2E0,1.02E2,1.7E1,2.3E1,2E0,1.8E1,2E0,2E1,1.1E1],"tree_param":{"num_deleted":"0","num_feature":"2","num_nodes":"23","size_leaf_vector":"1"}},{"base_weights":[2.661431E-2,-4.3968808E-2,3.0376497E-1,-8.759472E-2,1.2818594E-1,1.9249779E-1,8.082218E-1,-1.1830217E-1,5.7501003E-2,5.7266552E-2,6.247557E-2,1.4351413E-1,3.6437023E-1,1.480608E-1,3.5045588E-1,-4.027864E-2,-6.1210156E-3,1.3527972E-2,4.127884E-2,1.4003638E-2,3.1570055E-2,3.1588282E-2,5.953181E-2,2.09071E-1,1.6605358E-1,1.5279824E-1,1.4146271E-2],"categories":[],"categories_nodes":[],"categories_segments":[],"categories_sizes":[],"default_left":[0,0,0,0,0,0,0,0,0,0,0,0,0,0,0,0,0,0,0,0,0,0,0,0,0,0,0],"id":10,"left_children":[1,3,5,7,9,11,13,15,17,19,-1,21,23,-1,-1,-1,-1,-1,-1,-1,-1,-1,-1,25,-1,-1,-1],"loss_changes":[4.4344034E0,1.3706121E0,2.4263754E0,6.528529E-1,1.9816858E-1,2.760465E-1,3.2966375E-1,1.8475592E-1,1.963418E-2,5.7529435E-3,0E0,4.628092E-2,1.192652E-1,0E0,0E0,0E0,0E0,0E0,0E0,0E0,0E0,0E0,0E0,2.6768234E-1,0E0,0E0,0E0],"parents":[2147483647,0,0,1,1,2,2,3,3,4,4,5,5,6,6,7,7,8,8,9,9,11,11,12,12,23,23],"right_children":[2,4,6,8,10,12,14,16,18,20,-1,22,24,-1,-1,-1,-1,-1,-1,-1,-1,-1,-1,26,-1,-1,-1],"split_conditions":[8E0,6E0,1E1,6E0,1E1,4E0,1E1,4E0,4E0,6E0,6.247557E-2,1E1,1E1,1.480608E-1,3.5045588E-1,-4.027864E-2,-6.1210156E-3,1.3527972E-2,4.127884E-2,1.4003638E-2,3.1570055E-2,3.1588282E-2,5.953181E-2,6E0,1.6605358E-1,1.5279824E-1,1.4146271E-2],"split_indices":[1,0,0,1,0,0,1,0,0,1,0,1,1,0,0,0,0,0,0,0,0,0,0,0,0,0,0],"split_type":[0,0,0,0,0,0,0,0,0,0,0,0,0,0,0,0,0,0,0,0,0,0,0,0,0,0,0],"sum_hessian":[2.25E2,1.8E2,4.5E1,1.44E2,3.6E1,3.8E1,7E0,1.19E2,2.5E1,2E1,1.6E1,3.1E1,7E0,5E0,2E0,1.02E2,1.7E1,2.3E1,2E0,1.8E1,2E0,2E1,1.1E1,5E0,2E0,1E0,4E0],"tree_param":{"num_deleted":"0","num_feature":"2","num_nodes":"27","size_leaf_vector":"1"}},{"base_weights":[2.3227826E-2,-3.0134713E-2,2.3269287E-1,-6.1258286E-2,9.265049E-2,1.03307396E-1,4.9320233E-1,-8.319816E-2,4.235875E-2,4.2256627E-2,4.483551E-2,2.2563118E-2,4.3160465E-2,2.9690552E-1,2.4792448E-1,-2.8312363E-2,-4.386687E-3,9.63871E-3,3.3023074E-2,1.0023625E-2,2.5255967E-2,1.74174E-1,1.11045845E-1,1.2987843E-1,1.0751266E-2],"categories":[],"categories_nodes":[],"categories_segments":[],"categories_sizes":[],"default_left":[0,0,0,0,0,0,0,0,0,0,0,0,0,0,0,0,0,0,0,0,0,0,0,0,0],"id":11,"left_children":[1,3,5,7,9,11,13,15,17,19,-1,-1,-1,21,-1,-1,-1,-1,-1,-1,-1,23,-1,-1,-1],"loss_changes":[2.5331466E0,6.9736964E-1,1.499531E0,3.3315915E-1,9.959468E-2,2.5647998E-2,7.357609E-1,9.059167E-2,1.4474515E-2,4.9750246E-3,0E0,0E0,0E0,3.44162E-2,0E0,0E0,0E0,0E0,0E0,0E0,0E0,1.9925565E-1,0E0,0E0,0E0],"parents":[2147483647,0,0,1,1,2,2,3,3,4,4,5,5,6,6,7,7,8,8,9,9,13,13,21,21],"right_children":[2,4,6,8,10,12,14,16,18,20,-1,-1,-1,22,-1,-1,-1,-1,-1,-1,-1,24,-1,-1,-1],"split_conditions":[8E0,6E0,4E0,6E0,1E1,1E1,1E1,4E0,4E0,6E0,4.483551E-2,2.2563118E-2,4.3160465E-2,1E1,2.4792448E-1,-2.8312363E-2,-4.386687E-3,9.63871E-3,3.3023074E-2,1.0023625E-2,2.5255967E-2,6E0,1.11045845E-1,1.2987843E-1,1.0751266E-2],"split_indices":[1,0,0,1,0,1,1,0,0,1,0,0,0,0,0,0,0,0,0,0,0,0,0,0,0],"split_type":[0,0,0,0,0,0,0,0,0,0,0,0,0,0,0,0,0,0,0,0,0,0,0,0,0],"sum_hessian":[2.25E2,1.8E2,4.5E1,1.44E2,3.6E1,3.1E1,1.4E1,1.19E2,2.5E1,2E1,1.6E1,2E1,1.1E1,1E1,4E0,1.02E2,1.7E1,2.3E1,2E0,1.8E1,2E0,5E0,5E0,1E0,4E0],"tree_param":{"num_deleted":"0","num_feature":"2","num_nodes":"25","size_leaf_vector":"1"}},{"base_weights":[1.9159526E-2,-2.059658E-2,1.7517465E-1,-4.2812075E-2,6.70208E-2,1.0473205E-1,4.966855E-1,-5.851117E-2,3.1291906E-2,3.1259626E-2,1.0725397E-1,7.436913E-2,2.1309221E-1,8.328438E-2,2.3077965E-1,-1.9901117E-2,-3.1437317E-3,6.8675578E-3,2.6418498E-2,7.174813E-3,2.0204734E-2,2.5418432E-2,4.7784306E-2,1.6116552E-2,3.1291343E-2,1.1039672E-1,1.3839422E-1,8.170852E-3,8.325787E-2],"categories":[],"categories_nodes":[],"categories_segments":[],"categories_sizes":[],"default_left":[0,0,0,0,0,0,0,0,0,0,0,0,0,0,0,0,0,0,0,0,0,0,0,0,0,0,0,0,0],"id":12,"left_children":[1,3,5,7,9,11,13,15,17,19,21,23,25,-1,-1,-1,-1,-1,-1,-1,-1,-1,-1,-1,-1,-1,27,-1,-1],"loss_changes":[1.405385E0,3.551792E-1,9.897921E-1,1.705189E-1,4.9882337E-2,1.1246762E-1,2.641555E-1,4.4412076E-2,1.0382688E-2,3.954826E-3,6.4276457E-3,1.4175251E-2,4.1636318E-2,0E0,0E0,0E0,0E0,0E0,0E0,0E0,0E0,0E0,0E0,0E0,0E0,0E0,1.00700736E-1,0E0,0E0],"parents":[2147483647,0,0,1,1,2,2,3,3,4,4,5,5,6,6,7,7,8,8,9,9,10,10,11,11,12,12,26,26],"right_children":[2,4,6,8,10,12,14,16,18,20,22,24,26,-1,-1,-1,-1,-1,-1,-1,-1,-1,-1,-1,-1,-1,28,-1,-1],"split_conditions":[8E0,6E0,1E1,6E0,1E1,4E0,1E1,4E0,4E0,6E0,6E0,1E1,6E0,8.328438E-2,2.3077965E-1,-1.9901117E-2,-3.1437317E-3,6.8675578E-3,2.6418498E-2,7.174813E-3,2.0204734E-2,2.5418432E-2,4.7784306E-2,1.6116552E-2,3.1291343E-2,1.1039672E-1,1E1,8.170852E-3,8.325787E-2],"split_indices":[1,0,0,1,0,0,1,0,0,1,1,1,0,0,0,0,0,0,0,0,0,0,0,0,0,0,1,0,0],"split_type":[0,0,0,0,0,0,0,0,0,0,0,0,0,0,0,0,0,0,0,0,0,0,0,0,0,0,0,0,0],"sum_hessian":[2.25E2,1.8E2,4.5E1,1.44E2,3.6E1,3.8E1,7E0,1.19E2,2.5E1,2E1,1.6E1,3.1E1,7E0,5E0,2E0,1.02E2,1.7E1,2.3E1,2E0,1.8E1,2E0,1.3E1,3E0,2E1,1.1E1,1E0,6E0,4E0,2E0],"tree_param":{"num_deleted":"0","num_feature":"2","num_nodes":"29","size_leaf_vector":"1"}},{"base_weights":[1.6394535E-2,-1.38052935E-2,1.3486789E-1,-2.9897794E-2,4.9633026E-2,7.9703085E-2,3.8693786E-1,-4.114985E-2,2.3184685E-2,2.3185411E-2,7.938402E-2,5.353996E-2,1.743927E-1,6.2463287E-2,1.8462373E-1,-1.3988745E-2,-2.252992E-3,4.893178E-3,2.113476E-2,5.1356116E-3,1.6163828E-2,1.8337626E-2,3.703294E-2,1.1511804E-2,2.2686314E-2,9.383727E-2,1.09937124E-1,6.2097935E-3,6.6606335E-2],"categories":[],"categories_nodes":[],"categories_segments":[],"categories_sizes":[],"default_left":[0,0,0,0,0,0,0,0,0,0,0,0,0,0,0,0,0,0,0,0,0,0,0,0,0,0,0,0,0],"id":13,"left_children":[1,3,5,7,9,11,13,15,17,19,21,23,25,-1,-1,-1,-1,-1,-1,-1,-1,-1,-1,-1,-1,-1,27,-1,-1],"loss_changes":[8.1046164E-1,1.8626341E-1,6.08808E-1,8.756065E-2,2.7272634E-2,8.728069E-2,1.9854069E-1,2.1768585E-2,7.2983466E-3,2.9880963E-3,6.1302707E-3,7.815339E-3,3.697695E-2,0E0,0E0,0E0,0E0,0E0,0E0,0E0,0E0,0E0,0E0,0E0,0E0,0E0,6.541922E-2,0E0,0E0],"parents":[2147483647,0,0,1,1,2,2,3,3,4,4,5,5,6,6,7,7,8,8,9,9,10,10,11,11,12,12,26,26],"right_children":[2,4,6,8,10,12,14,16,18,20,22,24,26,-1,-1,-1,-1,-1,-1,-1,-1,-1,-1,-1,-1,-1,28,-1,-1],"split_conditions":[8E0,6E0,1E1,6E0,1E1,4E0,1E1,4E0,4E0,6E0,6E0,1E1,6E0,6.2463287E-2,1.8462373E-1,-1.3988745E-2,-2.252992E-3,4.893178E-3,2.113476E-2,5.1356116E-3,1.6163828E-2,1.8337626E-2,3.703294E-2,1.1511804E-2,2.2686314E-2,9.383727E-2,1E1,6.2097935E-3,6.6606335E-2],"split_indices":[1,0,0,1,0,0,1,0,0,1,1,1,0,0,0,0,0,0,0,0,0,0,0,0,0,0,1,0,0],"split_type":[0,0,0,0,0,0,0,0,0,0,0,0,0,0,0,0,0,0,0,0,0,0,0,0,0,0,0,0,0],"sum_hessian":[2.25E2,1.8E2,4.5E1,1.44E2,3.6E1,3.8E1,7E0,1.19E2,2.5E1,2E1,1.6E1,3.1E1,7E0,5E0,2E0,1.02E2,1.7E1,2.3E1,2E0,1.8E1,2E0,1.3E1,3E0,2E1,1.1E1,1E0,6E0,4E0,2E0],"tree_param":{"num_deleted":"0","num_feature":"2","num_nodes":"29","size_leaf_vector":"1"}},{"base_weights":[1.3840782E-2,-9.186021E-3,1.0414536E-1,-2.0860972E-2,3.681544E-2,3.854677E-2,2.3714599E-1,-2.8940234E-2,1.7230272E-2,2.6568353E-2,2.5599195E-2,8.222717E-3,1.6447663E-2,1.4066817E-1,4.01968E-1,-9.832866E-3,-1.6146264E-3,3.4863532E-3,1.6907884E-2,3.6760382E-3,1.3229391E-2,7.97616E-2,1.0156059E-1,5.328503E-2,1.4769898E-1,4.7195437E-3,4.6847343E-2],"categories":[],"categories_nodes":[],"categories_segments":[],"categories_sizes":[],"default_left":[0,0,0,0,0,0,0,0,0,0,0,0,0,0,0,0,0,0,0,0,0,0,0,0,0,0,0],"id":14,"left_children":[1,3,5,7,9,11,13,15,17,19,-1,-1,-1,21,23,-1,-1,-1,-1,-1,-1,-1,25,-1,-1,-1,-1],"loss_changes":[4.709069E-1,9.797673E-2,3.9219296E-1,4.5122273E-2,1.6127065E-2,4.299149E-3,1.8198091E-1,1.0667853E-2,5.0515193E-3,7.4895564E-3,0E0,0E0,0E0,2.6858479E-2,1.3917983E-2,0E0,0E0,0E0,0E0,0E0,0E0,0E0,4.440348E-2,0E0,0E0,0E0,0E0],"parents":[2147483647,0,0,1,1,2,2,3,3,4,4,5,5,6,6,7,7,8,8,9,9,13,13,14,14,22,22],"right_children":[2,4,6,8,10,12,14,16,18,20,-1,-1,-1,22,24,-1,-1,-1,-1,-1,-1,-1,26,-1,-1,-1,-1],"split_conditions":[8E0,6E0,4E0,6E0,6E0,1E1,1E1,4E0,4E0,1E1,2.5599195E-2,8.222717E-3,1.6447663E-2,6E0,1E1,-9.832866E-3,-1.6146264E-3,3.4863532E-3,1.6907884E-2,3.6760382E-3,1.3229391E-2,7.97616E-2,1E1,5.328503E-2,1.4769898E-1,4.7195437E-3,4.6847343E-2],"split_indices":[1,0,0,1,1,1,1,0,0,0,0,0,0,0,0,0,0,0,0,0,0,0,0,0,0,0,0],"split_type":[0,0,0,0,0,0,0,0,0,0,0,0,0,0,0,0,0,0,0,0,0,0,0,0,0,0,0],"sum_hessian":[2.25E2,1.8E2,4.5E1,1.44E2,3.6E1,3.1E1,1.4E1,1.19E2,2.5E1,3.1E1,5E0,2E1,1.1E1,1E1,4E0,1.02E2,1.7E1,2.3E1,2E0,1.8E1,1.3E1,1E0,9E0,2E0,2E0,4E0,5E0],"tree_param":{"num_deleted":"0","num_feature":"2","num_nodes":"27","size_leaf_vector":"1"}},{"base_weights":[1.149577E-2,-6.145927E-3,8.066211E-2,-1.7256122E-2,1.8961761E-2,2.7753651E-2,1.88156E-1,-6.9116456E-3,2.4840832E-3,1.1073648E-2,1.9471873E-2,5.8734077E-3,1.1924458E-2,1.1040618E-1,3.215744E-1,2.7005274E-3,9.544067E-3,6.779738E-2,7.624855E-2,4.26281E-2,1.1815911E-1,-1.1571646E-3,2.631298E-3,3.5868073E-3,3.513527E-2],"categories":[],"categories_nodes":[],"categories_segments":[],"categories_sizes":[],"default_left":[0,0,0,0,0,0,0,0,0,0,0,0,0,0,0,0,0,0,0,0,0,0,0,0,0],"id":15,"left_children":[1,3,5,7,9,11,13,-1,-1,15,-1,-1,-1,17,19,21,-1,-1,23,-1,-1,-1,-1,-1,-1],"loss_changes":[2.7626356E-1,5.08174E-2,2.5639546E-1,1.8797088E-2,1.9576507E-2,2.3598205E-3,1.20094955E-1,0E0,0E0,8.423315E-3,0E0,0E0,0E0,2.6197731E-2,8.907199E-3,1.4669395E-3,0E0,0E0,2.4875466E-2,0E0,0E0,0E0,0E0,0E0,0E0],"parents":[2147483647,0,0,1,1,2,2,3,3,4,4,5,5,6,6,9,9,13,13,14,14,15,15,18,18],"right_children":[2,4,6,8,10,12,14,-1,-1,16,-1,-1,-1,18,20,22,-1,-1,24,-1,-1,-1,-1,-1,-1],"split_conditions":[8E0,4E0,4E0,6E0,6E0,1E1,1E1,-6.9116456E-3,2.4840832E-3,1E1,1.9471873E-2,5.8734077E-3,1.1924458E-2,6E0,1E1,6E0,9.544067E-3,6.779738E-2,1E1,4.26281E-2,1.1815911E-1,-1.1571646E-3,2.631298E-3,3.5868073E-3,3.513527E-2],"split_indices":[1,0,0,1,1,1,1,0,0,0,0,0,0,0,0,0,0,0,0,0,0,0,0,0,0],"split_type":[0,0,0,0,0,0,0,0,0,0,0,0,0,0,0,0,0,0,0,0,0,0,0,0,0],"sum_hessian":[2.25E2,1.8E2,4.5E1,1.25E2,5.5E1,3.1E1,1.4E1,1.02E2,2.3E1,4.8E1,7E0,2E1,1.1E1,1E1,4E0,3.5E1,1.3E1,1E0,9E0,2E0,2E0,1.7E1,1.8E1,4E0,5E0],"tree_param":{"num_deleted":"0","num_feature":"2","num_nodes":"25","size_leaf_vector":"1"}},{"base_weights":[9.423861E-3,-4.158196E-3,6.266144E-2,-8.0085145E-3,3.3457138E-2,1.9983768E-2,1.4952971E-1,-1.1583179E-2,9.895495E-3,6.8852766E-3,1.8559385E-2,4.1953498E-3,8.645154E-3,8.69679E-2,2.5725976E-1,-4.858282E-3,1.9314289E-3,1.7698407E-3,8.129196E-3,5.7627726E-2,5.724621E-2,3.410244E-2,9.4527446E-2,-8.2926755E-4,1.8834868E-3,2.7259828E-3,2.6351454E-2],"categories":[],"categories_nodes":[],"categories_segments":[],"categories_sizes":[],"default_left":[0,0,0,0,0,0,0,0,0,0,0,0,0,0,0,0,0,0,0,0,0,0,0,0,0,0,0],"id":16,"left_children":[1,3,5,7,9,11,13,15,17,-1,-1,-1,-1,19,21,-1,23,-1,-1,-1,25,-1,-1,-1,-1,-1,-1],"loss_changes":[1.6367571E-1,2.6482355E-2,1.6754928E-1,1.067476E-2,3.6538858E-3,1.2928145E-3,7.872346E-2,8.631043E-3,1.7648304E-3,0E0,0E0,0E0,0E0,2.3372695E-2,5.7008564E-3,0E0,7.5216324E-4,0E0,0E0,0E0,1.3934821E-2,0E0,0E0,0E0,0E0,0E0,0E0],"parents":[2147483647,0,0,1,1,2,2,3,3,4,4,5,5,6,6,7,7,8,8,13,13,14,14,16,16,20,20],"right_children":[2,4,6,8,10,12,14,16,18,-1,-1,-1,-1,20,22,-1,24,-1,-1,-1,26,-1,-1,-1,-1,-1,-1],"split_conditions":[8E0,1E1,4E0,6E0,6E0,1E1,1E1,4E0,4E0,6.8852766E-3,1.8559385E-2,4.1953498E-3,8.645154E-3,6E0,1E1,-4.858282E-3,6E0,1.7698407E-3,8.129196E-3,5.7627726E-2,1E1,3.410244E-2,9.4527446E-2,-8.2926755E-4,1.8834868E-3,2.7259828E-3,2.6351454E-2],"split_indices":[1,0,0,1,1,1,1,0,0,0,0,0,0,0,0,0,0,0,0,0,0,0,0,0,0,0,0],"split_type":[0,0,0,0,0,0,0,0,0,0,0,0,0,0,0,0,0,0,0,0,0,0,0,0,0,0,0],"sum_hessian":[2.25E2,1.8E2,4.5E1,1.64E2,1.6E1,3.1E1,1.4E1,1.37E2,2.7E1,1.3E1,3E0,2E1,1.1E1,1E1,4E0,1.02E2,3.5E1,2.3E1,4E0,1E0,9E0,2E0,2E0,1.7E1,1.8E1,4E0,5E0],"tree_param":{"num_deleted":"0","num_feature":"2","num_nodes":"27","size_leaf_vector":"1"}},{"base_weights":[7.745854E-3,-2.7365324E-3,4.882338E-2,-5.5690515E-3,2.4916537E-2,1.4390022E-2,1.1902631E-1,-8.1358E-3,7.2802478E-3,4.967165E-3,1.4383507E-2,2.9967173E-3,6.2677623E-3,6.875975E-2,2.0580749E-1,-3.4149482E-3,1.3812515E-3,1.2609601E-3,2.0594025E-2,4.8983578E-2,4.2980004E-2,2.7281953E-2,7.56218E-2,-5.9432193E-4,1.3481743E-3,8.006097E-3,2.2909166E-3,2.0718386E-3,1.9763472E-2],"categories":[],"categories_nodes":[],"categories_segments":[],"categories_sizes":[],"default_left":[0,0,0,0,0,0,0,0,0,0,0,0,0,0,0,0,0,0,0,0,0,0,0,0,0,0,0,0,0],"id":17,"left_children":[1,3,5,7,9,11,13,15,17,-1,-1,-1,-1,19,21,-1,23,-1,25,-1,27,-1,-1,-1,-1,-1,-1,-1,-1],"loss_changes":[9.744706E-2,1.4316102E-2,1.0948405E-1,5.501083E-3,2.4787076E-3,7.070587E-4,5.12816E-2,4.280653E-3,1.0605188E-3,0E0,0E0,0E0,0E0,1.9785669E-2,3.6484152E-3,0E0,3.8567092E-4,0E0,1.9095978E-4,0E0,7.805316E-3,0E0,0E0,0E0,0E0,0E0,0E0,0E0,0E0],"parents":[2147483647,0,0,1,1,2,2,3,3,4,4,5,5,6,6,7,7,8,8,13,13,14,14,16,16,18,18,20,20],"right_children":[2,4,6,8,10,12,14,16,18,-1,-1,-1,-1,20,22,-1,24,-1,26,-1,28,-1,-1,-1,-1,-1,-1,-1,-1],"split_conditions":[8E0,1E1,4E0,6E0,6E0,1E1,1E1,4E0,4E0,4.967165E-3,1.4383507E-2,2.9967173E-3,6.2677623E-3,6E0,1E1,-3.4149482E-3,6E0,1.2609601E-3,6E0,4.8983578E-2,1E1,2.7281953E-2,7.56218E-2,-5.9432193E-4,1.3481743E-3,8.006097E-3,2.2909166E-3,2.0718386E-3,1.9763472E-2],"split_indices":[1,0,0,1,1,1,1,0,0,0,0,0,0,0,0,0,0,0,0,0,0,0,0,0,0,0,0,0,0],"split_type":[0,0,0,0,0,0,0,0,0,0,0,0,0,0,0,0,0,0,0,0,0,0,0,0,0,0,0,0,0],"sum_hessian":[2.25E2,1.8E2,4.5E1,1.64E2,1.6E1,3.1E1,1.4E1,1.37E2,2.7E1,1.3E1,3E0,2E1,1.1E1,1E1,4E0,1.02E2,3.5E1,2.3E1,4E0,1E0,9E0,2E0,2E0,1.7E1,1.8E1,2E0,2E0,4E0,5E0],"tree_param":{"num_deleted":"0","num_feature":"2","num_nodes":"29","size_leaf_vector":"1"}},{"base_weights":[6.3567976E-3,-1.7594484E-3,3.815427E-2,-3.8443864E-3,1.8580213E-2,1.0362476E-2,9.489981E-2,-5.7143453E-3,5.509138E-3,3.5835744E-3,1.1147261E-2,2.140454E-3,4.544187E-3,5.456985E-2,1.6464576E-1,-2.4004101E-3,9.878079E-4,8.9849235E-4,1.6475296E-2,4.163604E-2,3.2269478E-2,2.18256E-2,6.0497284E-2,-4.259825E-4,9.6505316E-4,6.4048767E-3,1.8327713E-3,1.5747071E-3,1.4822483E-2],"categories":[],"categories_nodes":[],"categories_segments":[],"categories_sizes":[],"default_left":[0,0,0,0,0,0,0,0,0,0,0,0,0,0,0,0,0,0,0,0,0,0,0,0,0,0,0,0,0],"id":18,"left_children":[1,3,5,7,9,11,13,15,17,-1,-1,-1,-1,19,21,-1,23,-1,25,-1,27,-1,-1,-1,-1,-1,-1,-1,-1],"loss_changes":[5.839233E-2,7.747085E-3,7.156139E-2,2.9174471E-3,1.6515618E-3,3.8612168E-4,3.3208072E-2,2.1231635E-3,7.22637E-4,0E0,0E0,0E0,0E0,1.6180184E-2,2.3348033E-3,0E0,1.977783E-4,0E0,1.2220629E-4,0E0,4.3716356E-3,0E0,0E0,0E0,0E0,0E0,0E0,0E0,0E0],"parents":[2147483647,0,0,1,1,2,2,3,3,4,4,5,5,6,6,7,7,8,8,13,13,14,14,16,16,18,18,20,20],"right_children":[2,4,6,8,10,12,14,16,18,-1,-1,-1,-1,20,22,-1,24,-1,26,-1,28,-1,-1,-1,-1,-1,-1,-1,-1],"split_conditions":[8E0,1E1,4E0,6E0,6E0,1E1,1E1,4E0,4E0,3.5835744E-3,1.1147261E-2,2.140454E-3,4.544187E-3,6E0,1E1,-2.4004101E-3,6E0,8.9849235E-4,6E0,4.163604E-2,1E1,2.18256E-2,6.0497284E-2,-4.259825E-4,9.6505316E-4,6.4048767E-3,1.8327713E-3,1.5747071E-3,1.4822483E-2],"split_indices":[1,0,0,1,1,1,1,0,0,0,0,0,0,0,0,0,0,0,0,0,0,0,0,0,0,0,0,0,0],"split_type":[0,0,0,0,0,0,0,0,0,0,0,0,0,0,0,0,0,0,0,0,0,0,0,0,0,0,0,0,0],"sum_hessian":[2.25E2,1.8E2,4.5E1,1.64E2,1.6E1,3.1E1,1.4E1,1.37E2,2.7E1,1.3E1,3E0,2E1,1.1E1,1E1,4E0,1.02E2,3.5E1,2.3E1,4E0,1E0,9E0,2E0,2E0,1.7E1,1.8E1,2E0,2E0,4E0,5E0],"tree_param":{"num_deleted":"0","num_feature":"2","num_nodes":"29","size_leaf_vector":"1"}},{"base_weights":[5.197724E-3,-1.1100711E-3,2.9904531E-2,-2.646989E-3,1.3872371E-2,7.462561E-3,7.57871E-2,-4.0135584E-3,4.1827816E-3,2.5852001E-3,8.639074E-3,1.5288763E-3,3.294516E-3,4.347489E-2,1.3171653E-1,-1.6872783E-3,7.063283E-4,6.402135E-4,1.3180161E-2,3.539057E-2,2.4228668E-2,1.7460443E-2,4.839783E-2,-3.0533472E-4,6.9075637E-4,5.1239016E-3,1.4661789E-3,1.1968232E-3,1.1116982E-2],"categories":[],"categories_nodes":[],"categories_segments":[],"categories_sizes":[],"default_left":[0,0,0,0,0,0,0,0,0,0,0,0,0,0,0,0,0,0,0,0,0,0,0,0,0,0,0,0,0],"id":19,"left_children":[1,3,5,7,9,11,13,15,17,-1,-1,-1,-1,19,21,-1,23,-1,25,-1,27,-1,-1,-1,-1,-1,-1,-1,-1],"loss_changes":[3.525427E-2,4.2045675E-3,4.6800416E-2,1.5567914E-3,1.0851407E-3,2.1051138E-4,2.1381691E-2,1.0530946E-3,4.8800424E-4,0E0,0E0,0E0,0E0,1.2912719E-2,1.4943257E-3,0E0,1.0141594E-4,0E0,7.821829E-5,0E0,2.4484452E-3,0E0,0E0,0E0,0E0,0E0,0E0,0E0,0E0],"parents":[2147483647,0,0,1,1,2,2,3,3,4,4,5,5,6,6,7,7,8,8,13,13,14,14,16,16,18,18,20,20],"right_children":[2,4,6,8,10,12,14,16,18,-1,-1,-1,-1,20,22,-1,24,-1,26,-1,28,-1,-1,-1,-1,-1,-1,-1,-1],"split_conditions":[8E0,1E1,4E0,6E0,6E0,1E1,1E1,4E0,4E0,2.5852001E-3,8.639074E-3,1.5288763E-3,3.294516E-3,6E0,1E1,-1.6872783E-3,6E0,6.402135E-4,6E0,3.539057E-2,1E1,1.7460443E-2,4.839783E-2,-3.0533472E-4,6.9075637E-4,5.1239016E-3,1.4661789E-3,1.1968232E-3,1.1116982E-2],"split_indices":[1,0,0,1,1,1,1,0,0,0,0,0,0,0,0,0,0,0,0,0,0,0,0,0,0,0,0,0,0],"split_type":[0,0,0,0,0,0,0,0,0,0,0,0,0,0,0,0,0,0,0,0,0,0,0,0,0,0,0,0,0],"sum_hessian":[2.25E2,1.8E2,4.5E1,1.64E2,1.6E1,3.1E1,1.4E1,1.37E2,2.7E1,1.3E1,3E0,2E1,1.1E1,1E1,4E0,1.02E2,3.5E1,2.3E1,4E0,1E0,9E0,2E0,2E0,1.7E1,1.8E1,2E0,2E0,4E0,5E0],"tree_param":{"num_deleted":"0","num_feature":"2","num_nodes":"29","size_leaf_vector":"1"}},{"base_weights":[4.2380486E-3,-6.8235653E-4,2.3506641E-2,-1.8170212E-3,1.0370703E-2,5.3744614E-3,6.0621515E-2,-2.818968E-3,3.1860385E-3,1.8649782E-3,6.695223E-3,1.0920934E-3,2.3884058E-3,3.476871E-2,1.0537338E-1,-1.1860093E-3,5.0497055E-4,4.561007E-4,1.0544205E-2,3.008194E-2,1.8190956E-2,1.3968278E-2,3.8718417E-2,-2.1886827E-4,4.943848E-4,4.099083E-3,1.1730194E-3,9.095764E-4,8.337498E-3],"categories":[],"categories_nodes":[],"categories_segments":[],"categories_sizes":[],"default_left":[0,0,0,0,0,0,0,0,0,0,0,0,0,0,0,0,0,0,0,0,0,0,0,0,0,0,0,0,0],"id":20,"left_children":[1,3,5,7,9,11,13,15,17,-1,-1,-1,-1,19,21,-1,23,-1,25,-1,27,-1,-1,-1,-1,-1,-1,-1,-1],"loss_changes":[2.1442939E-2,2.2888582E-3,3.0630974E-2,8.3609327E-4,7.0493645E-4,1.1457212E-4,1.3690725E-2,5.2234787E-4,3.271518E-4,0E0,0E0,0E0,0E0,1.0121013E-2,9.565316E-4,0E0,5.199983E-5,0E0,5.0047238E-5,0E0,1.3711117E-3,0E0,0E0,0E0,0E0,0E0,0E0,0E0,0E0],"parents":[2147483647,0,0,1,1,2,2,3,3,4,4,5,5,6,6,7,7,8,8,13,13,14,14,16,16,18,18,20,20],"right_children":[2,4,6,8,10,12,14,16,18,-1,-1,-1,-1,20,22,-1,24,-1,26,-1,28,-1,-1,-1,-1,-1,-1,-1,-1],"split_conditions":[8E0,1E1,4E0,6E0,6E0,1E1,1E1,4E0,4E0,1.8649782E-3,6.695223E-3,1.0920934E-3,2.3884058E-3,6E0,1E1,-1.1860093E-3,6E0,4.561007E-4,6E0,3.008194E-2,1E1,1.3968278E-2,3.8718417E-2,-2.1886827E-4,4.943848E-4,4.099083E-3,1.1730194E-3,9.095764E-4,8.337498E-3],"split_indices":[1,0,0,1,1,1,1,0,0,0,0,0,0,0,0,0,0,0,0,0,0,0,0,0,0,0,0,0,0],"split_type":[0,0,0,0,0,0,0,0,0,0,0,0,0,0,0,0,0,0,0,0,0,0,0,0,0,0,0,0,0],"sum_hessian":[2.25E2,1.8E2,4.5E1,1.64E2,1.6E1,3.1E1,1.4E1,1.37E2,2.7E1,1.3E1,3E0,2E1,1.1E1,1E1,4E0,1.02E2,3.5E1,2.3E1,4E0,1E0,9E0,2E0,2E0,1.7E1,1.8E1,2E0,2E0,4E0,5E0],"tree_param":{"num_deleted":"0","num_feature":"2","num_nodes":"29","size_leaf_vector":"1"}},{"base_weights":[3.4483613E-3,-4.037976E-4,1.8530805E-2,-1.2427571E-3,7.7627967E-3,3.871113E-3,4.8569426E-2,-1.9798877E-3,2.4346283E-3,1.3453348E-3,5.1888945E-3,7.8010565E-4,1.7317057E-3,2.7913613E-2,8.429833E-2,-8.336609E-4,3.6108494E-4,3.2490492E-4,8.43544E-3,2.556968E-2,1.3658524E-2,1.1174584E-2,3.097458E-2,-1.5685559E-4,3.538483E-4,3.2793046E-3,9.384156E-4,6.912232E-4,6.2532425E-3],"categories":[],"categories_nodes":[],"categories_segments":[],"categories_sizes":[],"default_left":[0,0,0,0,0,0,0,0,0,0,0,0,0,0,0,0,0,0,0,0,0,0,0,0,0,0,0,0,0],"id":21,"left_children":[1,3,5,7,9,11,13,15,17,-1,-1,-1,-1,19,21,-1,23,-1,25,-1,27,-1,-1,-1,-1,-1,-1,-1,-1],"loss_changes":[1.3138074E-2,1.2497581E-3,2.00684E-2,4.5208802E-4,4.5375677E-4,6.230254E-5,8.717071E-3,2.591178E-4,2.179658E-4,0E0,0E0,0E0,0E0,7.82376E-3,6.121583E-4,0E0,2.6659902E-5,0E0,3.203217E-5,0E0,7.6786056E-4,0E0,0E0,0E0,0E0,0E0,0E0,0E0,0E0],"parents":[2147483647,0,0,1,1,2,2,3,3,4,4,5,5,6,6,7,7,8,8,13,13,14,14,16,16,18,18,20,20],"right_children":[2,4,6,8,10,12,14,16,18,-1,-1,-1,-1,20,22,-1,24,-1,26,-1,28,-1,-1,-1,-1,-1,-1,-1,-1],"split_conditions":[8E0,1E1,4E0,6E0,6E0,1E1,1E1,4E0,4E0,1.3453348E-3,5.1888945E-3,7.8010565E-4,1.7317057E-3,6E0,1E1,-8.336609E-4,6E0,3.2490492E-4,6E0,2.556968E-2,1E1,1.1174584E-2,3.097458E-2,-1.5685559E-4,3.538483E-4,3.2793046E-3,9.384156E-4,6.912232E-4,6.2532425E-3],"split_indices":[1,0,0,1,1,1,1,0,0,0,0,0,0,0,0,0,0,0,0,0,0,0,0,0,0,0,0,0,0],"split_type":[0,0,0,0,0,0,0,0,0,0,0,0,0,0,0,0,0,0,0,0,0,0,0,0,0,0,0,0,0],"sum_hessian":[2.25E2,1.8E2,4.5E1,1.64E2,1.6E1,3.1E1,1.4E1,1.37E2,2.7E1,1.3E1,3E0,2E1,1.1E1,1E1,4E0,1.02E2,3.5E1,2.3E1,4E0,1E0,9E0,2E0,2E0,1.7E1,1.8E1,2E0,2E0,4E0,5E0],"tree_param":{"num_deleted":"0","num_feature":"2","num_nodes":"29","size_leaf_vector":"1"}},{"base_weights":[2.8015377E-3,-2.2497583E-4,1.4649308E-2,-8.462309E-4,5.8180867E-3,2.7882159E-3,3.8976353E-2,-1.3905275E-3,1.866596E-3,9.704795E-4,4.0213824E-3,5.5721827E-4,1.2554408E-3,2.2495704E-2,6.7438506E-2,-5.859907E-4,2.582603E-4,2.3154618E-4,6.7481995E-3,2.1734191E-2,1.0255814E-2,8.939743E-3,2.4779512E-2,-1.12406415E-4,2.532909E-4,2.6233674E-3,7.5073243E-4,5.2528386E-4,4.6901708E-3],"categories":[],"categories_nodes":[],"categories_segments":[],"categories_sizes":[],"default_left":[0,0,0,0,0,0,0,0,0,0,0,0,0,0,0,0,0,0,0,0,0,0,0,0,0,0,0,0,0],"id":22,"left_children":[1,3,5,7,9,11,13,15,17,-1,-1,-1,-1,19,21,-1,23,-1,25,-1,27,-1,-1,-1,-1,-1,-1,-1,-1],"loss_changes":[8.107077E-3,6.844487E-4,1.316441E-2,2.4623162E-4,2.8978876E-4,3.3826276E-5,5.5190437E-3,1.2855418E-4,1.4443087E-4,0E0,0E0,0E0,0E0,5.982416E-3,3.9167702E-4,0E0,1.3670001E-5,0E0,2.0497522E-5,0E0,4.3002516E-4,0E0,0E0,0E0,0E0,0E0,0E0,0E0,0E0],"parents":[2147483647,0,0,1,1,2,2,3,3,4,4,5,5,6,6,7,7,8,8,13,13,14,14,16,16,18,18,20,20],"right_children":[2,4,6,8,10,12,14,16,18,-1,-1,-1,-1,20,22,-1,24,-1,26,-1,28,-1,-1,-1,-1,-1,-1,-1,-1],"split_conditions":[8E0,1E1,4E0,6E0,6E0,1E1,1E1,4E0,4E0,9.704795E-4,4.0213824E-3,5.5721827E-4,1.2554408E-3,6E0,1E1,-5.859907E-4,6E0,2.3154618E-4,6E0,2.1734191E-2,1E1,8.939743E-3,2.4779512E-2,-1.12406415E-4,2.532909E-4,2.6233674E-3,7.5073243E-4,5.2528386E-4,4.6901708E-3],"split_indices":[1,0,0,1,1,1,1,0,0,0,0,0,0,0,0,0,0,0,0,0,0,0,0,0,0,0,0,0,0],"split_type":[0,0,0,0,0,0,0,0,0,0,0,0,0,0,0,0,0,0,0,0,0,0,0,0,0,0,0,0,0],"sum_hessian":[2.25E2,1.8E2,4.5E1,1.64E2,1.6E1,3.1E1,1.4E1,1.37E2,2.7E1,1.3E1,3E0,2E1,1.1E1,1E1,4E0,1.02E2,3.5E1,2.3E1,4E0,1E0,9E0,2E0,2E0,1.7E1,1.8E1,2E0,2E0,4E0,5E0],"tree_param":{"num_deleted":"0","num_feature":"2","num_nodes":"29","size_leaf_vector":"1"}},{"base_weights":[2.2735798E-3,-1.1247654E-4,1.1612767E-2,-5.732113E-4,4.365977E-3,2.0084083E-3,3.1327885E-2,-9.765672E-4,1.4352287E-3,7.00031E-4,3.1165124E-3,3.979547E-4,9.10306E-4,1.8196886E-2,5.39505E-2,-4.119003E-4,1.8480088E-4,1.649201E-4,5.3985594E-3,1.8474055E-2,7.7005387E-3,7.151795E-3,1.9823456E-2,-8.052191E-5,1.8132864E-4,2.0986558E-3,6.006241E-4,3.9916992E-4,3.517628E-3],"categories":[],"categories_nodes":[],"categories_segments":[],"categories_sizes":[],"default_left":[0,0,0,0,0,0,0,0,0,0,0,0,0,0,0,0,0,0,0,0,0,0,0,0,0,0,0,0,0],"id":23,"left_children":[1,3,5,7,9,11,13,15,17,-1,-1,-1,-1,19,21,-1,23,-1,25,-1,27,-1,-1,-1,-1,-1,-1,-1,-1],"loss_changes":[5.0374516E-3,3.7597425E-4,8.6472295E-3,1.3507076E-4,1.8385239E-4,1.8361592E-5,3.474133E-3,6.37897E-5,9.529851E-5,0E0,0E0,0E0,0E0,4.5348275E-3,2.5063567E-4,0E0,7.0086535E-6,0E0,1.3114608E-5,0E0,2.4078268E-4,0E0,0E0,0E0,0E0,0E0,0E0,0E0,0E0],"parents":[2147483647,0,0,1,1,2,2,3,3,4,4,5,5,6,6,7,7,8,8,13,13,14,14,16,16,18,18,20,20],"right_children":[2,4,6,8,10,12,14,16,18,-1,-1,-1,-1,20,22,-1,24,-1,26,-1,28,-1,-1,-1,-1,-1,-1,-1,-1],"split_conditions":[8E0,1E1,4E0,6E0,6E0,1E1,1E1,4E0,4E0,7.00031E-4,3.1165124E-3,3.979547E-4,9.10306E-4,6E0,1E1,-4.119003E-4,6E0,1.649201E-4,6E0,1.8474055E-2,1E1,7.151795E-3,1.9823456E-2,-8.052191E-5,1.8132864E-4,2.0986558E-3,6.006241E-4,3.9916992E-4,3.517628E-3],"split_indices":[1,0,0,1,1,1,1,0,0,0,0,0,0,0,0,0,0,0,0,0,0,0,0,0,0,0,0,0,0],"split_type":[0,0,0,0,0,0,0,0,0,0,0,0,0,0,0,0,0,0,0,0,0,0,0,0,0,0,0,0,0],"sum_hessian":[2.25E2,1.8E2,4.5E1,1.64E2,1.6E1,3.1E1,1.4E1,1.37E2,2.7E1,1.3E1,3E0,2E1,1.1E1,1E1,4E0,1.02E2,3.5E1,2.3E1,4E0,1E0,9E0,2E0,2E0,1.7E1,1.8E1,2E0,2E0,4E0,5E0],"tree_param":{"num_deleted":"0","num_feature":"2","num_nodes":"29","size_leaf_vector":"1"}},{"base_weights":[1.8438871E-3,-4.3536955E-5,9.230406E-3,-3.857698E-4,3.2806958E-3,1.4464855E-3,2.5220744E-2,-6.858264E-4,1.1068583E-3,5.0503184E-4,2.4152757E-3,2.8419495E-4,6.598473E-4,1.4773455E-2,4.316063E-2,-2.895299E-4,1.3225609E-4,1.1748672E-4,4.3186187E-3,1.5703011E-2,5.7821274E-3,5.721474E-3,1.5858842E-2,-5.768935E-5,1.2983021E-4,1.6788483E-3,4.8046114E-4,3.0326843E-4,2.6383402E-3],"categories":[],"categories_nodes":[],"categories_segments":[],"categories_sizes":[],"default_left":[0,0,0,0,0,0,0,0,0,0,0,0,0,0,0,0,0,0,0,0,0,0,0,0,0,0,0,0,0],"id":24,"left_children":[1,3,5,7,9,11,13,15,17,-1,-1,-1,-1,19,21,-1,23,-1,25,-1,27,-1,-1,-1,-1,-1,-1,-1,-1],"loss_changes":[3.15118E-3,2.0718234E-4,5.689025E-3,7.465816E-5,1.1597431E-4,9.944444E-6,2.1737153E-3,3.1656295E-5,6.262939E-5,0E0,0E0,0E0,0E0,3.4131818E-3,1.6040355E-4,0E0,3.594376E-6,0E0,8.393465E-6,0E0,1.3483549E-4,0E0,0E0,0E0,0E0,0E0,0E0,0E0,0E0],"parents":[2147483647,0,0,1,1,2,2,3,3,4,4,5,5,6,6,7,7,8,8,13,13,14,14,16,16,18,18,20,20],"right_children":[2,4,6,8,10,12,14,16,18,-1,-1,-1,-1,20,22,-1,24,-1,26,-1,28,-1,-1,-1,-1,-1,-1,-1,-1],"split_conditions":[8E0,1E1,4E0,6E0,6E0,1E1,1E1,4E0,4E0,5.0503184E-4,2.4152757E-3,2.8419495E-4,6.598473E-4,6E0,1E1,-2.895299E-4,6E0,1.1748672E-4,6E0,1.5703011E-2,1E1,5.721474E-3,1.5858842E-2,-5.768935E-5,1.2983021E-4,1.6788483E-3,4.8046114E-4,3.0326843E-4,2.6383402E-3],"split_indices":[1,0,0,1,1,1,1,0,0,0,0,0,0,0,0,0,0,0,0,0,0,0,0,0,0,0,0,0,0],"split_type":[0,0,0,0,0,0,0,0,0,0,0,0,0,0,0,0,0,0,0,0,0,0,0,0,0,0,0,0,0],"sum_hessian":[2.25E2,1.8E2,4.5E1,1.64E2,1.6E1,3.1E1,1.4E1,1.37E2,2.7E1,1.3E1,3E0,2E1,1.1E1,1E1,4E0,1.02E2,3.5E1,2.3E1,4E0,1E0,9E0,2E0,2E0,1.7E1,1.8E1,2E0,2E0,4E0,5E0],"tree_param":{"num_deleted":"0","num_feature":"2","num_nodes":"29","size_leaf_vector":"1"}},{"base_weights":[1.494923E-3,-2.9604842E-6,7.3562707E-3,-2.5751448E-4,2.4678847E-3,1.0420084E-3,2.0336278E-2,-4.8163577E-4,8.562803E-4,3.6422868E-4,1.8717528E-3,2.029964E-4,4.7836304E-4,1.2036583E-2,3.4528352E-2,-2.0351422E-4,9.4652176E-5,8.376241E-5,3.4549714E-3,1.3347531E-2,4.3418882E-3,4.5772553E-3,1.268692E-2,-4.1341784E-5,9.296819E-5,1.3431549E-3,3.8433078E-4,2.3048402E-4,1.9788742E-3],"categories":[],"categories_nodes":[],"categories_segments":[],"categories_sizes":[],"default_left":[0,0,0,0,0,0,0,0,0,0,0,0,0,0,0,0,0,0,0,0,0,0,0,0,0,0,0,0,0],"id":25,"left_children":[1,3,5,7,9,11,13,15,17,-1,-1,-1,-1,19,21,-1,23,-1,25,-1,27,-1,-1,-1,-1,-1,-1,-1,-1],"loss_changes":[1.9842149E-3,1.1447791E-4,3.7489312E-3,4.1600564E-5,7.280792E-5,5.380909E-6,1.3512447E-3,1.5710892E-5,4.1025058E-5,0E0,0E0,0E0,0E0,2.553882E-3,1.02605205E-4,0E0,1.8439544E-6,0E0,5.375041E-6,0E0,7.54942E-5,0E0,0E0,0E0,0E0,0E0,0E0,0E0,0E0],"parents":[2147483647,0,0,1,1,2,2,3,3,4,4,5,5,6,6,7,7,8,8,13,13,14,14,16,16,18,18,20,20],"right_children":[2,4,6,8,10,12,14,16,18,-1,-1,-1,-1,20,22,-1,24,-1,26,-1,28,-1,-1,-1,-1,-1,-1,-1,-1],"split_conditions":[8E0,1E1,4E0,6E0,6E0,1E1,1E1,4E0,4E0,3.6422868E-4,1.8717528E-3,2.029964E-4,4.7836304E-4,6E0,1E1,-2.0351422E-4,6E0,8.376241E-5,6E0,1.3347531E-2,1E1,4.5772553E-3,1.268692E-2,-4.1341784E-5,9.296819E-5,1.3431549E-3,3.8433078E-4,2.3048402E-4,1.9788742E-3],"split_indices":[1,0,0,1,1,1,1,0,0,0,0,0,0,0,0,0,0,0,0,0,0,0,0,0,0,0,0,0,0],"split_type":[0,0,0,0,0,0,0,0,0,0,0,0,0,0,0,0,0,0,0,0,0,0,0,0,0,0,0,0,0],"sum_hessian":[2.25E2,1.8E2,4.5E1,1.64E2,1.6E1,3.1E1,1.4E1,1.37E2,2.7E1,1.3E1,3E0,2E1,1.1E1,1E1,4E0,1.02E2,3.5E1,2.3E1,4E0,1E0,9E0,2E0,2E0,1.7E1,1.8E1,2E0,2E0,4E0,5E0],"tree_param":{"num_deleted":"0","num_feature":"2","num_nodes":"29","size_leaf_vector":"1"}},{"base_weights":[1.2118435E-3,1.9434081E-5,5.8773705E-3,-1.702081E-4,1.8589357E-3,7.504821E-4,1.6422907E-2,-3.3823002E-4,6.639787E-4,2.6274408E-4,1.4505386E-3,1.449585E-4,3.4670832E-4,1.13453865E-2,1.2193407E-2,-1.4305272E-4,2.0325184E-5,5.963445E-5,2.7641295E-3,3.2596588E-3,2.7622223E-2,1.0746003E-3,3.074646E-4,1.7509461E-4,1.4839172E-3,3.6617282E-3,1.0149384E-2],"categories":[],"categories_nodes":[],"categories_segments":[],"categories_sizes":[],"default_left":[0,0,0,0,0,0,0,0,0,0,0,0,0,0,0,0,0,0,0,0,0,0,0,0,0,0,0],"id":26,"left_children":[1,3,5,7,9,11,13,15,17,-1,-1,-1,-1,-1,19,-1,-1,-1,21,23,25,-1,-1,-1,-1,-1,-1],"loss_changes":[1.257173E-3,6.345774E-5,2.474701E-3,2.335125E-5,4.5506666E-5,2.9074308E-6,8.962257E-4,7.798109E-6,2.6806105E-5,0E0,0E0,0E0,0E0,0E0,1.8396813E-3,0E0,0E0,0E0,3.4412733E-6,4.225017E-5,6.5671746E-5,0E0,0E0,0E0,0E0,0E0,0E0],"parents":[2147483647,0,0,1,1,2,2,3,3,4,4,5,5,6,6,7,7,8,8,14,14,18,18,19,19,20,20],"right_children":[2,4,6,8,10,12,14,16,18,-1,-1,-1,-1,-1,20,-1,-1,-1,22,24,26,-1,-1,-1,-1,-1,-1],"split_conditions":[8E0,1E1,4E0,6E0,6E0,1E1,6E0,4E0,4E0,2.6274408E-4,1.4505386E-3,1.449585E-4,3.4670832E-4,1.13453865E-2,1E1,-1.4305272E-4,2.0325184E-5,5.963445E-5,6E0,1E1,1E1,1.0746003E-3,3.074646E-4,1.7509461E-4,1.4839172E-3,3.6617282E-3,1.0149384E-2],"split_indices":[1,0,0,1,1,1,0,0,0,0,0,0,0,0,1,0,0,0,0,0,0,0,0,0,0,0,0],"split_type":[0,0,0,0,0,0,0,0,0,0,0,0,0,0,0,0,0,0,0,0,0,0,0,0,0,0,0],"sum_hessian":[2.25E2,1.8E2,4.5E1,1.64E2,1.6E1,3.1E1,1.4E1,1.37E2,2.7E1,1.3E1,3E0,2E1,1.1E1,1E0,1.3E1,1.02E2,3.5E1,2.3E1,4E0,9E0,4E0,2E0,2E0,4E0,5E0,2E0,2E0],"tree_param":{"num_deleted":"0","num_feature":"2","num_nodes":"27","size_leaf_vector":"1"}},{"base_weights":[9.824601E-4,3.0294208E-5,4.707668E-3,-1.1118336E-4,1.4016768E-3,5.405545E-4,1.3283666E-2,-2.3769568E-4,5.163125E-4,1.8942016E-4,1.1241675E-3,1.0354179E-4,2.512455E-4,9.643651E-3,9.640285E-3,-9.161805E-5,6.071392E-5,4.2498115E-5,2.21138E-3,2.4475097E-3,2.2097778E-2,8.596421E-4,2.4604797E-4,1.3298035E-4,1.1129379E-3,2.9293061E-3,8.119583E-3],"categories":[],"categories_nodes":[],"categories_segments":[],"categories_sizes":[],"default_left":[0,0,0,0,0,0,0,0,0,0,0,0,0,0,0,0,0,0,0,0,0,0,0,0,0,0,0],"id":27,"left_children":[1,3,5,7,9,11,13,15,17,-1,-1,-1,-1,-1,19,-1,-1,-1,21,23,25,-1,-1,-1,-1,-1,-1],"loss_changes":[8.0148305E-4,3.5273446E-5,1.6367288E-3,1.3221406E-5,2.8348244E-5,1.5677424E-6,7.2092074E-4,4.173121E-6,1.7468432E-5,0E0,0E0,0E0,0E0,0E0,1.2003708E-3,0E0,0E0,0E0,2.199793E-6,2.3654778E-5,4.2056432E-5,0E0,0E0,0E0,0E0,0E0,0E0],"parents":[2147483647,0,0,1,1,2,2,3,3,4,4,5,5,6,6,7,7,8,8,14,14,18,18,19,19,20,20],"right_children":[2,4,6,8,10,12,14,16,18,-1,-1,-1,-1,-1,20,-1,-1,-1,22,24,26,-1,-1,-1,-1,-1,-1],"split_conditions":[8E0,1E1,4E0,6E0,6E0,1E1,6E0,6E0,4E0,1.8942016E-4,1.1241675E-3,1.0354179E-4,2.512455E-4,9.643651E-3,1E1,-9.161805E-5,6.071392E-5,4.2498115E-5,6E0,1E1,1E1,8.596421E-4,2.4604797E-4,1.3298035E-4,1.1129379E-3,2.9293061E-3,8.119583E-3],"split_indices":[1,0,0,1,1,1,0,0,0,0,0,0,0,0,1,0,0,0,0,0,0,0,0,0,0,0,0],"split_type":[0,0,0,0,0,0,0,0,0,0,0,0,0,0,0,0,0,0,0,0,0,0,0,0,0,0,0],"sum_hessian":[2.25E2,1.8E2,4.5E1,1.64E2,1.6E1,3.1E1,1.4E1,1.37E2,2.7E1,1.3E1,3E0,2E1,1.1E1,1E0,1.3E1,1.19E2,1.8E1,2.3E1,4E0,9E0,4E0,2E0,2E0,4E0,5E0,2E0,2E0],"tree_param":{"num_deleted":"0","num_feature":"2","num_nodes":"27","size_leaf_vector":"1"}},{"base_weights":[7.971244E-4,3.4627814E-5,3.780054E-3,-7.103376E-5,1.0581297E-3,1.1689962E-4,1.0760879E-2,-1.6659868E-4,4.0250164E-4,1.3655254E-4,8.7118155E-4,8.197118E-3,7.6261247E-3,-7.3334995E-5,1.8231074E-5,3.0297042E-5,1.7692565E-3,1.8375397E-3,1.767807E-2,6.877899E-4,1.9683839E-4,1.0116578E-4,8.344651E-4,2.3433685E-3,6.4956667E-3],"categories":[],"categories_nodes":[],"categories_segments":[],"categories_sizes":[],"default_left":[0,0,0,0,0,0,0,0,0,0,0,0,0,0,0,0,0,0,0,0,0,0,0,0,0],"id":28,"left_children":[1,3,5,7,9,-1,11,13,15,-1,-1,-1,17,-1,-1,-1,19,21,23,-1,-1,-1,-1,-1,-1],"loss_changes":[5.139002E-4,1.9649377E-5,1.0845215E-3,7.533863E-6,1.7598159E-5,0E0,5.7043263E-4,2.457588E-6,1.1359909E-5,0E0,0E0,0E0,7.821275E-4,0E0,0E0,0E0,1.4086654E-6,1.3225188E-5,2.6931055E-5,0E0,0E0,0E0,0E0,0E0,0E0],"parents":[2147483647,0,0,1,1,2,2,3,3,4,4,6,6,7,7,8,8,12,12,16,16,17,17,18,18],"right_children":[2,4,6,8,10,-1,12,14,16,-1,-1,-1,18,-1,-1,-1,20,22,24,-1,-1,-1,-1,-1,-1],"split_conditions":[8E0,1E1,4E0,6E0,6E0,1.1689962E-4,6E0,4E0,4E0,1.3655254E-4,8.7118155E-4,8.197118E-3,1E1,-7.3334995E-5,1.8231074E-5,3.0297042E-5,6E0,1E1,1E1,6.877899E-4,1.9683839E-4,1.0116578E-4,8.344651E-4,2.3433685E-3,6.4956667E-3],"split_indices":[1,0,0,1,1,0,0,0,0,0,0,0,1,0,0,0,0,0,0,0,0,0,0,0,0],"split_type":[0,0,0,0,0,0,0,0,0,0,0,0,0,0,0,0,0,0,0,0,0,0,0,0,0],"sum_hessian":[2.25E2,1.8E2,4.5E1,1.64E2,1.6E1,3.1E1,1.4E1,1.37E2,2.7E1,1.3E1,3E0,1E0,1.3E1,1.02E2,3.5E1,2.3E1,4E0,9E0,4E0,2E0,2E0,4E0,5E0,2E0,2E0],"tree_param":{"num_deleted":"0","num_feature":"2","num_nodes":"25","size_leaf_vector":"1"}},{"base_weights":[6.462562E-4,3.4562087E-5,3.0390904E-3,-4.4512795E-5,8.000205E-4,8.289814E-5,8.73038E-3,-1.1699015E-4,3.1428676E-4,9.856225E-5,6.750584E-4,6.9675925E-3,6.036077E-3,-4.6434125E-5,3.8352766E-5,2.1523238E-5,4.2469028E-4,1.3793946E-3,1.4142227E-2,7.6904296E-5,6.256104E-4,1.874733E-3,5.1963804E-3],"categories":[],"categories_nodes":[],"categories_segments":[],"categories_sizes":[],"default_left":[0,0,0,0,0,0,0,0,0,0,0,0,0,0,0,0,0,0,0,0,0,0,0],"id":29,"left_children":[1,3,5,7,9,-1,11,13,15,-1,-1,-1,17,-1,-1,-1,-1,19,21,-1,-1,-1,-1],"loss_changes":[3.3068727E-4,1.0991277E-5,7.2087714E-4,4.327568E-6,1.0884089E-5,0E0,4.4561608E-4,1.2966037E-6,7.3779E-6,0E0,0E0,0E0,5.0896103E-4,0E0,0E0,0E0,0E0,7.3938318E-6,1.7220154E-5,0E0,0E0,0E0,0E0],"parents":[2147483647,0,0,1,1,2,2,3,3,4,4,6,6,7,7,8,8,12,12,17,17,18,18],"right_children":[2,4,6,8,10,-1,12,14,16,-1,-1,-1,18,-1,-1,-1,-1,20,22,-1,-1,-1,-1],"split_conditions":[8E0,1E1,4E0,6E0,6E0,8.289814E-5,6E0,6E0,4E0,9.856225E-5,6.750584E-4,6.9675925E-3,1E1,-4.6434125E-5,3.8352766E-5,2.1523238E-5,4.2469028E-4,1E1,1E1,7.6904296E-5,6.256104E-4,1.874733E-3,5.1963804E-3],"split_indices":[1,0,0,1,1,0,0,0,0,0,0,0,1,0,0,0,0,0,0,0,0,0,0],"split_type":[0,0,0,0,0,0,0,0,0,0,0,0,0,0,0,0,0,0,0,0,0,0,0],"sum_hessian":[2.25E2,1.8E2,4.5E1,1.64E2,1.6E1,3.1E1,1.4E1,1.37E2,2.7E1,1.3E1,3E0,1E0,1.3E1,1.19E2,1.8E1,2.3E1,4E0,9E0,4E0,4E0,5E0,2E0,2E0],"tree_param":{"num_deleted":"0","num_feature":"2","num_nodes":"23","size_leaf_vector":"1"}},{"base_weights":[5.233561E-4,3.0928382E-5,2.4495746E-3,-2.7937056E-5,3.0949287E-4,5.8785085E-5,7.094002E-3,3.0464056E-5,4.6334267E-4,5.922461E-3,4.780497E-3,1.0356903E-3,1.131401E-2,5.836487E-5,4.692078E-4,1.4997483E-3,4.1572573E-3],"categories":[],"categories_nodes":[],"categories_segments":[],"categories_sizes":[],"default_left":[0,0,0,0,0,0,0,0,0,0,0,0,0,0,0,0,0],"id":30,"left_children":[1,3,5,-1,7,-1,9,-1,-1,-1,11,13,15,-1,-1,-1,-1],"loss_changes":[2.1429054E-4,6.283539E-6,4.8008247E-4,0E0,1.4224508E-5,0E0,3.4452754E-4,0E0,0E0,0E0,3.3081663E-4,4.139765E-6,1.1033553E-5,0E0,0E0,0E0,0E0],"parents":[2147483647,0,0,1,1,2,2,4,4,6,6,10,10,11,11,12,12],"right_children":[2,4,6,-1,8,-1,10,-1,-1,-1,12,14,16,-1,-1,-1,-1],"split_conditions":[8E0,4E0,4E0,-2.7937056E-5,6E0,5.8785085E-5,6E0,3.0464056E-5,4.6334267E-4,5.922461E-3,1E1,1E1,1E1,5.836487E-5,4.692078E-4,1.4997483E-3,4.1572573E-3],"split_indices":[1,0,0,0,1,0,0,0,0,0,1,0,0,0,0,0,0],"split_type":[0,0,0,0,0,0,0,0,0,0,0,0,0,0,0,0,0],"sum_hessian":[2.25E2,1.8E2,4.5E1,1.25E2,5.5E1,3.1E1,1.4E1,4.8E1,7E0,1E0,1.3E1,9E0,4E0,4E0,5E0,2E0,2E0],"tree_param":{"num_deleted":"0","num_feature":"2","num_nodes":"17","size_leaf_vector":"1"}},{"base_weights":[4.2223494E-4,2.4228957E-5,1.979123E-3,-2.50009E-5,5.006229E-4,1.3896823E-4,5.772845E-3,-2.0711384E-5,1.9293172E-4,6.2697276E-5,4.1885377E-4,1.362392E-7,1.1093617E-4,5.0341133E-3,3.7879944E-3,2.3442508E-5,7.053375E-4,7.7781675E-4,9.050751E-3,3.7269594E-4,-2.002716E-5,4.4403077E-5,3.5190582E-4,1.1997224E-3,3.3256533E-3],"categories":[],"categories_nodes":[],"categories_segments":[],"categories_sizes":[],"default_left":[0,0,0,0,0,0,0,0,0,0,0,0,0,0,0,0,0,0,0,0,0,0,0,0,0],"id":31,"left_children":[1,3,5,7,9,11,13,-1,15,-1,-1,-1,-1,-1,17,-1,19,21,23,-1,-1,-1,-1,-1,-1],"loss_changes":[1.3999314E-4,4.2574743E-6,3.2032543E-4,1.5968426E-6,4.14815E-6,1.0229259E-6,2.6416057E-4,0E0,1.5918177E-6,0E0,0E0,0E0,0E0,0E0,2.1474581E-4,0E0,2.1559397E-6,2.315393E-6,7.0629176E-6,0E0,0E0,0E0,0E0,0E0,0E0],"parents":[2147483647,0,0,1,1,2,2,3,3,4,4,5,5,6,6,8,8,14,14,16,16,17,17,18,18],"right_children":[2,4,6,8,10,12,14,-1,16,-1,-1,-1,-1,-1,18,-1,20,22,24,-1,-1,-1,-1,-1,-1],"split_conditions":[8E0,1E1,4E0,6E0,6E0,1E1,6E0,-2.0711384E-5,4E0,6.2697276E-5,4.1885377E-4,1.362392E-7,1.1093617E-4,5.0341133E-3,1E1,2.3442508E-5,6E0,1E1,1E1,3.7269594E-4,-2.002716E-5,4.4403077E-5,3.5190582E-4,1.1997224E-3,3.3256533E-3],"split_indices":[1,0,0,1,1,1,0,0,0,0,0,0,0,0,1,0,0,0,0,0,0,0,0,0,0],"split_type":[0,0,0,0,0,0,0,0,0,0,0,0,0,0,0,0,0,0,0,0,0,0,0,0,0],"sum_hessian":[2.25E2,1.8E2,4.5E1,1.64E2,1.6E1,3.1E1,1.4E1,1.37E2,2.7E1,1.3E1,3E0,2E1,1.1E1,1E0,1.3E1,2.3E1,4E0,9E0,4E0,2E0,2E0,4E0,5E0,2E0,2E0],"tree_param":{"num_deleted":"0","num_feature":"2","num_nodes":"25","size_leaf_vector":"1"}},{"base_weights":[3.4380655E-4,2.1537493E-5,1.6043911E-3,-4.614658E-6,3.786087E-4,3.028214E-5,4.7047934E-3,4.5163295E-5,3.246546E-4,4.278946E-3,3.0032566E-3,5.844116E-4,7.2402954E-3,3.3645632E-5,2.641678E-4,9.597779E-4,2.66037E-3],"categories":[],"categories_nodes":[],"categories_segments":[],"categories_sizes":[],"default_left":[0,0,0,0,0,0,0,0,0,0,0,0,0,0,0,0,0],"id":32,"left_children":[1,3,5,-1,7,-1,9,-1,-1,-1,11,13,15,-1,-1,-1,-1],"loss_changes":[9.177736E-5,2.391939E-6,2.1394496E-4,0E0,2.5649038E-6,0E0,2.0112257E-4,0E0,0E0,0E0,1.3925105E-4,1.2998289E-6,4.515314E-6,0E0,0E0,0E0,0E0],"parents":[2147483647,0,0,1,1,2,2,4,4,6,6,10,10,11,11,12,12],"right_children":[2,4,6,-1,8,-1,10,-1,-1,-1,12,14,16,-1,-1,-1,-1],"split_conditions":[8E0,1E1,4E0,-4.614658E-6,6E0,3.028214E-5,6E0,4.5163295E-5,3.246546E-4,4.278946E-3,1E1,1E1,1E1,3.3645632E-5,2.641678E-4,9.597779E-4,2.66037E-3],"split_indices":[1,0,0,0,1,0,0,0,0,0,1,0,0,0,0,0,0],"split_type":[0,0,0,0,0,0,0,0,0,0,0,0,0,0,0,0,0],"sum_hessian":[2.25E2,1.8E2,4.5E1,1.64E2,1.6E1,3.1E1,1.4E1,1.3E1,3E0,1E0,1.3E1,9E0,4E0,4E0,5E0,2E0,2E0],"tree_param":{"num_deleted":"0","num_feature":"2","num_nodes":"17","size_leaf_vector":"1"}},{"base_weights":[2.7878606E-4,1.7177777E-5,1.3020971E-3,-9.008984E-6,2.4657097E-4,2.1502376E-5,3.8401922E-3,1.809597E-5,2.3235084E-4,3.6370757E-3,2.3825509E-3,1.3183594E-4,5.7922364E-3,7.678986E-4,2.1282197E-3],"categories":[],"categories_nodes":[],"categories_segments":[],"categories_sizes":[],"default_left":[0,0,0,0,0,0,0,0,0,0,0,0,0,0,0],"id":33,"left_children":[1,3,5,-1,7,-1,9,-1,-1,-1,11,-1,13,-1,-1],"loss_changes":[6.0479335E-5,1.967477E-6,1.433795E-4,0E0,3.0014455E-6,0E0,1.5222817E-4,0E0,0E0,0E0,9.020951E-5,0E0,2.88288E-6,0E0,0E0],"parents":[2147483647,0,0,1,1,2,2,4,4,6,6,10,10,12,12],"right_children":[2,4,6,-1,8,-1,10,-1,-1,-1,12,-1,14,-1,-1],"split_conditions":[8E0,6E0,4E0,-9.008984E-6,4E0,2.1502376E-5,6E0,1.809597E-5,2.3235084E-4,3.6370757E-3,1E1,1.3183594E-4,1E1,7.678986E-4,2.1282197E-3],"split_indices":[1,1,0,0,0,0,0,0,0,0,1,0,0,0,0],"split_type":[0,0,0,0,0,0,0,0,0,0,0,0,0,0,0],"sum_hessian":[2.25E2,1.8E2,4.5E1,1.5E2,3E1,3.1E1,1.4E1,2.3E1,7E0,1E0,1.3E1,9E0,4E0,2E0,2E0],"tree_param":{"num_deleted":"0","num_feature":"2","num_nodes":"15","size_leaf_vector":"1"}},{"base_weights":[2.2572231E-4,1.3321211E-5,1.0565675E-3,-1.328386E-5,1.42685E-4,1.5127659E-5,3.1325659E-3,2.0958454E-5,1.71268E-4,3.0914785E-3,1.8841879E-3,9.6302036E-5,4.6337126E-3,6.14357E-4,1.7024995E-3],"categories":[],"categories_nodes":[],"categories_segments":[],"categories_sizes":[],"default_left":[0,0,0,0,0,0,0,0,0,0,0,0,0,0,0],"id":34,"left_children":[1,3,5,-1,7,-1,9,-1,-1,-1,11,-1,13,-1,-1],"loss_changes":[3.9868697E-5,1.3550307E-6,9.59245E-5,0E0,1.7063994E-6,0E0,1.1489085E-4,0E0,0E0,0E0,5.868463E-5,0E0,1.8414721E-6,0E0,0E0],"parents":[2147483647,0,0,1,1,2,2,4,4,6,6,10,10,12,12],"right_children":[2,4,6,-1,8,-1,10,-1,-1,-1,12,-1,14,-1,-1],"split_conditions":[8E0,4E0,4E0,-1.328386E-5,6E0,1.5127659E-5,6E0,2.0958454E-5,1.71268E-4,3.0914785E-3,1E1,9.6302036E-5,1E1,6.14357E-4,1.7024995E-3],"split_indices":[1,0,0,0,1,0,0,0,0,0,1,0,0,0,0],"split_type":[0,0,0,0,0,0,0,0,0,0,0,0,0,0,0],"sum_hessian":[2.25E2,1.8E2,4.5E1,1.25E2,5.5E1,3.1E1,1.4E1,4.8E1,7E0,1E0,1.3E1,9E0,4E0,2E0,2E0],"tree_param":{"num_deleted":"0","num_feature":"2","num_nodes":"15","size_leaf_vector":"1"}},{"base_weights":[1.832069E-4,3.0902759E-6,8.5957156E-4,1.0693074E-5,2.5599797E-3,2.6277066E-3,1.4915466E-3,7.0438386E-5,3.7067414E-3,4.9152377E-4,1.3618469E-3],"categories":[],"categories_nodes":[],"categories_segments":[],"categories_sizes":[],"default_left":[0,0,0,0,0,0,0,0,0,0,0],"id":35,"left_children":[1,-1,3,-1,5,-1,7,-1,9,-1,-1],"loss_changes":[2.6421276E-5,0E0,6.43554E-5,0E0,8.628443E-5,0E0,3.8104983E-5,0E0,1.1744341E-6,0E0,0E0],"parents":[2147483647,0,0,2,2,4,4,6,6,8,8],"right_children":[2,-1,4,-1,6,-1,8,-1,10,-1,-1],"split_conditions":[8E0,3.0902759E-6,4E0,1.0693074E-5,6E0,2.6277066E-3,1E1,7.0438386E-5,1E1,4.9152377E-4,1.3618469E-3],"split_indices":[1,0,0,0,0,0,1,0,0,0,0],"split_type":[0,0,0,0,0,0,0,0,0,0,0],"sum_hessian":[2.25E2,1.8E2,4.5E1,3.1E1,1.4E1,1E0,1.3E1,9E0,4E0,2E0,2E0],"tree_param":{"num_deleted":"0","num_feature":"2","num_nodes":"11","size_leaf_vector":"1"}},{"base_weights":[1.4855171E-4,2.1979529E-6,7.0101285E-4,7.644296E-6,2.0954132E-3,2.2336007E-3,1.1814663E-3,5.1383977E-5,8.8966376E-4],"categories":[],"categories_nodes":[],"categories_segments":[],"categories_sizes":[],"default_left":[0,0,0,0,0,0,0,0,0],"id":36,"left_children":[1,-1,3,-1,5,-1,7,-1,-1],"loss_changes":[1.7627706E-5,0E0,4.3276857E-5,0E0,6.454676E-5,0E0,2.4723597E-5,0E0,0E0],"parents":[2147483647,0,0,2,2,4,4,6,6],"right_children":[2,-1,4,-1,6,-1,8,-1,-1],"split_conditions":[8E0,2.1979529E-6,4E0,7.644296E-6,6E0,2.2336007E-3,1E1,5.1383977E-5,8.8966376E-4],"split_indices":[1,0,0,0,0,0,1,0,0],"split_type":[0,0,0,0,0,0,0,0,0],"sum_hessian":[2.25E2,1.8E2,4.5E1,3.1E1,1.4E1,1E0,1.3E1,9E0,4E0],"tree_param":{"num_deleted":"0","num_feature":"2","num_nodes":"9","size_leaf_vector":"1"}},{"base_weights":[1.1805911E-4,1.5339402E-6,5.599105E-4,5.427003E-6,1.6784668E-3,1.8985749E-3,8.9427404E-4,3.7479404E-5,2.2541047E-3,2.1533968E-4,9.117127E-4],"categories":[],"categories_nodes":[],"categories_segments":[],"categories_sizes":[],"default_left":[0,0,0,0,0,0,0,0,0,0,0],"id":37,"left_children":[1,-1,3,-1,5,-1,7,-1,9,-1,-1],"loss_changes":[1.1275743E-5,0E0,2.7848248E-5,0E0,4.903932E-5,0E0,1.4364851E-5,0E0,3.848101E-6,0E0,0E0],"parents":[2147483647,0,0,2,2,4,4,6,6,8,8],"right_children":[2,-1,4,-1,6,-1,8,-1,10,-1,-1],"split_conditions":[8E0,1.5339402E-6,4E0,5.427003E-6,6E0,1.8985749E-3,1E1,3.7479404E-5,1E1,2.1533968E-4,9.117127E-4],"split_indices":[1,0,0,0,0,0,1,0,0,0,0],"split_type":[0,0,0,0,0,0,0,0,0,0,0],"sum_hessian":[2.25E2,1.8E2,4.5E1,3.1E1,1.4E1,1E0,1.3E1,9E0,4E0,2E0,2E0],"tree_param":{"num_deleted":"0","num_feature":"2","num_nodes":"11","size_leaf_vector":"1"}},{"base_weights":[9.616654E-5,-8.340937E-6,3.72839E-4,2.9006174E-5,1.3789495E-3,1.61376E-3,7.0898875E-4,2.729416E-5,1.8032074E-3,1.7223359E-4,7.293701E-4],"categories":[],"categories_nodes":[],"categories_segments":[],"categories_sizes":[],"default_left":[0,0,0,0,0,0,0,0,0,0,0],"id":38,"left_children":[1,-1,3,-1,5,-1,7,-1,9,-1,-1],"loss_changes":[7.761937E-6,0E0,1.9315416E-5,0E0,3.6386373E-5,0E0,9.303249E-6,0E0,2.463723E-6,0E0,0E0],"parents":[2147483647,0,0,2,2,4,4,6,6,8,8],"right_children":[2,-1,4,-1,6,-1,8,-1,10,-1,-1],"split_conditions":[4E0,-8.340937E-6,8E0,2.9006174E-5,6E0,1.61376E-3,1E1,2.729416E-5,1E1,1.7223359E-4,7.293701E-4],"split_indices":[0,0,1,0,0,0,1,0,0,0,0],"split_type":[0,0,0,0,0,0,0,0,0,0,0],"sum_hessian":[2.25E2,1.56E2,6.9E1,5.5E1,1.4E1,1E0,1.3E1,9E0,4E0,2E0,2E0],"tree_param":{"num_deleted":"0","num_feature":"2","num_nodes":"11","size_leaf_vector":"1"}},{"base_weights":[7.870123E-5,1.5723586E-7,3.8460028E-4,6.258488E-6,1.134936E-3,1.3717175E-3,5.628041E-4,1.9969943E-5,1.4427186E-3,1.3771058E-4,5.836487E-4],"categories":[],"categories_nodes":[],"categories_segments":[],"categories_sizes":[],"default_left":[0,0,0,0,0,0,0,0,0,0,0],"id":39,"left_children":[1,-1,3,-1,5,-1,7,-1,9,-1,-1],"loss_changes":[5.4044312E-6,0E0,1.2530923E-5,0E0,2.692681E-5,0E0,6.017016E-6,0E0,1.579816E-6,0E0,0E0],"parents":[2147483647,0,0,2,2,4,4,6,6,8,8],"right_children":[2,-1,4,-1,6,-1,8,-1,10,-1,-1],"split_conditions":[8E0,1.5723586E-7,4E0,6.258488E-6,6E0,1.3717175E-3,1E1,1.9969943E-5,1E1,1.3771058E-4,5.836487E-4],"split_indices":[1,0,0,0,0,0,1,0,0,0,0],"split_type":[0,0,0,0,0,0,0,0,0,0,0],"sum_hessian":[2.25E2,1.8E2,4.5E1,3.1E1,1.4E1,1E0,1.3E1,9E0,4E0,2E0,2E0],"tree_param":{"num_deleted":"0","num_feature":"2","num_nodes":"11","size_leaf_vector":"1"}},{"base_weights":[6.448972E-5,-8.76277E-6,2.498062E-4,9.990173E-6,7.797154E-4,2.4712086E-3,3.8257398E-4,2.111435E-4,1.1660099E-3,9.981791E-5,1.1543274E-3,-1.0038104E-4,1.279831E-4,1.1024476E-4,4.6691895E-4],"categories":[],"categories_nodes":[],"categories_segments":[],"categories_sizes":[],"default_left":[0,0,0,0,0,0,0,0,0,0,0,0,0,0,0],"id":40,"left_children":[1,-1,3,-1,5,7,9,-1,-1,11,13,-1,-1,-1,-1],"loss_changes":[3.9315514E-6,0E0,8.693388E-6,0E0,1.3833346E-5,7.271434E-6,4.0309187E-6,0E0,0E0,2.272229E-6,1.0098811E-6,0E0,0E0,0E0,0E0],"parents":[2147483647,0,0,2,2,4,4,5,5,6,6,9,9,10,10],"right_children":[2,-1,4,-1,6,8,10,-1,-1,12,14,-1,-1,-1,-1],"split_conditions":[6E0,-8.76277E-6,4E0,9.990173E-6,6E0,8E0,1E1,2.111435E-4,1.1660099E-3,1E1,1E1,-1.0038104E-4,1.279831E-4,1.1024476E-4,4.6691895E-4],"split_indices":[1,0,0,0,0,1,1,0,0,0,0,0,0,0,0],"split_type":[0,0,0,0,0,0,0,0,0,0,0,0,0,0,0],"sum_hessian":[2.25E2,1.5E2,7.5E1,5.4E1,2.1E1,3E0,1.8E1,2E0,1E0,1.4E1,4E0,6E0,8E0,2E0,2E0],"tree_param":{"num_deleted":"0","num_feature":"2","num_nodes":"15","size_leaf_vector":"1"}},{"base_weights":[5.3934826E-5,-5.573753E-6,2.1580288E-4,1.9454958E-5,7.64974E-4,9.910584E-4,3.4768242E-4,7.5531007E-6,2.7694704E-4],"categories":[],"categories_nodes":[],"categories_segments":[],"categories_sizes":[],"default_left":[0,0,0,0,0,0,0,0,0],"id":41,"left_children":[1,-1,3,-1,5,-1,7,-1,-1],"loss_changes":[2.6567295E-6,0E0,5.7533234E-6,0E0,1.4741177E-5,0E0,2.5750678E-6,0E0,0E0],"parents":[2147483647,0,0,2,2,4,4,6,6],"right_children":[2,-1,4,-1,6,-1,8,-1,-1],"split_conditions":[4E0,-5.573753E-6,8E0,1.9454958E-5,6E0,9.910584E-4,1E1,7.5531007E-6,2.7694704E-4],"split_indices":[0,0,1,0,0,0,1,0,0],"split_type":[0,0,0,0,0,0,0,0,0],"sum_hessian":[2.25E2,1.56E2,6.9E1,5.5E1,1.4E1,1E0,1.3E1,9E0,4E0],"tree_param":{"num_deleted":"0","num_feature":"2","num_nodes":"9","size_leaf_vector":"1"}},{"base_weights":[4.351884E-5,-6.8910563E-6,1.7504943E-4,8.806749E-6,5.3132663E-4,1.816988E-3,2.3269653E-4,1.6517639E-4,8.4242824E-4,-4.9400333E-5,5.3665857E-4,9.072622E-5,3.1814576E-4],"categories":[],"categories_nodes":[],"categories_segments":[],"categories_sizes":[],"default_left":[0,0,0,0,0,0,0,0,0,0,0,0,0],"id":42,"left_children":[1,-1,3,-1,5,7,9,-1,-1,-1,11,-1,-1],"loss_changes":[1.980468E-6,0E0,3.929358E-6,0E0,8.0238115E-6,3.4744444E-6,2.3832597E-6,0E0,0E0,0E0,1.0289889E-6,0E0,0E0],"parents":[2147483647,0,0,2,2,4,4,5,5,6,6,10,10],"right_children":[2,-1,4,-1,6,8,10,-1,-1,-1,12,-1,-1],"split_conditions":[6E0,-6.8910563E-6,4E0,8.806749E-6,6E0,8E0,1E1,1.6517639E-4,8.4242824E-4,-4.9400333E-5,1E1,9.072622E-5,3.1814576E-4],"split_indices":[1,0,0,0,0,1,0,0,0,0,1,0,0],"split_type":[0,0,0,0,0,0,0,0,0,0,0,0,0],"sum_hessian":[2.25E2,1.5E2,7.5E1,5.4E1,2.1E1,3E0,1.8E1,2E0,1E0,8E0,1E1,8E0,2E0],"tree_param":{"num_deleted":"0","num_feature":"2","num_nodes":"13","size_leaf_vector":"1"}},{"base_weights":[3.651833E-5,4.5261754E-6,3.168583E-4,5.4114207E-5,2.5444033E-4],"categories":[],"categories_nodes":[],"categories_segments":[],"categories_sizes":[],"default_left":[0,0,0,0,0],"id":43,"left_children":[1,-1,3,-1,-1],"loss_changes":[1.3530248E-6,0E0,1.0071294E-6,0E0,0E0],"parents":[2147483647,0,0,2,2],"right_children":[2,-1,4,-1,-1],"split_conditions":[1E1,4.5261754E-6,1E1,5.4114207E-5,2.5444033E-4],"split_indices":[1,0,0,0,0],"split_type":[0,0,0,0,0],"sum_hessian":[2.25E2,2.1E2,1.5E1,1.3E1,2E0],"tree_param":{"num_deleted":"0","num_feature":"2","num_nodes":"5","size_leaf_vector":"1"}},{"base_weights":[2.6968522E-5,-5.8351184E-6,1.3069426E-4,1.7983573E-6,4.024939E-4,1.5203953E-3,1.4596236E-4,1.3122559E-4,7.153988E-4,-4.0753683E-5,1.08978966E-4],"categories":[],"categories_nodes":[],"categories_segments":[],"categories_sizes":[],"default_left":[0,0,0,0,0,0,0,0,0,0,0],"id":44,"left_children":[1,-1,3,-1,5,7,9,-1,-1,-1,-1],"loss_changes":[1.090695E-6,0E0,2.3701214E-6,0E0,6.0871726E-6,2.700829E-6,1.2128528E-6,0E0,0E0,0E0,0E0],"parents":[2147483647,0,0,2,2,4,4,5,5,6,6],"right_children":[2,-1,4,-1,6,8,10,-1,-1,-1,-1],"split_conditions":[4E0,-5.8351184E-6,6E0,1.7983573E-6,6E0,8E0,1E1,1.3122559E-4,7.153988E-4,-4.0753683E-5,1.08978966E-4],"split_indices":[0,0,1,0,0,1,0,0,0,0,0],"split_type":[0,0,0,0,0,0,0,0,0,0,0],"sum_hessian":[2.25E2,1.56E2,6.9E1,4.8E1,2.1E1,3E0,1.8E1,2E0,1E0,8E0,1E1],"tree_param":{"num_deleted":"0","num_feature":"2","num_nodes":"11","size_leaf_vector":"1"}},{"base_weights":[2.2875713E-5],"categories":[],"categories_nodes":[],"categories_segments":[],"categories_sizes":[],"default_left":[0],"id":45,"left_children":[-1],"loss_changes":[0E0],"parents":[2147483647],"right_children":[-1],"split_conditions":[6.862714E-6],"split_indices":[0],"split_type":[0],"sum_hessian":[2.25E2],"tree_param":{"num_deleted":"0","num_feature":"2","num_nodes":"1","size_leaf_vector":"1"}},{"base_weights":[1.6115599E-5],"categories":[],"categories_nodes":[],"categories_segments":[],"categories_sizes":[],"default_left":[0],"id":46,"left_children":[-1],"loss_changes":[0E0],"parents":[2147483647],"right_children":[-1],"split_conditions":[4.8346797E-6],"split_indices":[0],"split_type":[0],"sum_hessian":[2.25E2],"tree_param":{"num_deleted":"0","num_feature":"2","num_nodes":"1","size_leaf_vector":"1"}},{"base_weights":[1.1308859E-5],"categories":[],"categories_nodes":[],"categories_segments":[],"categories_sizes":[],"default_left":[0],"id":47,"left_children":[-1],"loss_changes":[0E0],"parents":[2147483647],"right_children":[-1],"split_conditions":[3.3926578E-6],"split_indices":[0],"split_type":[0],"sum_hessian":[2.25E2],"tree_param":{"num_deleted":"0","num_feature":"2","num_nodes":"1","size_leaf_vector":"1"}},{"base_weights":[7.823893E-6],"categories":[],"categories_nodes":[],"categories_segments":[],"categories_sizes":[],"default_left":[0],"id":48,"left_children":[-1],"loss_changes":[0E0],"parents":[2147483647],"right_children":[-1],"split_conditions":[2.347168E-6],"split_indices":[0],"split_type":[0],"sum_hessian":[2.25E2],"tree_param":{"num_deleted":"0","num_feature":"2","num_nodes":"1","size_leaf_vector":"1"}},{"base_weights":[5.6041067E-6],"categories":[],"categories_nodes":[],"categories_segments":[],"categories_sizes":[],"default_left":[0],"id":49,"left_children":[-1],"loss_changes":[0E0],"parents":[2147483647],"right_children":[-1],"split_conditions":[1.6812321E-6],"split_indices":[0],"split_type":[0],"sum_hessian":[2.25E2],"tree_param":{"num_deleted":"0","num_feature":"2","num_nodes":"1","size_leaf_vector":"1"}},{"base_weights":[3.8072494E-6],"categories":[],"categories_nodes":[],"categories_segments":[],"categories_sizes":[],"default_left":[0],"id":50,"left_children":[-1],"loss_changes":[0E0],"parents":[2147483647],"right_children":[-1],"split_conditions":[1.1421748E-6],"split_indices":[0],"split_type":[0],"sum_hessian":[2.25E2],"tree_param":{"num_deleted":"0","num_feature":"2","num_nodes":"1","size_leaf_vector":"1"}},{"base_weights":[2.7431804E-6],"categories":[],"categories_nodes":[],"categories_segments":[],"categories_sizes":[],"default_left":[0],"id":51,"left_children":[-1],"loss_changes":[0E0],"parents":[2147483647],"right_children":[-1],"split_conditions":[8.229542E-7],"split_indices":[0],"split_type":[0],"sum_hessian":[2.25E2],"tree_param":{"num_deleted":"0","num_feature":"2","num_nodes":"1","size_leaf_vector":"1"}},{"base_weights":[1.8822618E-6],"categories":[],"categories_nodes":[],"categories_segments":[],"categories_sizes":[],"default_left":[0],"id":52,"left_children":[-1],"loss_changes":[0E0],"parents":[2147483647],"right_children":[-1],"split_conditions":[5.6467854E-7],"split_indices":[0],"split_type":[0],"sum_hessian":[2.25E2],"tree_param":{"num_deleted":"0","num_feature":"2","num_nodes":"1","size_leaf_vector":"1"}},{"base_weights":[1.260284E-6],"categories":[],"categories_nodes":[],"categories_segments":[],"categories_sizes":[],"default_left":[0],"id":53,"left_children":[-1],"loss_changes":[0E0],"parents":[2147483647],"right_children":[-1],"split_conditions":[3.7808522E-7],"split_indices":[0],"split_type":[0],"sum_hessian":[2.25E2],"tree_param":{"num_deleted":"0","num_feature":"2","num_nodes":"1","size_leaf_vector":"1"}},{"base_weights":[9.6727E-7],"categories":[],"categories_nodes":[],"categories_segments":[],"categories_sizes":[],"default_left":[0],"id":54,"left_children":[-1],"loss_changes":[0E0],"parents":[2147483647],"right_children":[-1],"split_conditions":[2.9018102E-7],"split_indices":[0],"split_type":[0],"sum_hessian":[2.25E2],"tree_param":{"num_deleted":"0","num_feature":"2","num_nodes":"1","size_leaf_vector":"1"}},{"base_weights":[7.139298E-7],"categories":[],"categories_nodes":[],"categories_segments":[],"categories_sizes":[],"default_left":[0],"id":55,"left_children":[-1],"loss_changes":[0E0],"parents":[2147483647],"right_children":[-1],"split_conditions":[2.1417895E-7],"split_indices":[0],"split_type":[0],"sum_hessian":[2.25E2],"tree_param":{"num_deleted":"0","num_feature":"2","num_nodes":"1","size_leaf_vector":"1"}},{"base_weights":[6.172651E-7],"categories":[],"categories_nodes":[],"categories_segments":[],"categories_sizes":[],"default_left":[0],"id":56,"left_children":[-1],"loss_changes":[0E0],"parents":[2147483647],"right_children":[-1],"split_conditions":[1.8517953E-7],"split_indices":[0],"split_type":[0],"sum_hessian":[2.25E2],"tree_param":{"num_deleted":"0","num_feature":"2","num_nodes":"1","size_leaf_vector":"1"}},{"base_weights":[5.336881E-7],"categories":[],"categories_nodes":[],"categories_segments":[],"categories_sizes":[],"default_left":[0],"id":57,"left_children":[-1],"loss_changes":[0E0],"parents":[2147483647],"right_children":[-1],"split_conditions":[1.6010642E-7],"split_indices":[0],"split_type":[0],"sum_hessian":[2.25E2],"tree_param":{"num_deleted":"0","num_feature":"2","num_nodes":"1","size_leaf_vector":"1"}},{"base_weights":[4.614272E-7],"categories":[],"categories_nodes":[],"categories_segments":[],"categories_sizes":[],"default_left":[0],"id":58,"left_children":[-1],"loss_changes":[0E0],"parents":[2147483647],"right_children":[-1],"split_conditions":[1.3842816E-7],"split_indices":[0],"split_type":[0],"sum_hessian":[2.25E2],"tree_param":{"num_deleted":"0","num_feature":"2","num_nodes":"1","size_leaf_vector":"1"}},{"base_weights":[3.989505E-7],"categories":[],"categories_nodes":[],"categories_segments":[],"categories_sizes":[],"default_left":[0],"id":59,"left_children":[-1],"loss_changes":[0E0],"parents":[2147483647],"right_children":[-1],"split_conditions":[1.1968515E-7],"split_indices":[0],"split_type":[0],"sum_hessian":[2.25E2],"tree_param":{"num_deleted":"0","num_feature":"2","num_nodes":"1","size_leaf_vector":"1"}},{"base_weights":[3.44933E-7],"categories":[],"categories_nodes":[],"categories_segments":[],"categories_sizes":[],"default_left":[0],"id":60,"left_children":[-1],"loss_changes":[0E0],"parents":[2147483647],"right_children":[-1],"split_conditions":[1.03479906E-7],"split_indices":[0],"split_type":[0],"sum_hessian":[2.25E2],"tree_param":{"num_deleted":"0","num_feature":"2","num_nodes":"1","size_leaf_vector":"1"}},{"base_weights":[2.9823025E-7],"categories":[],"categories_nodes":[],"categories_segments":[],"categories_sizes":[],"default_left":[0],"id":61,"left_children":[-1],"loss_changes":[0E0],"parents":[2147483647],"right_children":[-1],"split_conditions":[8.9469076E-8],"split_indices":[0],"split_type":[0],"sum_hessian":[2.25E2],"tree_param":{"num_deleted":"0","num_feature":"2","num_nodes":"1","size_leaf_vector":"1"}},{"base_weights":[2.578505E-7],"categories":[],"categories_nodes":[],"categories_segments":[],"categories_sizes":[],"default_left":[0],"id":62,"left_children":[-1],"loss_changes":[0E0],"parents":[2147483647],"right_children":[-1],"split_conditions":[7.735515E-8],"split_indices":[0],"split_type":[0],"sum_hessian":[2.25E2],"tree_param":{"num_deleted":"0","num_feature":"2","num_nodes":"1","size_leaf_vector":"1"}},{"base_weights":[2.2293837E-7],"categories":[],"categories_nodes":[],"categories_segments":[],"categories_sizes":[],"default_left":[0],"id":63,"left_children":[-1],"loss_changes":[0E0],"parents":[2147483647],"right_children":[-1],"split_conditions":[6.688151E-8],"split_indices":[0],"split_type":[0],"sum_hessian":[2.25E2],"tree_param":{"num_deleted":"0","num_feature":"2","num_nodes":"1","size_leaf_vector":"1"}},{"base_weights":[1.9275332E-7],"categories":[],"categories_nodes":[],"categories_segments":[],"categories_sizes":[],"default_left":[0],"id":64,"left_children":[-1],"loss_changes":[0E0],"parents":[2147483647],"right_children":[-1],"split_conditions":[5.7825996E-8],"split_indices":[0],"split_type":[0],"sum_hessian":[2.25E2],"tree_param":{"num_deleted":"0","num_feature":"2","num_nodes":"1","size_leaf_vector":"1"}},{"base_weights":[1.66655E-7],"categories":[],"categories_nodes":[],"categories_segments":[],"categories_sizes":[],"default_left":[0],"id":65,"left_children":[-1],"loss_changes":[0E0],"parents":[2147483647],"right_children":[-1],"split_conditions":[4.99965E-8],"split_indices":[0],"split_type":[0],"sum_hessian":[2.25E2],"tree_param":{"num_deleted":"0","num_feature":"2","num_nodes":"1","size_leaf_vector":"1"}},{"base_weights":[1.4409011E-7],"categories":[],"categories_nodes":[],"categories_segments":[],"categories_sizes":[],"default_left":[0],"id":66,"left_children":[-1],"loss_changes":[0E0],"parents":[2147483647],"right_children":[-1],"split_conditions":[4.3227033E-8],"split_indices":[0],"split_type":[0],"sum_hessian":[2.25E2],"tree_param":{"num_deleted":"0","num_feature":"2","num_nodes":"1","size_leaf_vector":"1"}},{"base_weights":[1.2458081E-7],"categories":[],"categories_nodes":[],"categories_segments":[],"categories_sizes":[],"default_left":[0],"id":67,"left_children":[-1],"loss_changes":[0E0],"parents":[2147483647],"right_children":[-1],"split_conditions":[3.7374242E-8],"split_indices":[0],"split_type":[0],"sum_hessian":[2.25E2],"tree_param":{"num_deleted":"0","num_feature":"2","num_nodes":"1","size_leaf_vector":"1"}},{"base_weights":[1.07713376E-7],"categories":[],"categories_nodes":[],"categories_segments":[],"categories_sizes":[],"default_left":[0],"id":68,"left_children":[-1],"loss_changes":[0E0],"parents":[2147483647],"right_children":[-1],"split_conditions":[3.2314013E-8],"split_indices":[0],"split_type":[0],"sum_hessian":[2.25E2],"tree_param":{"num_deleted":"0","num_feature":"2","num_nodes":"1","size_leaf_vector":"1"}},{"base_weights":[9.312984E-8],"categories":[],"categories_nodes":[],"categories_segments":[],"categories_sizes":[],"default_left":[0],"id":69,"left_children":[-1],"loss_changes":[0E0],"parents":[2147483647],"right_children":[-1],"split_conditions":[2.7938954E-8],"split_indices":[0],"split_type":[0],"sum_hessian":[2.25E2],"tree_param":{"num_deleted":"0","num_feature":"2","num_nodes":"1","size_leaf_vector":"1"}},{"base_weights":[8.05199E-8],"categories":[],"categories_nodes":[],"categories_segments":[],"categories_sizes":[],"default_left":[0],"id":70,"left_children":[-1],"loss_changes":[0E0],"parents":[2147483647],"right_children":[-1],"split_conditions":[2.415597E-8],"split_indices":[0],"split_type":[0],"sum_hessian":[2.25E2],"tree_param":{"num_deleted":"0","num_feature":"2","num_nodes":"1","size_leaf_vector":"1"}},{"base_weights":[6.9617556E-8],"categories":[],"categories_nodes":[],"categories_segments":[],"categories_sizes":[],"default_left":[0],"id":71,"left_children":[-1],"loss_changes":[0E0],"parents":[2147483647],"right_children":[-1],"split_conditions":[2.0885267E-8],"split_indices":[0],"split_type":[0],"sum_hessian":[2.25E2],"tree_param":{"num_deleted":"0","num_feature":"2","num_nodes":"1","size_leaf_vector":"1"}},{"base_weights":[6.019129E-8],"categories":[],"categories_nodes":[],"categories_segments":[],"categories_sizes":[],"default_left":[0],"id":72,"left_children":[-1],"loss_changes":[0E0],"parents":[2147483647],"right_children":[-1],"split_conditions":[1.8057388E-8],"split_indices":[0],"split_type":[0],"sum_hessian":[2.25E2],"tree_param":{"num_deleted":"0","num_feature":"2","num_nodes":"1","size_leaf_vector":"1"}},{"base_weights":[5.2040804E-8],"categories":[],"categories_nodes":[],"categories_segments":[],"categories_sizes":[],"default_left":[0],"id":73,"left_children":[-1],"loss_changes":[0E0],"parents":[2147483647],"right_children":[-1],"split_conditions":[1.5612242E-8],"split_indices":[0],"split_type":[0],"sum_hessian":[2.25E2],"tree_param":{"num_deleted":"0","num_feature":"2","num_nodes":"1","size_leaf_vector":"1"}},{"base_weights":[4.499533E-8],"categories":[],"categories_nodes":[],"categories_segments":[],"categories_sizes":[],"default_left":[0],"id":74,"left_children":[-1],"loss_changes":[0E0],"parents":[2147483647],"right_children":[-1],"split_conditions":[1.3498599E-8],"split_indices":[0],"split_type":[0],"sum_hessian":[2.25E2],"tree_param":{"num_deleted":"0","num_feature":"2","num_nodes":"1","size_leaf_vector":"1"}},{"base_weights":[3.8903806E-8],"categories":[],"categories_nodes":[],"categories_segments":[],"categories_sizes":[],"default_left":[0],"id":75,"left_children":[-1],"loss_changes":[0E0],"parents":[2147483647],"right_children":[-1],"split_conditions":[1.1671142E-8],"split_indices":[0],"split_type":[0],"sum_hessian":[2.25E2],"tree_param":{"num_deleted":"0","num_feature":"2","num_nodes":"1","size_leaf_vector":"1"}},{"base_weights":[3.363653E-8],"categories":[],"categories_nodes":[],"categories_segments":[],"categories_sizes":[],"default_left":[0],"id":76,"left_children":[-1],"loss_changes":[0E0],"parents":[2147483647],"right_children":[-1],"split_conditions":[1.0090959E-8],"split_indices":[0],"split_type":[0],"sum_hessian":[2.25E2],"tree_param":{"num_deleted":"0","num_feature":"2","num_nodes":"1","size_leaf_vector":"1"}},{"base_weights":[2.9081841E-8],"categories":[],"categories_nodes":[],"categories_segments":[],"categories_sizes":[],"default_left":[0],"id":77,"left_children":[-1],"loss_changes":[0E0],"parents":[2147483647],"right_children":[-1],"split_conditions":[8.724553E-9],"split_indices":[0],"split_type":[0],"sum_hessian":[2.25E2],"tree_param":{"num_deleted":"0","num_feature":"2","num_nodes":"1","size_leaf_vector":"1"}},{"base_weights":[2.5144518E-8],"categories":[],"categories_nodes":[],"categories_segments":[],"categories_sizes":[],"default_left":[0],"id":78,"left_children":[-1],"loss_changes":[0E0],"parents":[2147483647],"right_children":[-1],"split_conditions":[7.543355E-9],"split_indices":[0],"split_type":[0],"sum_hessian":[2.25E2],"tree_param":{"num_deleted":"0","num_feature":"2","num_nodes":"1","size_leaf_vector":"1"}},{"base_weights":[2.1739178E-8],"categories":[],"categories_nodes":[],"categories_segments":[],"categories_sizes":[],"default_left":[0],"id":79,"left_children":[-1],"loss_changes":[0E0],"parents":[2147483647],"right_children":[-1],"split_conditions":[6.5217534E-9],"split_indices":[0],"split_type":[0],"sum_hessian":[2.25E2],"tree_param":{"num_deleted":"0","num_feature":"2","num_nodes":"1","size_leaf_vector":"1"}},{"base_weights":[1.8795214E-8],"categories":[],"categories_nodes":[],"categories_segments":[],"categories_sizes":[],"default_left":[0],"id":80,"left_children":[-1],"loss_changes":[0E0],"parents":[2147483647],"right_children":[-1],"split_conditions":[5.6385647E-9],"split_indices":[0],"split_type":[0],"sum_hessian":[2.25E2],"tree_param":{"num_deleted":"0","num_feature":"2","num_nodes":"1","size_leaf_vector":"1"}},{"base_weights":[1.625024E-8],"categories":[],"categories_nodes":[],"categories_segments":[],"categories_sizes":[],"default_left":[0],"id":81,"left_children":[-1],"loss_changes":[0E0],"parents":[2147483647],"right_children":[-1],"split_conditions":[4.8750723E-9],"split_indices":[0],"split_type":[0],"sum_hessian":[2.25E2],"tree_param":{"num_deleted":"0","num_feature":"2","num_nodes":"1","size_leaf_vector":"1"}},{"base_weights":[1.4050067E-8],"categories":[],"categories_nodes":[],"categories_segments":[],"categories_sizes":[],"default_left":[0],"id":82,"left_children":[-1],"loss_changes":[0E0],"parents":[2147483647],"right_children":[-1],"split_conditions":[4.2150203E-9],"split_indices":[0],"split_type":[0],"sum_hessian":[2.25E2],"tree_param":{"num_deleted":"0","num_feature":"2","num_nodes":"1","size_leaf_vector":"1"}},{"base_weights":[1.21470825E-8],"categories":[],"categories_nodes":[],"categories_segments":[],"categories_sizes":[],"default_left":[0],"id":83,"left_children":[-1],"loss_changes":[0E0],"parents":[2147483647],"right_children":[-1],"split_conditions":[3.6441248E-9],"split_indices":[0],"split_type":[0],"sum_hessian":[2.25E2],"tree_param":{"num_deleted":"0","num_feature":"2","num_nodes":"1","size_leaf_vector":"1"}},{"base_weights":[1.0501879E-8],"categories":[],"categories_nodes":[],"categories_segments":[],"categories_sizes":[],"default_left":[0],"id":84,"left_children":[-1],"loss_changes":[0E0],"parents":[2147483647],"right_children":[-1],"split_conditions":[3.150564E-9],"split_indices":[0],"split_type":[0],"sum_hessian":[2.25E2],"tree_param":{"num_deleted":"0","num_feature":"2","num_nodes":"1","size_leaf_vector":"1"}},{"base_weights":[9.079977E-9],"categories":[],"categories_nodes":[],"categories_segments":[],"categories_sizes":[],"default_left":[0],"id":85,"left_children":[-1],"loss_changes":[0E0],"parents":[2147483647],"right_children":[-1],"split_conditions":[2.723993E-9],"split_indices":[0],"split_type":[0],"sum_hessian":[2.25E2],"tree_param":{"num_deleted":"0","num_feature":"2","num_nodes":"1","size_leaf_vector":"1"}},{"base_weights":[7.850179E-9],"categories":[],"categories_nodes":[],"categories_segments":[],"categories_sizes":[],"default_left":[0],"id":86,"left_children":[-1],"loss_changes":[0E0],"parents":[2147483647],"right_children":[-1],"split_conditions":[2.355054E-9],"split_indices":[0],"split_type":[0],"sum_hessian":[2.25E2],"tree_param":{"num_deleted":"0","num_feature":"2","num_nodes":"1","size_leaf_vector":"1"}},{"base_weights":[6.787857E-9],"categories":[],"categories_nodes":[],"categories_segments":[],"categories_sizes":[],"default_left":[0],"id":87,"left_children":[-1],"loss_changes":[0E0],"parents":[2147483647],"right_children":[-1],"split_conditions":[2.036357E-9],"split_indices":[0],"split_type":[0],"sum_hessian":[2.25E2],"tree_param":{"num_deleted":"0","num_feature":"2","num_nodes":"1","size_leaf_vector":"1"}},{"base_weights":[5.868382E-9],"categories":[],"categories_nodes":[],"categories_segments":[],"categories_sizes":[],"default_left":[0],"id":88,"left_children":[-1],"loss_changes":[0E0],"parents":[2147483647],"right_children":[-1],"split_conditions":[1.7605146E-9],"split_indices":[0],"split_type":[0],"sum_hessian":[2.25E2],"tree_param":{"num_deleted":"0","num_feature":"2","num_nodes":"1","size_leaf_vector":"1"}},{"base_weights":[5.0736926E-9],"categories":[],"categories_nodes":[],"categories_segments":[],"categories_sizes":[],"default_left":[0],"id":89,"left_children":[-1],"loss_changes":[0E0],"parents":[2147483647],"right_children":[-1],"split_conditions":[1.5221079E-9],"split_indices":[0],"split_type":[0],"sum_hessian":[2.25E2],"tree_param":{"num_deleted":"0","num_feature":"2","num_nodes":"1","size_leaf_vector":"1"}},{"base_weights":[4.3873705E-9],"categories":[],"categories_nodes":[],"categories_segments":[],"categories_sizes":[],"default_left":[0],"id":90,"left_children":[-1],"loss_changes":[0E0],"parents":[2147483647],"right_children":[-1],"split_conditions":[1.3162111E-9],"split_indices":[0],"split_type":[0],"sum_hessian":[2.25E2],"tree_param":{"num_deleted":"0","num_feature":"2","num_nodes":"1","size_leaf_vector":"1"}},{"base_weights":[3.7929953E-9],"categories":[],"categories_nodes":[],"categories_segments":[],"categories_sizes":[],"default_left":[0],"id":91,"left_children":[-1],"loss_changes":[0E0],"parents":[2147483647],"right_children":[-1],"split_conditions":[1.1378987E-9],"split_indices":[0],"split_type":[0],"sum_hessian":[2.25E2],"tree_param":{"num_deleted":"0","num_feature":"2","num_nodes":"1","size_leaf_vector":"1"}},{"base_weights":[3.2790746E-9],"categories":[],"categories_nodes":[],"categories_segments":[],"categories_sizes":[],"default_left":[0],"id":92,"left_children":[-1],"loss_changes":[0E0],"parents":[2147483647],"right_children":[-1],"split_conditions":[9.837224E-10],"split_indices":[0],"split_type":[0],"sum_hessian":[2.25E2],"tree_param":{"num_deleted":"0","num_feature":"2","num_nodes":"1","size_leaf_vector":"1"}},{"base_weights":[2.8357563E-9],"categories":[],"categories_nodes":[],"categories_segments":[],"categories_sizes":[],"default_left":[0],"id":93,"left_children":[-1],"loss_changes":[0E0],"parents":[2147483647],"right_children":[-1],"split_conditions":[8.5072693E-10],"split_indices":[0],"split_type":[0],"sum_hessian":[2.25E2],"tree_param":{"num_deleted":"0","num_feature":"2","num_nodes":"1","size_leaf_vector":"1"}},{"base_weights":[2.451547E-9],"categories":[],"categories_nodes":[],"categories_segments":[],"categories_sizes":[],"default_left":[0],"id":94,"left_children":[-1],"loss_changes":[0E0],"parents":[2147483647],"right_children":[-1],"split_conditions":[7.3546413E-10],"split_indices":[0],"split_type":[0],"sum_hessian":[2.25E2],"tree_param":{"num_deleted":"0","num_feature":"2","num_nodes":"1","size_leaf_vector":"1"}},{"base_weights":[2.1198792E-9],"categories":[],"categories_nodes":[],"categories_segments":[],"categories_sizes":[],"default_left":[0],"id":95,"left_children":[-1],"loss_changes":[0E0],"parents":[2147483647],"right_children":[-1],"split_conditions":[6.359638E-10],"split_indices":[0],"split_type":[0],"sum_hessian":[2.25E2],"tree_param":{"num_deleted":"0","num_feature":"2","num_nodes":"1","size_leaf_vector":"1"}},{"base_weights":[1.8325433E-9],"categories":[],"categories_nodes":[],"categories_segments":[],"categories_sizes":[],"default_left":[0],"id":96,"left_children":[-1],"loss_changes":[0E0],"parents":[2147483647],"right_children":[-1],"split_conditions":[5.49763E-10],"split_indices":[0],"split_type":[0],"sum_hessian":[2.25E2],"tree_param":{"num_deleted":"0","num_feature":"2","num_nodes":"1","size_leaf_vector":"1"}},{"base_weights":[1.5846134E-9],"categories":[],"categories_nodes":[],"categories_segments":[],"categories_sizes":[],"default_left":[0],"id":97,"left_children":[-1],"loss_changes":[0E0],"parents":[2147483647],"right_children":[-1],"split_conditions":[4.7538407E-10],"split_indices":[0],"split_type":[0],"sum_hessian":[2.25E2],"tree_param":{"num_deleted":"0","num_feature":"2","num_nodes":"1","size_leaf_vector":"1"}},{"base_weights":[1.3695219E-9],"categories":[],"categories_nodes":[],"categories_segments":[],"categories_sizes":[],"default_left":[0],"id":98,"left_children":[-1],"loss_changes":[0E0],"parents":[2147483647],"right_children":[-1],"split_conditions":[4.108566E-10],"split_indices":[0],"split_type":[0],"sum_hessian":[2.25E2],"tree_param":{"num_deleted":"0","num_feature":"2","num_nodes":"1","size_leaf_vector":"1"}},{"base_weights":[1.183985E-9],"categories":[],"categories_nodes":[],"categories_segments":[],"categories_sizes":[],"default_left":[0],"id":99,"left_children":[-1],"loss_changes":[0E0],"parents":[2147483647],"right_children":[-1],"split_conditions":[3.551955E-10],"split_indices":[0],"split_type":[0],"sum_hessian":[2.25E2],"tree_param":{"num_deleted":"0","num_feature":"2","num_nodes":"1","size_leaf_vector":"1"}}]},"name":"gbtree"},"learner_model_param":{"base_score":"4.6044445E0","boost_from_average":"1","num_class":"0","num_feature":"2","num_target":"1"},"objective":{"name":"reg:squarederror","reg_loss_param":{"scale_pos_weight":"1"}}},"version":[3,0,2]}
