{"learner":{"attributes":{"best_iteration":"99","best_ntree_limit":"100","scikit_learn":"{\"n_estimators\": 100, \"objective\": \"reg:squarederror\", \"max_depth\": null, \"max_leaves\": null, \"max_bin\": null, \"grow_policy\": null, \"learning_rate\": null, \"verbosity\": null, \"booster\": null, \"tree_method\": null, \"gamma\": null, \"min_child_weight\": null, \"max_delta_step\": null, \"subsample\": null, \"sampling_method\": null, \"colsample_bytree\": null, \"colsample_bylevel\": null, \"colsample_bynode\": null, \"reg_alpha\": null, \"reg_lambda\": null, \"scale_pos_weight\": null, \"base_score\": null, \"missing\": NaN, \"num_parallel_tree\": null, \"random_state\": 42, \"n_jobs\": null, \"monotone_constraints\": null, \"interaction_constraints\": null, \"importance_type\": null, \"gpu_id\": null, \"validate_parameters\": null, \"predictor\": null, \"enable_categorical\": false, \"feature_types\": null, \"max_cat_to_onehot\": null, \"max_cat_threshold\": null, \"eval_metric\": null, \"early_stopping_rounds\": null, \"callbacks\": null, \"_estimator_type\": \"regressor\"}"},"feature_names":["area_aov","order_freq","competition_cuisine_1","competition_cuisine_2","competition_cuisine_3","brand_aov","agg_position","brand_orders"],"feature_types":["int","int","int","int","int","int","int","int"],"gradient_booster":{"model":{"gbtree_model_param":{"num_parallel_tree":"1","num_trees":"100","size_leaf_vector":"0"},"tree_info":[0,0,0,0,0,0,0,0,0,0,0,0,0,0,0,0,0,0,0,0,0,0,0,0,0,0,0,0,0,0,0,0,0,0,0,0,0,0,0,0,0,0,0,0,0,0,0,0,0,0,0,0,0,0,0,0,0,0,0,0,0,0,0,0,0,0,0,0,0,0,0,0,0,0,0,0,0,0,0,0,0,0,0,0,0,0,0,0,0,0,0,0,0,0,0,0,0,0,0,0],"trees":[{"base_weights":[2.8334236E4,1.5489531E4,2.9173957E4,2.7737695E4,3.3722773E4],"categories":[],"categories_nodes":[],"categories_segments":[],"categories_sizes":[],"default_left":[1,0,1,0,0],"id":0,"left_children":[1,-1,3,-1,-1],"loss_changes":[1.9857408E9,0E0,4.4312166E8,0E0,0E0],"parents":[2147483647,0,0,2,2],"right_children":[2,-1,4,-1,-1],"split_conditions":[2.25E2,4.6468594E3,8.5E0,8.321309E3,1.0116832E4],"split_indices":[7,0,6,0,0],"split_type":[0,0,0,0,0],"sum_hessian":[2.25E2,1.5E1,2.1E2,1.65E2,4.5E1],"tree_param":{"num_deleted":"0","num_feature":"8","num_nodes":"5","size_leaf_vector":"0"}},{"base_weights":[1.9936111E4,1.5788823E4,2.1340018E4,1.706497E4,1.1133101E4,2.018456E4,2.5720738E4,1.8032324E4,2.1794951E4],"categories":[],"categories_nodes":[],"categories_segments":[],"categories_sizes":[],"default_left":[1,1,1,0,0,1,0,0,0],"id":1,"left_children":[1,3,5,-1,-1,7,-1,-1,-1],"loss_changes":[9.789358E8,1.724375E8,3.2108544E8,0E0,0E0,7.836058E7,0E0,0E0,0E0],"parents":[2147483647,0,0,1,1,2,2,5,5],"right_children":[2,4,6,-1,-1,8,-1,-1,-1],"split_conditions":[4.4E1,3.75E1,1.25E2,5.119491E3,3.3399304E3,6.75E1,7.7162217E3,5.4096973E3,6.538486E3],"split_indices":[5,5,5,0,0,0,0,0,0],"split_type":[0,0,0,0,0,0,0,0,0],"sum_hessian":[2.25E2,6E1,1.65E2,4.5E1,1.5E1,1.35E2,3E1,6.3E1,7.2E1],"tree_param":{"num_deleted":"0","num_feature":"8","num_nodes":"9","size_leaf_vector":"0"}},{"base_weights":[1.407972E4,1.2103963E4,1.5694187E4,8.0019155E3,1.2692191E4,1.4419674E4,1.782934E4,1.1428661E4,1.4769067E4,1.0148052E4,1.487838E4,1.0383364E4,1.5445049E4],"categories":[],"categories_nodes":[],"categories_segments":[],"categories_sizes":[],"default_left":[1,1,1,0,1,1,0,0,0,0,1,0,0],"id":2,"left_children":[1,3,5,-1,7,9,-1,-1,-1,-1,11,-1,-1],"loss_changes":[5.309317E8,1.542103E8,7.218176E7,0E0,7.001088E7,7.725056E6,0E0,0E0,0E0,0E0,2.048E7,0E0,0E0],"parents":[2147483647,0,0,1,1,2,2,4,4,5,5,10,10],"right_children":[2,4,6,-1,8,10,-1,-1,-1,-1,12,-1,-1],"split_conditions":[7.5E0,2.5E2,8.35E1,2.4005747E3,8.35E1,3.25E2,5.3488022E3,3.4285984E3,4.43072E3,3.0444155E3,4.1E1,3.1150095E3,4.6335146E3],"split_indices":[6,7,0,0,0,7,0,0,0,0,5,0,0],"split_type":[0,0,0,0,0,0,0,0,0,0,0,0,0],"sum_hessian":[2.25E2,1.05E2,1.2E2,1.5E1,9E1,8E1,4E1,6E1,3E1,1E1,7E1,1E1,6E1],"tree_param":{"num_deleted":"0","num_feature":"8","num_nodes":"13","size_leaf_vector":"0"}},{"base_weights":[9.972625E3,9.357731E3,1.3538642E4,8.792944E3,1.2567215E4,8.386346E3,1.2724596E4,5.0255537E3,8.654851E3,3.0651123E3,5.7741196E3,7.4904443E3,9.290265E3],"categories":[],"categories_nodes":[],"categories_segments":[],"categories_sizes":[],"default_left":[1,1,0,1,0,1,0,1,1,0,0,0,0],"id":3,"left_children":[1,3,-1,5,-1,7,-1,9,11,-1,-1,-1,-1],"loss_changes":[3.6886323E8,2.4478208E8,0E0,1.6504934E8,0E0,9.81801E7,0E0,2.846944E6,3.695411E7,0E0,0E0,0E0,0E0],"parents":[2147483647,0,0,1,1,3,3,5,5,7,7,8,8],"right_children":[2,4,-1,6,-1,8,-1,10,12,-1,-1,-1,-1],"split_conditions":[1.25E2,1.16E2,4.0615925E3,4.5E2,3.7701646E3,2.25E2,3.817379E3,5E1,5E1,9.1953375E2,1.732236E3,2.2471333E3,2.7870796E3],"split_indices":[5,0,0,7,0,7,0,0,0,0,0,0,0],"split_type":[0,0,0,0,0,0,0,0,0,0,0,0,0],"sum_hessian":[2.25E2,1.95E2,3E1,1.69E2,2.6E1,1.56E2,1.3E1,1.3E1,1.43E2,5E0,8E0,5.5E1,8.8E1],"tree_param":{"num_deleted":"0","num_feature":"8","num_nodes":"13","size_leaf_vector":"0"}},{"base_weights":[7.066391E3,6.4945273E3,9.162934E3,5.881701E3,8.025371E3,4.667617E3,6.4294775E3,3.686228E3,5.446066E3,2.325244E3,4.0297964E3],"categories":[],"categories_nodes":[],"categories_segments":[],"categories_sizes":[],"default_left":[1,1,0,1,0,1,0,1,0,0,0],"id":4,"left_children":[1,3,-1,5,-1,7,-1,9,-1,-1,-1],"loss_changes":[2.1145088E8,1.2260096E8,0E0,5.8440704E7,0E0,1.4302784E7,0E0,1.384352E6,0E0,0E0,0E0],"parents":[2147483647,0,0,1,1,3,3,5,5,7,7],"right_children":[2,4,-1,6,-1,8,-1,10,-1,-1,-1],"split_conditions":[8.5E0,9.3E1,2.7488801E3,4.4E1,2.4076113E3,6E0,1.9288434E3,4.2E1,1.6338198E3,6.975732E2,1.208939E3],"split_indices":[6,0,0,5,0,6,0,0,0,0,0],"split_type":[0,0,0,0,0,0,0,0,0,0,0],"sum_hessian":[2.25E2,1.8E2,4.5E1,1.32E2,4.8E1,4.4E1,8.8E1,2.2E1,2.2E1,6E0,1.6E1],"tree_param":{"num_deleted":"0","num_feature":"8","num_nodes":"11","size_leaf_vector":"0"}},{"base_weights":[4.9934897E3,4.6059155E3,7.2828774E3,4.223471E3,6.505265E3,5.1509893E3,8.358229E3,3.9079695E3,6.0151577E3,3.2031648E3,4.307532E3,1.5470677E3,3.3351926E3,3.2548313E3,4.4936743E3,1.9140414E3,3.448056E3],"categories":[],"categories_nodes":[],"categories_segments":[],"categories_sizes":[],"default_left":[1,1,1,1,0,0,0,1,0,1,1,0,1,0,0,0,0],"id":5,"left_children":[1,3,5,7,-1,-1,-1,9,-1,11,13,-1,15,-1,-1,-1,-1],"loss_changes":[1.6698726E8,1.1489843E8,2.801536E7,7.03296E7,0E0,0E0,0E0,2.675456E7,0E0,7.084672E6,2.813568E6,0E0,1.580416E6,0E0,0E0,0E0,0E0],"parents":[2147483647,0,0,1,1,2,2,3,3,7,7,9,9,10,10,12,12],"right_children":[2,4,6,8,-1,-1,-1,10,-1,12,14,-1,16,-1,-1,-1,-1],"split_conditions":[1.25E2,3.75E2,6E1,1.16E2,1.9515796E3,1.5452969E3,2.5074688E3,5E1,1.8045474E3,2.25E2,3.25E2,4.6412033E2,2.45E1,9.764494E2,1.3481023E3,5.7421246E2,1.0344169E3],"split_indices":[5,7,0,0,0,0,0,0,0,7,7,0,5,0,0,0,0],"split_type":[0,0,0,0,0,0,0,0,0,0,0,0,0,0,0,0,0],"sum_hessian":[2.25E2,1.95E2,3E1,1.65E2,3E1,1.2E1,1.8E1,1.43E2,2.2E1,5.5E1,8.8E1,5E0,5E1,1.6E1,7.2E1,5E0,4.5E1],"tree_param":{"num_deleted":"0","num_feature":"8","num_nodes":"17","size_leaf_vector":"0"}},{"base_weights":[3.549453E3,3.245422E3,5.357213E3,2.6940083E3,3.8394768E3,2.391357E3,5.7080303E3,1.9169578E3,2.9254812E3,2.31276E3,4.061433E3,4.4227236E3,6.751997E3,1.4317313E3,2.3293762E3,2.0461564E3,3.1514106E3,2.945466E3,4.3424487E3],"categories":[],"categories_nodes":[],"categories_segments":[],"categories_sizes":[],"default_left":[1,1,1,1,1,0,1,1,1,0,1,0,0,0,0,0,0,0,0],"id":6,"left_children":[1,3,5,7,9,-1,11,13,15,-1,17,-1,-1,-1,-1,-1,-1,-1,-1],"loss_changes":[1.0682624E8,5.3860096E7,1.8604672E7,1.3277888E7,2.17824E7,0E0,6.366912E6,2.068096E6,9.246336E6,0E0,1.1984128E7,0E0,0E0,0E0,0E0,0E0,0E0,0E0,0E0],"parents":[2147483647,0,0,1,1,2,2,3,3,4,4,6,6,7,7,8,8,10,10],"right_children":[2,4,6,8,10,-1,12,14,16,-1,18,-1,-1,-1,-1,-1,-1,-1,-1],"split_conditions":[1.16E2,5.25E1,3.25E2,6E0,3.25E2,7.174071E2,5.25E1,6.75E1,4.2E1,6.93828E2,4.2E1,1.3268171E3,2.0255992E3,4.295194E2,6.9881287E2,6.138469E2,9.454232E2,8.8363983E2,1.3027346E3],"split_indices":[0,5,7,6,7,0,5,0,0,0,0,0,0,0,0,0,0,0,0],"split_type":[0,0,0,0,0,0,0,0,0,0,0,0,0,0,0,0,0,0,0],"sum_hessian":[2.25E2,1.95E2,3E1,1.04E2,9.1E1,4E0,2.6E1,2.6E1,7.8E1,1.3E1,7.8E1,1.4E1,1.2E1,1.4E1,1.2E1,1.8E1,6E1,1.8E1,6E1],"tree_param":{"num_deleted":"0","num_feature":"8","num_nodes":"19","size_leaf_vector":"0"}},{"base_weights":[2.5272612E3,2.2884119E3,3.9558796E3,2.1097031E3,4.1670293E3,2.8060745E3,4.737715E3,1.5992848E3,2.432188E3,2.5719492E3,4.658252E3,7.71314E2,1.6619193E3,2.2570305E3,3.55204E3,1.0741353E3,1.7581959E3,1.5149559E3,2.306712E3,1.7380658E3,2.4075376E3],"categories":[],"categories_nodes":[],"categories_segments":[],"categories_sizes":[],"default_left":[1,1,1,1,1,0,0,1,1,0,0,0,1,1,0,0,0,0,1,0,0],"id":7,"left_children":[1,3,5,7,9,-1,-1,11,13,-1,-1,-1,15,17,-1,-1,-1,-1,19,-1,-1],"loss_changes":[6.806413E7,5.7010944E7,1.4573344E7,2.5903232E7,5.5584E5,0E0,0E0,2.503888E6,1.3363328E7,0E0,0E0,0E0,1.902976E6,8.1536E4,0E0,0E0,0E0,0E0,9.18304E5,0E0,0E0],"parents":[2147483647,0,0,1,1,2,2,3,3,4,4,7,7,8,8,12,12,13,13,18,18],"right_children":[2,4,6,8,10,-1,-1,12,14,-1,-1,-1,16,18,-1,-1,-1,-1,20,-1,-1],"split_conditions":[1.25E2,4.5E2,6.75E1,6E1,5E1,8.418224E2,1.4213145E3,2.25E2,1.41E2,7.715848E2,1.3974756E3,2.3139421E2,3.25E1,2.45E1,1.065612E3,3.222406E2,5.274588E2,4.544868E2,3.25E2,5.2141974E2,7.222613E2],"split_indices":[5,7,0,0,0,0,0,7,0,0,0,0,0,5,0,0,0,0,7,0,0],"split_type":[0,0,0,0,0,0,0,0,0,0,0,0,0,0,0,0,0,0,0,0,0],"sum_hessian":[2.25E2,1.95E2,3E1,1.8E2,1.5E1,1.4E1,1.6E1,7.2E1,1.08E2,5E0,1E1,6E0,6.6E1,9.6E1,1.2E1,1.1E1,5.5E1,8E0,8.8E1,1.6E1,7.2E1],"tree_param":{"num_deleted":"0","num_feature":"8","num_nodes":"21","size_leaf_vector":"0"}},{"base_weights":[1.8057068E3,1.6175183E3,2.9372944E3,1.4787802E3,2.431147E3,1.1826195E3,3.1534456E3,1.3158094E3,2.2931877E3,1.3275828E3,2.56535E3,1.3942465E3,3.3987737E3,8.115256E2,1.400094E3,2.3963198E3,3.9855598E3,4.460004E2,8.650045E2,1.4341125E3,9.687487E2,9.049419E2,3.5035806E2,9.968946E2,1.4722375E3],"categories":[],"categories_nodes":[],"categories_segments":[],"categories_sizes":[],"default_left":[1,1,1,1,1,0,1,1,0,0,0,0,1,1,1,0,0,0,1,1,0,0,0,0,0],"id":8,"left_children":[1,3,5,7,9,-1,11,13,-1,-1,-1,-1,15,17,19,-1,-1,-1,21,23,-1,-1,-1,-1,-1],"loss_changes":[4.3375936E7,1.85296E7,8.028208E6,1.954576E7,5.9304E5,0E0,6.913984E6,4.984288E6,0E0,0E0,0E0,0E0,3.978512E6,6.381E4,4.00896E5,0E0,0E0,0E0,7.3465E4,3.82592E5,0E0,0E0,0E0,0E0,0E0],"parents":[2147483647,0,0,1,1,2,2,3,3,4,4,6,6,7,7,12,12,13,13,14,14,18,18,19,19],"right_children":[2,4,6,8,10,-1,12,14,-1,-1,-1,-1,16,18,20,-1,-1,-1,22,24,-1,-1,-1,-1,-1],"split_conditions":[1.16E2,1.25E2,3.25E2,3.75E2,3.75E1,3.5478586E2,3.45E1,3.75E1,6.8795636E2,3.9827484E2,7.6960504E2,4.1827396E2,7.5E0,3.25E2,8.75E1,7.18896E2,1.195668E3,1.3380013E2,8.5E1,2.25E2,2.9062463E2,2.7148257E2,1.0510742E2,2.990684E2,4.416713E2],"split_indices":[0,5,7,7,0,0,5,0,0,0,0,0,6,7,5,0,0,0,5,7,0,0,0,0,0],"split_type":[0,0,0,0,0,0,0,0,0,0,0,0,0,0,0,0,0,0,0,0,0,0,0,0,0],"sum_hessian":[2.25E2,1.95E2,3E1,1.69E2,2.6E1,4E0,2.6E1,1.43E2,2.6E1,4E0,2.2E1,4E0,2.2E1,2.2E1,1.21E2,1E1,1.2E1,4E0,1.8E1,1.1E2,1.1E1,1.6E1,2E0,1.1E1,9.9E1],"tree_param":{"num_deleted":"0","num_feature":"8","num_nodes":"25","size_leaf_vector":"0"}},{"base_weights":[1.29092E3,1.149597E3,2.1428035E3,9.192076E2,1.4000459E3,1.8053644E3,3.536414E3,6.778683E2,1.1105483E3,1.7935498E3,1.2178542E3,1.4627202E3,3.020455E3,4.6827502E2,8.603468E2,7.128318E2,1.1519719E3,8.315458E2,1.7450573E3,1.0095363E3,1.7940107E3,3.846093E2,6.2847125E2,4.646434E2,8.8262726E2,1.1925157E3,1.9999337E3,4.2369843E2,1.3210059E2],"categories":[],"categories_nodes":[],"categories_segments":[],"categories_sizes":[],"default_left":[1,1,1,1,1,1,0,1,1,0,1,1,0,1,0,0,0,1,1,0,0,1,0,0,0,0,0,0,0],"id":9,"left_children":[1,3,5,7,9,11,-1,13,15,-1,17,19,-1,21,-1,-1,-1,23,25,-1,-1,27,-1,-1,-1,-1,-1,-1,-1],"loss_changes":[2.4744928E7,1.0022416E7,8.19352E6,4.095896E6,4.411472E6,6.8232E6,0E0,1.47119E6,1.17904E5,0E0,1.1990664E7,1.642E6,0E0,9.3357E4,0E0,0E0,0E0,3.39572E5,1.417448E6,0E0,0E0,1.3156575E5,0E0,0E0,0E0,0E0,0E0,0E0,0E0],"parents":[2147483647,0,0,1,1,2,2,3,3,4,4,5,5,7,7,8,8,10,10,11,11,13,13,17,17,18,18,21,21],"right_children":[2,4,6,8,10,12,-1,14,16,-1,18,20,-1,22,-1,-1,-1,24,26,-1,-1,28,-1,-1,-1,-1,-1,-1,-1],"split_conditions":[1.16E2,5.25E1,1.25E2,6E1,6.75E1,3.75E2,1.0609243E3,4.4E1,2.45E1,5.3806494E2,1.25E2,1.41E2,9.0613654E2,7.5E0,2.5810406E2,2.1384955E2,3.4559158E2,3.75E1,5E1,3.028609E2,5.3820325E2,5E1,1.8854138E2,1.3939302E2,2.6478818E2,3.5775473E2,5.9998016E2,1.27109535E2,3.9630177E1],"split_indices":[0,5,5,0,5,7,0,5,5,0,5,0,0,6,0,0,0,0,0,0,0,0,0,0,0,0,0,0,0],"split_type":[0,0,0,0,0,0,0,0,0,0,0,0,0,0,0,0,0,0,0,0,0,0,0,0,0,0,0,0,0],"sum_hessian":[2.25E2,1.95E2,3E1,1.04E2,9.1E1,2.6E1,4E0,4.8E1,5.6E1,2.6E1,6.5E1,2.2E1,4E0,2.4E1,2.4E1,7E0,4.9E1,3.9E1,2.6E1,1.1E1,1.1E1,1.8E1,6E0,6E0,3.3E1,1E1,1.6E1,1.5E1,3E0],"tree_param":{"num_deleted":"0","num_feature":"8","num_nodes":"29","size_leaf_vector":"0"}},{"base_weights":[9.296658E2,8.516123E2,1.9008917E3,7.8980804E2,1.6065338E3,6.2879364E2,2.0377062E3,6.8753656E2,1.3585693E3,9.07278E2,1.865434E3,4.4837695E2,2.1254717E3,5.3061957E2,7.985407E2,1.0418695E3,1.7820898E3,3.420039E2,6.160231E2,8.1782874E2,5.190764E2,1.22435936E2,3.779961E2,6.59626E2,2.6017355E2,5.2099194E2,8.40714E2,6.3097656E1,5.681865E2],"categories":[],"categories_nodes":[],"categories_segments":[],"categories_sizes":[],"default_left":[1,1,1,1,1,0,1,1,1,0,0,0,0,1,1,0,0,1,1,1,1,0,0,0,0,0,0,0,0],"id":10,"left_children":[1,3,5,7,9,-1,11,13,15,-1,-1,-1,-1,17,19,-1,-1,21,23,25,27,-1,-1,-1,-1,-1,-1,-1,-1],"loss_changes":[1.5513664E7,8.575856E6,1.503368E6,1.0525048E7,1.023096E6,0E0,9.99824E5,2.519992E6,2.033036E6,0E0,0E0,0E0,0E0,9.65234E5,9.8344E4,0E0,0E0,1.51288E5,5.8867E5,1.66584E5,1.656875E5,0E0,0E0,0E0,0E0,0E0,0E0,0E0,0E0],"parents":[2147483647,0,0,1,1,2,2,3,3,4,4,6,6,7,7,8,8,13,13,14,14,17,17,18,18,19,19,20,20],"right_children":[2,4,6,8,10,-1,12,14,16,-1,-1,-1,-1,18,20,-1,-1,22,24,26,28,-1,-1,-1,-1,-1,-1,-1,-1],"split_conditions":[1.41E2,4.5E2,3.25E2,1.25E2,5E1,1.8863809E2,2.45E1,6E1,7.65E1,2.721834E2,5.596302E2,1.3451309E2,6.3764154E2,4.4E1,8.75E1,3.1256085E2,5.3462695E2,3.25E1,8.75E1,2.45E1,5.5E0,3.673078E1,1.13398834E2,1.978878E2,7.805207E1,1.5629759E2,2.522142E2,1.8929298E1,1.7045596E2],"split_indices":[0,7,7,5,0,0,5,0,0,0,0,0,0,5,5,0,0,0,5,5,2,0,0,0,0,0,0,0,0],"split_type":[0,0,0,0,0,0,0,0,0,0,0,0,0,0,0,0,0,0,0,0,0,0,0,0,0,0,0,0,0],"sum_hessian":[2.25E2,2.1E2,1.5E1,1.96E2,1.4E1,2E0,1.3E1,1.68E2,2.8E1,5E0,9E0,1E0,1.2E1,7.2E1,9.6E1,1.8E1,1E1,2.4E1,4.8E1,8.8E1,8E0,4E0,2E1,4.2E1,6E0,8E0,8E1,1E0,7E0],"tree_param":{"num_deleted":"0","num_feature":"8","num_nodes":"29","size_leaf_vector":"0"}},{"base_weights":[6.6697705E2,5.5798224E2,1.0813486E3,5.21694E2,9.86808E2,8.3545575E2,1.8830173E3,4.638603E2,8.362614E2,1.8409375E2,1.0383597E3,7.3146826E2,1.5104854E3,2.4653516E2,5.0492862E2,2.7725845E2,8.728156E2,3.6495563E2,7.969726E2,1.6649278E2,3.0761328E2,2.622778E2,5.244262E2,2.0911719E2,5.0303452E2,3.8505078E2,8.9181256E2,9.979799E1,2.0940291E2,3.6612805E2,1.4076407E2,1.0269006E2,5.158838E2,5.4614056E2,2.773734E2,2.666185E2,8.191016E1,8.667057E1,4.8706876E2,9.557689E2,3.650669E2],"categories":[],"categories_nodes":[],"categories_segments":[],"categories_sizes":[],"default_left":[1,1,1,1,1,1,0,1,1,0,0,1,0,1,1,0,0,1,1,1,1,1,1,1,0,1,1,0,0,0,0,0,0,0,0,0,0,0,0,0,0],"id":11,"left_children":[1,3,5,7,9,11,-1,13,15,-1,-1,17,-1,19,21,-1,-1,23,25,27,29,31,33,35,-1,37,39,-1,-1,-1,-1,-1,-1,-1,-1,-1,-1,-1,-1,-1,-1],"loss_changes":[9.603776E6,2.301792E6,7.494556E6,2.686636E6,3.46802E5,1.49233E6,0E0,1.16967E6,2.68852E5,0E0,0E0,5.25416E5,0E0,7.10055E4,4.34918E5,0E0,0E0,4.5432875E4,7.50474E5,1.6306469E4,7.5383125E4,3.9222038E5,4.43986E5,1.4734078E4,0E0,1.7086644E5,3.92232E5,0E0,0E0,0E0,0E0,0E0,0E0,0E0,0E0,0E0,0E0,0E0,0E0,0E0,0E0],"parents":[2147483647,0,0,1,1,2,2,3,3,4,4,5,5,7,7,8,8,11,11,13,13,14,14,17,17,18,18,19,19,20,20,21,21,22,22,23,23,25,25,26,26],"right_children":[2,4,6,8,10,12,-1,14,16,-1,-1,18,-1,20,22,-1,-1,24,26,28,30,32,34,36,-1,38,40,-1,-1,-1,-1,-1,-1,-1,-1,-1,-1,-1,-1,-1,-1],"split_conditions":[9.85E1,4.5E2,8.5E0,1.25E2,3.25E1,1.125E2,5.649052E2,3.75E1,3.25E1,5.5228127E1,3.1150793E2,3.25E2,4.5314563E2,4.95E1,2.25E2,8.3177536E1,2.618447E2,1.41E2,3.45E1,3.25E1,7.25E1,7.65E1,8.75E1,5.75E1,1.5091035E2,1.16E2,6.75E1,2.9939398E1,6.2820873E1,1.0983842E2,4.222922E1,3.080702E1,1.5476514E2,1.6384218E2,8.321203E1,7.998555E1,2.4573048E1,2.6001173E1,1.4612064E2,2.8673068E2,1.0952007E2],"split_indices":[0,7,6,5,0,5,0,0,0,0,0,7,0,5,7,0,0,0,5,0,5,0,5,5,0,0,5,0,0,0,0,0,0,0,0,0,0,0,0,0,0],"split_type":[0,0,0,0,0,0,0,0,0,0,0,0,0,0,0,0,0,0,0,0,0,0,0,0,0,0,0,0,0,0,0,0,0,0,0,0,0,0,0,0,0],"sum_hessian":[2.25E2,1.8E2,4.5E1,1.68E2,1.2E1,3.6E1,9E0,1.44E2,2.4E1,1E0,1.1E1,3.3E1,3E0,2.4E1,1.2E2,2E0,2.2E1,6E0,2.7E1,1.2E1,1.2E1,1E1,1.1E2,4E0,2E0,6E0,2.1E1,6E0,6E0,8E0,4E0,7E0,3E0,1E2,1E1,2E0,2E0,2E0,4E0,1.8E1,3E0],"tree_param":{"num_deleted":"0","num_feature":"8","num_nodes":"41","size_leaf_vector":"0"}},{"base_weights":[4.8118112E2,4.3160178E2,1.104935E3,3.9583337E2,8.725866E2,8.566507E2,1.8952838E3,3.403317E2,7.056248E2,5.8108966E2,1.2129838E3,6.077363E2,1.5667578E3,2.5927084E2,3.978277E2,3.7758328E2,8.5840546E2,2.3987956E2,6.364072E2,6.7260724E2,-5.2921875E1,1.369029E1,2.8105878E2,3.6680106E2,6.604436E2,6.646322E2,1.0956406E3,7.589551E1,-1.7977051E2,1.2217676E2,3.1008603E2,4.6667078E2,3.2274652E2],"categories":[],"categories_nodes":[],"categories_segments":[],"categories_sizes":[],"default_left":[1,1,1,1,1,1,0,1,1,1,0,1,0,1,1,0,1,0,0,0,0,1,1,1,0,0,0,0,0,0,0,0,0],"id":12,"left_children":[1,3,5,7,9,11,-1,13,15,17,-1,19,-1,21,23,-1,25,-1,-1,-1,-1,27,29,31,-1,-1,-1,-1,-1,-1,-1,-1,-1],"loss_changes":[6.512228E6,2.982772E6,1.516104E6,3.147064E6,7.83518E5,1.522407E6,0E0,6.84508E5,1.129314E6,3.608825E4,0E0,5.498855E5,0E0,3.867535E5,5.48113E5,0E0,1.45229E5,0E0,0E0,0E0,0E0,9.788367E4,2.711125E5,2.40958E5,0E0,0E0,0E0,0E0,0E0,0E0,0E0,0E0,0E0],"parents":[2147483647,0,0,1,1,2,2,3,3,4,4,5,5,7,7,8,8,9,9,11,11,13,13,14,14,16,16,21,21,22,22,23,23],"right_children":[2,4,6,8,10,12,-1,14,16,18,-1,20,-1,22,24,-1,26,-1,-1,-1,-1,28,30,32,-1,-1,-1,-1,-1,-1,-1,-1,-1],"split_conditions":[1.41E2,4.5E2,1.25E2,1.25E2,7.65E1,3.75E2,5.6858514E2,6E1,5E1,3.75E1,3.6389514E2,8.75E1,4.7002737E2,2.45E1,3.75E2,1.1327499E2,9.3E1,7.1963875E1,1.9092218E2,2.0178218E2,-1.5876563E1,5E1,3.25E1,3.75E1,1.9813309E2,1.9938966E2,3.286922E2,2.2768654E1,-5.3931156E1,3.665303E1,9.302581E1,1.4000124E2,9.682396E1],"split_indices":[0,7,5,5,0,7,0,0,0,0,0,5,0,5,7,0,0,0,0,0,0,0,0,5,0,0,0,0,0,0,0,0,0],"split_type":[0,0,0,0,0,0,0,0,0,0,0,0,0,0,0,0,0,0,0,0,0,0,0,0,0,0,0,0,0,0,0,0,0],"sum_hessian":[2.25E2,2.1E2,1.5E1,1.96E2,1.4E1,1.3E1,2E0,1.68E2,2.8E1,9E0,5E0,1.1E1,2E0,7.2E1,9.6E1,1E1,1.8E1,2E0,7E0,1E1,1E0,6E0,6.6E1,8.8E1,8E0,1.2E1,6E0,5E0,1E0,1.1E1,5.5E1,2.4E1,6.4E1],"tree_param":{"num_deleted":"0","num_feature":"8","num_nodes":"33","size_leaf_vector":"0"}},{"base_weights":[3.5021677E2,3.1065967E2,8.499873E2,2.8304694E2,6.5259625E2,6.4650836E2,1.5162266E3,2.5153023E2,6.4868097E2,4.6402914E2,1.0551484E3,4.710628E2,1.4636504E3,1.6468784E2,2.8474487E2,3.4940494E2,7.6337854E2,1.2049707E2,4.8430505E2,5.178154E2,-4.4984375E1,2.4241661E2,1.3602534E2,8.0163704E1,3.009899E2,1.3123828E2,5.410281E2,9.943143E1,4.5130664E2,2.5216015E1,1.4732321E2,-8.63125E1,1.5338135E2,3.17651E2,1.0550124E2,5.861677E2,2.2526628E2],"categories":[],"categories_nodes":[],"categories_segments":[],"categories_sizes":[],"default_left":[1,1,1,1,1,1,0,1,1,1,0,1,0,1,1,0,0,0,0,1,0,1,1,1,1,0,1,0,0,0,0,0,0,0,0,0,0],"id":13,"left_children":[1,3,5,7,9,11,-1,13,15,17,-1,19,-1,21,23,-1,-1,-1,-1,25,-1,27,29,31,33,-1,35,-1,-1,-1,-1,-1,-1,-1,-1,-1,-1],"loss_changes":[4.203842E6,1.807506E6,1.188797E6,2.106982E6,6.49002E5,1.317624E6,0E0,4.80957E5,2.48165E5,2.52275E4,0E0,3.3693875E5,0E0,8.5103875E4,4.11241E5,0E0,0E0,0E0,0E0,3.6678E4,0E0,3.4341225E5,4.7613438E4,1.4731767E5,3.60592E5,0E0,2.474375E4,0E0,0E0,0E0,0E0,0E0,0E0,0E0,0E0,0E0,0E0],"parents":[2147483647,0,0,1,1,2,2,3,3,4,4,5,5,7,7,8,8,9,9,11,11,13,13,14,14,19,19,21,21,22,22,23,23,24,24,26,26],"right_children":[2,4,6,8,10,12,-1,14,16,18,-1,20,-1,22,24,-1,-1,-1,-1,26,-1,28,30,32,34,-1,36,-1,-1,-1,-1,-1,-1,-1,-1,-1,-1],"split_conditions":[1.41E2,4.5E2,1.25E2,1.7E2,9.3E1,4.5E2,4.5486798E2,4.45E1,5E1,3.25E1,3.1654456E2,8.75E1,4.3909512E2,6E0,2.45E1,1.0482149E2,2.2901357E2,3.6149124E1,1.4529152E2,2.25E2,-1.3495313E1,5.25E1,3.25E2,6.75E1,8.5E0,3.9371487E1,6.75E1,2.982943E1,1.35392E2,7.5648046E0,4.4196964E1,-2.5893751E1,4.6014404E1,9.52953E1,3.1650373E1,1.7585033E2,6.757989E1],"split_indices":[0,7,5,5,0,7,0,0,0,0,0,5,0,6,5,0,0,0,0,7,0,5,7,0,6,0,5,0,0,0,0,0,0,0,0,0,0],"split_type":[0,0,0,0,0,0,0,0,0,0,0,0,0,0,0,0,0,0,0,0,0,0,0,0,0,0,0,0,0,0,0,0,0,0,0,0,0],"sum_hessian":[2.25E2,2.1E2,1.5E1,1.96E2,1.4E1,1.3E1,2E0,1.82E2,1.4E1,1.1E1,3E0,1.2E1,1E0,5.2E1,1.3E2,5E0,9E0,1E0,1E1,1.1E1,1E0,1.2E1,4E1,1E1,1.2E2,1E0,1E1,8E0,4E0,4E0,3.6E1,3E0,7E0,1.1E2,1E1,8E0,2E0],"tree_param":{"num_deleted":"0","num_feature":"8","num_nodes":"37","size_leaf_vector":"0"}},{"base_weights":[2.5559059E2,2.2312956E2,6.676959E2,1.9036757E2,4.22175E2,4.7316962E2,1.1329824E3,1.5217216E2,3.8795096E2,2.9691547E2,6.675388E2,1.7858919E2,5.1049432E2,1.2458011E2,1.9742554E2,2.8374643E2,6.749157E2,8.0598434E1,3.430725E2,1.11552734E2,5.392332E2,5.3695885E1,1.5177817E2,4.378379E2,1.08969475E2,9.661849E1,2.9696725E2,2.907552E0,1.3142317E2,1.3573698E2,3.616681E2,-1.127832E1,1.6104262E2,2.2093999E2,1.0160442E2,1.2881479E2,-1.16726074E2,2.9009766E1,1.1591797E2,-1.1701172E1,1.60625E1,3.8444696E2,1.4240364E2],"categories":[],"categories_nodes":[],"categories_segments":[],"categories_sizes":[],"default_left":[1,1,1,1,1,1,0,1,1,1,0,0,1,1,1,1,0,1,1,0,0,1,1,0,1,1,0,1,0,0,1,0,0,0,0,0,0,0,0,0,0,0,0],"id":14,"left_children":[1,3,5,7,9,11,-1,13,15,17,-1,-1,19,21,23,25,-1,27,29,-1,-1,31,33,-1,35,37,-1,39,-1,-1,41,-1,-1,-1,-1,-1,-1,-1,-1,-1,-1,-1,-1],"loss_changes":[2.874301E6,1.295589E6,9.120745E5,1.3220245E6,6.93088E5,5.176775E4,0E0,1.68943E5,6.756825E5,1.8202462E5,0E0,0E0,6.59635E4,1.8271375E5,1.1644472E6,2.8209125E4,0E0,1.9360979E4,1.645225E4,0E0,0E0,2.040846E5,2.2392912E5,0E0,2.0763306E5,5.5168555E2,0E0,7.644811E2,0E0,0E0,2.017225E4,0E0,0E0,0E0,0E0,0E0,0E0,0E0,0E0,0E0,0E0,0E0,0E0],"parents":[2147483647,0,0,1,1,2,2,3,3,4,4,5,5,7,7,8,8,9,9,12,12,13,13,14,14,15,15,17,17,18,18,21,21,22,22,24,24,25,25,27,27,30,30],"right_children":[2,4,6,8,10,12,-1,14,16,18,-1,-1,20,22,24,26,-1,28,30,-1,-1,32,34,-1,36,38,-1,40,-1,-1,42,-1,-1,-1,-1,-1,-1,-1,-1,-1,-1,-1,-1],"split_conditions":[1.41E2,3.75E2,8.5E0,1.25E2,8.35E1,3.45E1,3.3989474E2,5.75E1,9.3E1,3.75E1,2.0026166E2,5.357676E1,2.25E2,6E0,6.75E1,3.25E1,2.0247472E2,5.15E1,5.5E0,3.346582E1,1.6176997E2,7.65E1,4.2E1,1.3135138E2,1.16E2,1.7E2,8.909018E1,3.25E1,3.9426952E1,4.0721096E1,7.5E0,-3.3834963E0,4.8312786E1,6.6282E1,3.0481329E1,3.864444E1,-3.5017822E1,8.70293E0,3.477539E1,-3.5103517E0,4.8187504E0,1.1533409E2,4.2721092E1],"split_indices":[0,7,6,5,0,5,0,5,0,0,0,0,7,6,5,0,0,5,2,0,0,0,5,0,0,5,0,0,0,0,2,0,0,0,0,0,0,0,0,0,0,0,0],"split_type":[0,0,0,0,0,0,0,0,0,0,0,0,0,0,0,0,0,0,0,0,0,0,0,0,0,0,0,0,0,0,0,0,0,0,0,0,0,0,0,0,0,0,0],"sum_hessian":[2.25E2,2.1E2,1.5E1,1.82E2,2.8E1,1.2E1,3E0,1.54E2,2.8E1,2E1,8E0,2E0,1E1,9.8E1,5.6E1,2.2E1,6E0,4E0,1.6E1,1E0,9E0,2.8E1,7E1,1.4E1,4.2E1,2E0,2E1,2E0,2E0,2E0,1.4E1,1.8E1,1E1,2.8E1,4.2E1,3.9E1,3E0,1E0,1E0,1E0,1E0,1.2E1,2E0],"tree_param":{"num_deleted":"0","num_feature":"8","num_nodes":"43","size_leaf_vector":"0"}},{"base_weights":[1.861711E2,1.4900665E2,4.1514075E2,1.2828271E2,2.7397202E2,2.869203E2,1.0245032E3,1.1097222E2,3.1324442E2,1.3118999E2,3.502444E2,1.7055579E2,1.1609844E3,8.308016E1,1.4817065E2,7.007877E1,1.704362E2,1.08589195E2,3.7522577E2,2.2146434E2,-2.7659506E2,9.710049E1,4.6358075E0,3.0671567E2,1.0349517E2,2.4713542E0,1.0326465E2,4.300705E2,1.7952226E2,-1.9884115E1,2.4539676E2,6.338037E1,2.344996E2,-2.7029532E2,1.2918306E2,6.641113E1,3.200921E2,3.908901E1,1.413447E2,-9.946289E0,1.365332E1,-1.24646484E2,9.482031E1,2.8733295E2,5.3734375E1],"categories":[],"categories_nodes":[],"categories_segments":[],"categories_sizes":[],"default_left":[1,1,1,1,1,1,0,1,0,1,1,1,0,1,1,1,0,0,1,1,0,1,1,1,1,1,0,0,0,1,1,0,0,0,0,0,0,0,0,0,0,0,0,0,0],"id":15,"left_children":[1,3,5,7,9,11,-1,13,-1,15,17,19,-1,21,23,25,-1,-1,27,29,-1,31,33,35,37,39,-1,-1,-1,41,43,-1,-1,-1,-1,-1,-1,-1,-1,-1,-1,-1,-1,-1,-1],"loss_changes":[1.861295E6,4.7245E5,2.128164E6,5.0954075E5,2.4809025E5,2.5481582E6,0E0,1.5058375E5,0E0,1.443825E4,6.18815E4,6.3035106E5,0E0,1.00732875E5,4.357395E5,1.3206467E4,0E0,0E0,8.379225E4,1.3772875E5,0E0,3.465203E5,5.485463E5,2.3744E4,1.2367531E5,5.523609E2,0E0,0E0,0E0,4.786914E4,1.5334962E5,0E0,0E0,0E0,0E0,0E0,0E0,0E0,0E0,0E0,0E0,0E0,0E0,0E0,0E0],"parents":[2147483647,0,0,1,1,2,2,3,3,4,4,5,5,7,7,9,9,10,10,11,11,13,13,14,14,15,15,18,18,19,19,21,21,22,22,23,23,24,24,25,25,29,29,30,30],"right_children":[2,4,6,8,10,12,-1,14,-1,16,18,20,-1,22,24,26,-1,-1,28,30,-1,32,34,36,38,40,-1,-1,-1,42,44,-1,-1,-1,-1,-1,-1,-1,-1,-1,-1,-1,-1,-1,-1],"split_conditions":[1.16E2,3.75E2,1.25E2,1.7E2,5E1,4.5E2,3.0735095E2,5.75E1,9.397333E1,5.15E1,5.5E0,8.75E1,3.4829532E2,9.3E1,6.75E1,3.75E1,5.1130863E1,3.257676E1,6.5E0,2.25E2,-8.297852E1,7.65E1,3.45E1,5.5E0,5E1,3.25E1,3.0979395E1,1.2902115E2,5.385668E1,1.41E2,6.75E1,1.9014112E1,7.0349884E1,-8.10886E1,3.875492E1,1.992334E1,9.602763E1,1.1726703E1,4.240341E1,-2.9838867E0,4.0959964E0,-3.7393948E1,2.8446095E1,8.619989E1,1.6120314E1],"split_indices":[0,7,5,5,0,7,0,5,0,5,2,5,0,0,5,0,0,0,2,7,0,0,5,2,0,0,0,0,0,0,5,0,0,0,0,0,0,0,0,0,0,0,0,0,0],"split_type":[0,0,0,0,0,0,0,0,0,0,0,0,0,0,0,0,0,0,0,0,0,0,0,0,0,0,0,0,0,0,0,0,0,0,0,0,0,0,0,0,0,0,0,0,0],"sum_hessian":[2.25E2,1.95E2,3E1,1.69E2,2.6E1,2.6E1,4E0,1.56E2,1.3E1,1E1,1.6E1,2.4E1,2E0,9.1E1,6.5E1,5E0,5E0,2E0,1.4E1,2.2E1,2E0,7.7E1,1.4E1,1.3E1,5.2E1,2E0,3E0,1E1,4E0,2E0,2E1,6.3E1,1.4E1,4E0,1E1,1E0,1.2E1,2E1,3.2E1,1E0,1E0,1E0,1E0,1.6E1,4E0],"tree_param":{"num_deleted":"0","num_feature":"8","num_nodes":"45","size_leaf_vector":"0"}},{"base_weights":[1.3596506E2,1.15125565E2,4.0228796E2,1.0145156E2,2.870358E2,2.7957352E2,8.408594E2,8.690189E1,2.72194E2,1.8680779E2,5.1596094E2,1.6261644E2,9.000078E2,-7.614188E0,9.4174385E1,1.7216309E2,5.0423828E2,7.105078E1,2.028541E2,2.0395003E2,-1.6669336E2,-4.9993164E1,3.6150715E0,1.7734446E1,1.0039085E2,2.262541E2,6.1619793E1,-1.5895508E1,3.4108986E1,-6.8600876E1,1.868582E2,1.2266313E2,4.8797592E1,4.9356445E1,2.4042535E2,-5.545703E1,1.4788672E2],"categories":[],"categories_nodes":[],"categories_segments":[],"categories_sizes":[],"default_left":[1,1,1,1,1,1,0,1,1,1,0,1,0,1,1,0,0,0,0,1,0,0,1,1,1,1,1,0,0,0,0,0,0,0,0,0,0],"id":16,"left_children":[1,3,5,7,9,11,-1,13,15,17,-1,19,-1,21,23,-1,-1,-1,-1,25,-1,-1,27,29,31,33,35,-1,-1,-1,-1,-1,-1,-1,-1,-1,-1],"loss_changes":[1.207994E6,4.6687775E5,6.2602275E5,4.6574212E5,2.4778512E5,8.695426E5,0E0,1.2650525E5,2.6136288E5,7.87675E3,0E0,2.1094738E5,0E0,6.843112E3,7.900125E4,0E0,0E0,0E0,0E0,2.4152812E4,0E0,0E0,7.681627E3,2.1723761E5,1.7442288E5,1.32020625E4,3.8500934E4,0E0,0E0,0E0,0E0,0E0,0E0,0E0,0E0,0E0,0E0],"parents":[2147483647,0,0,1,1,2,2,3,3,4,4,5,5,7,7,8,8,9,9,11,11,13,13,14,14,19,19,22,22,23,23,24,24,25,25,26,26],"right_children":[2,4,6,8,10,12,-1,14,16,18,-1,20,-1,22,24,-1,-1,-1,-1,26,-1,-1,28,30,32,34,36,-1,-1,-1,-1,-1,-1,-1,-1,-1,-1],"split_conditions":[1.41E2,4.5E2,1.25E2,1.7E2,9.3E1,4.5E2,2.5225783E2,3.25E1,9.3E1,3.75E1,1.5478828E2,8.75E1,2.7000235E2,3.25E2,2.25E2,5.164893E1,1.5127148E2,2.1315235E1,6.085623E1,6.75E1,-5.000801E1,-1.499795E1,5.75E1,8.35E1,8.35E1,2.45E1,7.25E1,-4.7686524E0,1.0232697E1,-2.0580263E1,5.605746E1,3.6798943E1,1.4639278E1,1.4806934E1,7.212761E1,-1.663711E1,4.4366016E1],"split_indices":[0,7,5,5,0,7,0,0,0,0,0,5,0,7,7,0,0,0,0,5,0,0,5,0,0,5,5,0,0,0,0,0,0,0,0,0,0],"split_type":[0,0,0,0,0,0,0,0,0,0,0,0,0,0,0,0,0,0,0,0,0,0,0,0,0,0,0,0,0,0,0,0,0,0,0,0,0],"sum_hessian":[2.25E2,2.1E2,1.5E1,1.96E2,1.4E1,1.3E1,2E0,1.82E2,1.4E1,1.1E1,3E0,1.2E1,1E0,1.3E1,1.69E2,1.1E1,3E0,2E0,9E0,1.1E1,1E0,2E0,1.1E1,1.3E1,1.56E2,9E0,2E0,7E0,4E0,9E0,4E0,1.08E2,4.8E1,1E0,8E0,1E0,1E0],"tree_param":{"num_deleted":"0","num_feature":"8","num_nodes":"37","size_leaf_vector":"0"}},{"base_weights":[1.0006146E2,7.5618095E1,2.5137885E2,6.243903E1,1.5579674E2,1.87282E2,7.871888E2,5.3003372E1,1.6379324E2,6.5978516E1,2.0474988E2,8.833992E1,6.4453595E2,3.4863537E1,7.748612E1,7.551498E1,2.0444618E2,3.0666666E1,9.0293945E1,2.2295651E2,4.5466797E1,1.2334587E2,-2.0948567E2,6.944893E1,8.103553E0,1.9545926E2,4.48614E1,9.1756836E1,2.86875E1,3.1916016E1,2.2202295E2,-8.5755205E0,5.243164E1,5.431966E1,2.447222E2,-2.7041016E0,7.09043E1,-5.9628906E1,1.4361151E2,-5.1328213E1,2.0564093E2,-1.795164E2,2.7083067E1,2.0972566E2,4.998047E0,-8.639323E-1,7.259991E1,2.5720703E1,1.0519531E2,4.015625E0,3.9015625E1,2.4319308E2,3.6916016E1,3.9365234E0,7.754297E1,-1.3397754E2,4.453418E1,-1.69375E0,1.7790062E2],"categories":[],"categories_nodes":[],"categories_segments":[],"categories_sizes":[],"default_left":[1,1,1,1,1,1,0,1,1,1,1,1,0,1,1,1,1,1,0,1,1,1,0,1,1,1,1,1,1,0,1,0,0,1,0,0,0,1,1,0,0,0,0,0,0,0,0,0,0,0,0,0,0,0,0,0,0,0,0],"id":17,"left_children":[1,3,5,7,9,11,-1,13,15,17,19,21,-1,23,25,27,29,31,-1,33,35,37,-1,39,41,43,45,47,49,-1,51,-1,-1,53,-1,-1,-1,55,57,-1,-1,-1,-1,-1,-1,-1,-1,-1,-1,-1,-1,-1,-1,-1,-1,-1,-1,-1,-1],"loss_changes":[8.16899E5,1.9738138E5,9.172295E5,1.5389675E5,1.0520681E5,1.2550695E6,0E0,6.702428E4,3.480403E4,6.675836E3,3.9163E4,2.8648088E5,0E0,8.458363E4,2.45255E5,1.9311211E3,2.0206625E4,5.5742603E3,0E0,4.176425E4,3.867774E3,9.384975E4,0E0,6.6851044E5,1.9359147E5,3.6992438E4,6.728539E4,8.44E2,6.077705E2,0E0,2.2372156E4,0E0,0E0,3.2049395E3,0E0,0E0,0E0,2.9199727E4,1.0493144E5,0E0,0E0,0E0,0E0,0E0,0E0,0E0,0E0,0E0,0E0,0E0,0E0,0E0,0E0,0E0,0E0,0E0,0E0,0E0,0E0],"parents":[2147483647,0,0,1,1,2,2,3,3,4,4,5,5,7,7,8,8,9,9,10,10,11,11,13,13,14,14,15,15,16,16,17,17,19,19,20,20,21,21,23,23,24,24,25,25,26,26,27,27,28,28,30,30,33,33,37,37,38,38],"right_children":[2,4,6,8,10,12,-1,14,16,18,20,22,-1,24,26,28,30,32,-1,34,36,38,-1,40,42,44,46,48,50,-1,52,-1,-1,54,-1,-1,-1,56,58,-1,-1,-1,-1,-1,-1,-1,-1,-1,-1,-1,-1,-1,-1,-1,-1,-1,-1,-1,-1],"split_conditions":[1.16E2,3.75E2,4.5E2,1.7E2,5E1,1.25E2,2.3615665E2,5.75E1,5E1,5.15E1,7.5E0,8.75E1,1.933608E2,3.75E1,6.75E1,4.2E1,5.5E0,3.75E1,2.7088184E1,5.5E0,5.15E1,2.25E2,-6.2845703E1,6.75E1,5.5E0,7.5E0,5E1,3.25E1,4.45E1,9.574805E0,7.5E0,-2.5726562E0,1.5729493E1,5.15E1,7.3416664E1,-8.112305E-1,2.127129E1,1.41E2,3.45E1,-1.5398464E1,6.169228E1,-5.3854923E1,8.124921E0,6.29177E1,1.4994141E0,-2.591797E-1,2.1779972E1,7.7162113E0,3.1558596E1,1.2046876E0,1.1704688E1,7.295793E1,1.1074805E1,1.1809571E0,2.3262892E1,-4.0193264E1,1.3360254E1,-5.08125E-1,5.337019E1],"split_indices":[0,7,7,5,0,5,0,5,0,5,2,5,0,5,5,0,2,0,0,2,5,7,0,0,2,2,0,0,0,0,2,0,0,5,0,0,0,0,5,0,0,0,0,0,0,0,0,0,0,0,0,0,0,0,0,0,0,0,0],"split_type":[0,0,0,0,0,0,0,0,0,0,0,0,0,0,0,0,0,0,0,0,0,0,0,0,0,0,0,0,0,0,0,0,0,0,0,0,0,0,0,0,0,0,0,0,0,0,0,0,0,0,0,0,0,0,0,0,0,0,0],"sum_hessian":[2.25E2,1.95E2,3E1,1.69E2,2.6E1,2.8E1,2E0,1.56E2,1.3E1,1E1,1.6E1,2.4E1,4E0,9.1E1,6.5E1,5E0,8E0,5E0,5E0,1.4E1,2E0,2.2E1,2E0,3.9E1,5.2E1,1.3E1,5.2E1,3E0,2E0,1E0,7E0,2E0,3E0,2E0,1.2E1,1E0,1E0,2E0,2E1,2.1E1,1.8E1,4E0,4.8E1,1.2E1,1E0,2E1,3.2E1,1E0,2E0,1E0,1E0,6E0,1E0,1E0,1E0,1E0,1E0,4E0,1.6E1],"tree_param":{"num_deleted":"0","num_feature":"8","num_nodes":"59","size_leaf_vector":"0"}},{"base_weights":[7.351021E1,5.9336994E1,2.5582507E2,4.7528828E1,1.3180449E2,1.5327269E2,5.2516406E2,3.770591E1,1.5503177E2,8.964215E1,2.5150865E2,1.0822692E2,2.673496E2,5.324461E1,-1.43467E0,9.180078E1,3.059668E2,1.9153126E1,1.0347389E2,1.3601904E2,3.041211E2,1.3381445E2,-7.382422E1,3.3792522E1,2.1224715E2,-2.1929514E2,4.642335E1,6.663125E1,1.4509895E2,-6.8606772E0,3.878255E1,1.2979457E2,5.9807076E1,1.5837793E2,7.757539E1,4.5136837E1,-8.3029884E1,4.4169873E2,9.92418E1,-9.376133E1,-3.009699E2,-1.427513E2,9.660967E1,1.8626953E2,3.1378906E1,7.29056E1,2.5719662E2,5.3374348E1,1.9753613E2,2.1249512E1,1.5143945E2],"categories":[],"categories_nodes":[],"categories_segments":[],"categories_sizes":[],"default_left":[1,1,1,1,1,1,0,1,1,1,1,1,0,1,1,1,0,1,1,0,0,1,0,1,1,1,1,0,1,0,0,1,0,1,1,0,0,0,0,0,0,0,0,0,0,0,0,0,0,0,0],"id":18,"left_children":[1,3,5,7,9,11,-1,13,15,17,19,21,-1,23,25,27,-1,29,31,-1,-1,33,-1,35,37,39,41,-1,43,-1,-1,45,-1,47,49,-1,-1,-1,-1,-1,-1,-1,-1,-1,-1,-1,-1,-1,-1,-1,-1],"loss_changes":[5.6880125E5,1.7428994E5,3.6144838E5,1.87401E5,1.2381744E5,3.7868438E4,0E0,1.0286111E5,1.1506859E5,2.0442828E4,1.1670625E3,6.1119383E4,0E0,3.6707234E5,5.210726E5,6.429758E3,0E0,2.819255E3,1.4074844E4,0E0,0E0,1.5280469E3,0E0,1.4820216E5,2.932453E5,6.4057156E4,4.030443E5,0E0,8.200828E3,0E0,0E0,6.097442E4,0E0,1.4127141E4,1.7584277E4,0E0,0E0,0E0,0E0,0E0,0E0,0E0,0E0,0E0,0E0,0E0,0E0,0E0,0E0,0E0,0E0],"parents":[2147483647,0,0,1,1,2,2,3,3,4,4,5,5,7,7,8,8,9,9,10,10,11,11,13,13,14,14,15,15,17,17,18,18,21,21,23,23,24,24,25,25,26,26,28,28,31,31,33,33,34,34],"right_children":[2,4,6,8,10,12,-1,14,16,18,20,22,-1,24,26,28,-1,30,32,-1,-1,34,-1,36,38,40,42,-1,44,-1,-1,46,-1,48,50,-1,-1,-1,-1,-1,-1,-1,-1,-1,-1,-1,-1,-1,-1,-1,-1],"split_conditions":[1.41E2,3.75E2,8.5E0,1.7E2,9.3E1,7.25E1,1.5754922E2,8.35E1,9.3E1,3.75E1,5.15E1,6.75E1,8.020489E1,7.65E1,3.45E1,6.5E0,9.179004E1,5.15E1,6.75E1,4.0805714E1,9.123633E1,4.85E1,-2.2147266E1,8.5E0,3.75E1,2.45E1,3.25E2,1.9989376E1,6.25E1,-2.0582032E0,1.1634766E1,6E1,1.7942123E1,6E0,5.75E1,1.3541052E1,-2.4908966E1,1.3250963E2,2.9772541E1,-2.81284E1,-9.029098E1,-4.282539E1,2.8982903E1,5.5880863E1,9.413672E0,2.1871681E1,7.715899E1,1.6012304E1,5.926084E1,6.3748536E0,4.543184E1],"split_indices":[0,7,6,5,0,5,0,0,0,0,5,5,0,0,5,2,0,5,0,0,0,5,0,6,5,5,7,0,0,0,0,0,0,6,5,0,0,0,0,0,0,0,0,0,0,0,0,0,0,0,0],"split_type":[0,0,0,0,0,0,0,0,0,0,0,0,0,0,0,0,0,0,0,0,0,0,0,0,0,0,0,0,0,0,0,0,0,0,0,0,0,0,0,0,0,0,0,0,0,0,0,0,0,0,0],"sum_hessian":[2.25E2,2.1E2,1.5E1,1.82E2,2.8E1,1.2E1,3E0,1.68E2,1.4E1,2.2E1,6E0,1E1,2E0,1.2E2,4.8E1,1.1E1,3E0,4E0,1.8E1,3E0,3E0,9E0,1E0,1.08E2,1.2E1,8E0,4E1,9E0,2E0,2E0,2E0,1E1,8E0,5E0,4E0,9.9E1,9E0,3E0,9E0,4E0,4E0,8E0,3.2E1,1E0,1E0,8E0,2E0,2E0,3E0,3E0,1E0],"tree_param":{"num_deleted":"0","num_feature":"8","num_nodes":"51","size_leaf_vector":"0"}},{"base_weights":[5.498377E1,4.3689148E1,2.0049512E2,2.182809E1,6.820036E1,1.3810782E2,5.6815234E2,2.1014016E0,7.8895004E1,1.3288206E2,4.0820503E1,5.215595E1,4.6452994E2,1.904048E1,-9.317969E1,1.4012296E2,-7.273633E1,7.332738E1,1.706073E2,5.439362E0,9.1874596E1,8.800912E1,-1.8904102E2,-3.2204178E1,2.9649334E1,-1.1671094E1,-1.2810895E2,6.586914E1,2.792207E2,-2.287371E2,9.781172E1,3.5733257E1,1.0044615E2,1.8685143E2,3.251758E1,5.7714844E1,-4.7083363E1,5.6257626E1,1.6477257E2,1.0637773E2,-2.5559895E0,1.1141797E1,-5.270703E1,-5.3644253E1,3.9711258E1,-1.4638997E2,1.2693815E2,-4.1746876E1,-1.8884921E2,3.7441406E1,1.1523633E2,4.7821924E2,1.0416992E1,-3.0277393E2,3.370508E1,5.290625E1,-3.3652344E1,1.01171875E1,1.1381478E2,3.7841145E1,2.0686523E2,5.129883E1,-2.522461E0,7.787829E-1,3.1373242E2,-8.99336E0,-7.2761566E1,2.5372242E1,1.500164E2,8.018359E1,2.1640703E2,3.167513E1,1.21093994E2,-6.275E1,5.8916016E1],"categories":[],"categories_nodes":[],"categories_segments":[],"categories_sizes":[],"default_left":[1,1,1,1,1,1,0,1,1,1,1,1,0,1,1,1,1,1,1,1,1,1,0,1,1,1,1,1,1,1,0,1,1,1,1,1,1,1,1,1,1,0,0,0,0,0,0,0,0,0,0,0,0,0,0,0,0,0,0,0,0,0,0,0,0,0,0,0,0,0,0,0,0,0,0],"id":19,"left_children":[1,3,5,7,9,11,-1,13,15,17,19,21,-1,23,25,27,29,31,33,35,37,39,-1,41,43,45,47,49,51,53,-1,55,57,59,61,63,65,67,69,71,73,-1,-1,-1,-1,-1,-1,-1,-1,-1,-1,-1,-1,-1,-1,-1,-1,-1,-1,-1,-1,-1,-1,-1,-1,-1,-1,-1,-1,-1,-1,-1,-1,-1,-1],"loss_changes":[3.6267062E5,1.1157375E5,2.8852806E5,1.2704295E5,1.6990228E5,3.9662084E5,0E0,1.3896197E5,2.7943022E5,5.2644562E4,1.2775125E5,1.2905709E5,0E0,4.0641062E4,3.551628E4,1.9850722E5,2.6182384E5,9.66432E3,3.2057531E4,1.2078039E5,6.602605E4,2.0234578E4,0E0,1.214056E4,5.3253992E4,1.1194888E5,3.9327047E4,1.6736348E4,3.6945925E5,1.0735692E5,0E0,1.0121328E4,7.3015312E3,3.6905938E4,2.1036865E3,3.204416E5,2.0863453E4,5.700504E4,2.1957062E4,7.1577656E3,1.4797719E4,0E0,0E0,0E0,0E0,0E0,0E0,0E0,0E0,0E0,0E0,0E0,0E0,0E0,0E0,0E0,0E0,0E0,0E0,0E0,0E0,0E0,0E0,0E0,0E0,0E0,0E0,0E0,0E0,0E0,0E0,0E0,0E0,0E0,0E0],"parents":[2147483647,0,0,1,1,2,2,3,3,4,4,5,5,7,7,8,8,9,9,10,10,11,11,13,13,14,14,15,15,16,16,17,17,18,18,19,19,20,20,21,21,23,23,24,24,25,25,26,26,27,27,28,28,29,29,31,31,32,32,33,33,34,34,35,35,36,36,37,37,38,38,39,39,40,40],"right_children":[2,4,6,8,10,12,-1,14,16,18,20,22,-1,24,26,28,30,32,34,36,38,40,-1,42,44,46,48,50,52,54,-1,56,58,60,62,64,66,68,70,72,74,-1,-1,-1,-1,-1,-1,-1,-1,-1,-1,-1,-1,-1,-1,-1,-1,-1,-1,-1,-1,-1,-1,-1,-1,-1,-1,-1,-1,-1,-1,-1,-1,-1,-1],"split_conditions":[1.41E2,5.25E1,4.5E2,7.5E0,6.75E1,1.25E2,1.7044571E2,6.5E0,8.35E1,6E1,1.25E2,8.75E1,1.39359E2,3.75E1,3.75E1,6.75E1,4.1E1,6E1,7E0,6.75E1,8.35E1,6.75E1,-5.6712307E1,6E0,5.5E0,6.25E1,6.25E1,5E1,4.1E1,1.16E2,2.9343517E1,5E1,3.25E1,5.5E0,6E1,6E1,8.35E1,6.5E0,1.7E2,3.45E1,7.25E1,3.3425393E0,-1.581211E1,-1.6093277E1,1.1913378E1,-4.3916992E1,3.8081448E1,-1.2524063E1,-5.6654766E1,1.1232422E1,3.45709E1,1.4346577E2,3.1250978E0,-9.0832184E1,1.0111524E1,1.5871876E1,-1.0095703E1,3.0351565E0,3.4144436E1,1.1352344E1,6.2059574E1,1.5389649E1,-7.567383E-1,2.3363487E-1,9.411973E1,-2.698008E0,-2.182847E1,7.611673E0,4.500492E1,2.4055079E1,6.492211E1,9.50254E0,3.63282E1,-1.8825E1,1.7674805E1],"split_indices":[0,5,7,6,5,5,0,2,0,0,5,5,0,0,5,0,5,5,2,0,0,5,0,6,2,0,0,0,5,0,0,0,0,2,5,0,0,2,5,5,5,0,0,0,0,0,0,0,0,0,0,0,0,0,0,0,0,0,0,0,0,0,0,0,0,0,0,0,0,0,0,0,0,0,0],"split_type":[0,0,0,0,0,0,0,0,0,0,0,0,0,0,0,0,0,0,0,0,0,0,0,0,0,0,0,0,0,0,0,0,0,0,0,0,0,0,0,0,0,0,0,0,0,0,0,0,0,0,0,0,0,0,0,0,0,0,0,0,0,0,0,0,0,0,0,0,0,0,0,0,0,0,0],"sum_hessian":[2.25E2,2.1E2,1.5E1,1.12E2,9.8E1,1.4E1,1E0,8.4E1,2.8E1,2.8E1,7E1,1.2E1,2E0,7.2E1,1.2E1,2E1,8E0,1.2E1,1.6E1,4.2E1,2.8E1,1.1E1,1E0,1.2E1,6E1,4E0,8E0,1.4E1,6E0,4E0,4E0,6E0,6E0,1.4E1,2E0,2.1E1,2.1E1,2E1,8E0,9E0,2E0,4E0,8E0,6E0,5.4E1,2E0,2E0,4E0,4E0,1E1,4E0,3E0,3E0,3E0,1E0,5E0,1E0,1E0,5E0,2E0,1.2E1,1E0,1E0,1.8E1,3E0,9E0,1.2E1,1.6E1,4E0,4E0,4E0,2E0,7E0,1E0,1E0],"tree_param":{"num_deleted":"0","num_feature":"8","num_nodes":"75","size_leaf_vector":"0"}},{"base_weights":[4.1539467E1,2.3761751E1,1.1058789E2,3.459653E1,-2.978062E1,8.2407616E1,3.858789E2,2.4086039E1,1.2177344E2,-7.6439064E1,1.4111105E2,4.6008236E1,2.630318E2,6.777539E1,4.6932162E2,-1.9647522E0,4.6595142E1,3.0049316E2,5.7415565E1,2.3669792E2,-1.1395958E2,7.54541E0,2.3939893E2,6.9205894E1,-6.3296875E1,3.9401043E1,3.446039E2,-4.4472446E1,5.42763E1,1.4702364E2,3.017514E1,8.471484E1,3.44181E2,-1.3979631E1,1.20608536E2,3.2929297E2,2.5753906E1,-5.0903452E2,-5.209366E1,-1.2810547E1,3.430664E1,-1.7909319E1,9.0829926E1,-3.1191895E1,-7.957764E1,-1.6191406E0,6.0720703E1,7.271635E-2,-6.585703E1,1.01013054E2,-1.00364395E2,-3.6653645E1,3.3803165E2,8.119203E1,-9.247783E0,-3.1566015E1,1.9990885E1,3.0816406E2,3.7988605E1,-2.1677226E2,-5.944393E-1,-2.128711E1,2.071289E0,-4.0277344E1,2.5340494E1,2.3449951E2,6.0579544E1,-1.8683301E2,8.296615E1,1.4622559E2,-2.0358723E2],"categories":[],"categories_nodes":[],"categories_segments":[],"categories_sizes":[],"default_left":[1,1,1,1,1,1,1,1,1,1,1,1,1,0,0,1,1,1,1,1,1,1,0,1,1,1,0,1,1,1,1,0,0,1,1,0,0,0,1,1,0,1,1,1,1,0,0,0,0,0,0,0,0,0,0,0,0,0,0,0,0,0,0,0,0,0,0,0,0,0,0],"id":20,"left_children":[1,3,5,7,9,11,13,15,17,19,21,23,25,-1,-1,27,29,31,33,35,37,39,-1,41,43,45,-1,47,49,51,53,-1,-1,55,57,-1,-1,-1,59,61,-1,63,65,67,69,-1,-1,-1,-1,-1,-1,-1,-1,-1,-1,-1,-1,-1,-1,-1,-1,-1,-1,-1,-1,-1,-1,-1,-1,-1,-1],"loss_changes":[2.7479253E5,1.0603198E5,3.2505838E5,1.354241E5,2.5796612E5,2.706065E5,7.436519E4,7.983923E4,1.6677936E5,3.207005E5,9.008881E4,9.819856E4,1.1411647E5,0E0,0E0,1.5541714E5,1.1594314E5,8.5503125E3,6.0337836E4,5.0116547E4,5.356411E5,2.6184885E3,0E0,6.002392E4,1.1766777E3,2.7219248E3,0E0,3.5250242E4,2.1250544E5,3.632284E5,1.2946991E5,0E0,0E0,4.812963E3,9.676405E4,0E0,0E0,0E0,1.7796834E5,4.2253223E2,0E0,7.792538E3,9.444561E4,8.657156E4,1.4177672E5,0E0,0E0,0E0,0E0,0E0,0E0,0E0,0E0,0E0,0E0,0E0,0E0,0E0,0E0,0E0,0E0,0E0,0E0,0E0,0E0,0E0,0E0,0E0,0E0,0E0,0E0],"parents":[2147483647,0,0,1,1,2,2,3,3,4,4,5,5,6,6,7,7,8,8,9,9,10,10,11,11,12,12,15,15,16,16,17,17,18,18,19,19,20,20,21,21,23,23,24,24,25,25,27,27,28,28,29,29,30,30,33,33,34,34,38,38,39,39,41,41,42,42,43,43,44,44],"right_children":[2,4,6,8,10,12,14,16,18,20,22,24,26,-1,-1,28,30,32,34,36,38,40,-1,42,44,46,-1,48,50,52,54,-1,-1,56,58,-1,-1,-1,60,62,-1,64,66,68,70,-1,-1,-1,-1,-1,-1,-1,-1,-1,-1,-1,-1,-1,-1,-1,-1,-1,-1,-1,-1,-1,-1,-1,-1,-1,-1],"split_conditions":[9.85E1,8.35E1,4.5E2,7.65E1,8.5E0,1.25E2,1.16E2,7.5E0,3.75E1,2.25E2,9.3E1,7.25E1,1.16E2,2.0332619E1,1.407965E2,4.95E1,3.25E2,2.45E1,6E1,9.3E1,3.25E2,1.45E2,7.181968E1,3.45E1,8.75E1,1.7E2,1.0338118E2,4.2E1,6.75E1,5E1,6.25E1,2.5414454E1,1.032543E2,7.5E0,3.25E2,9.8787895E1,7.726172E0,-1.5271036E2,3.45E1,7.75E1,1.0291992E1,1.41E2,3.75E1,1.16E2,1.16E2,-4.857422E-1,1.8216211E1,2.1814905E-2,-1.975711E1,3.0303917E1,-3.010932E1,-1.0996094E1,1.014095E2,2.435761E1,-2.774335E0,-9.469805E0,5.997266E0,9.244922E1,1.1396582E1,-6.5031685E1,-1.783318E-1,-6.386133E0,6.2138677E-1,-1.2083203E1,7.6021485E0,7.034985E1,1.8173864E1,-5.6049904E1,2.4889845E1,4.3867676E1,-6.107617E1],"split_indices":[0,0,7,0,6,5,0,6,5,7,0,5,0,0,0,5,7,5,5,0,7,5,0,5,5,5,0,0,0,0,5,0,0,6,7,0,0,0,5,5,0,0,5,0,0,0,0,0,0,0,0,0,0,0,0,0,0,0,0,0,0,0,0,0,0,0,0,0,0,0,0],"split_type":[0,0,0,0,0,0,0,0,0,0,0,0,0,0,0,0,0,0,0,0,0,0,0,0,0,0,0,0,0,0,0,0,0,0,0,0,0,0,0,0,0,0,0,0,0,0,0,0,0,0,0,0,0,0,0,0,0,0,0,0,0,0,0,0,0,0,0,0,0,0,0],"sum_hessian":[2.25E2,1.8E2,4.5E1,1.5E2,3E1,4.2E1,3E0,1.35E2,1.5E1,2.4E1,6E0,3.6E1,6E0,1E0,2E0,6.3E1,7.2E1,3E0,1.2E1,2E0,2.2E1,3E0,3E0,3E1,6E0,2E0,4E0,3.6E1,2.7E1,9E0,6.3E1,1E0,2E0,6E0,6E0,1E0,1E0,2E0,2E1,2E0,1E0,6E0,2.4E1,3E0,3E0,1E0,1E0,1.2E1,2.4E1,2.1E1,6E0,5E0,4E0,2.7E1,3.6E1,4E0,2E0,1E0,5E0,4E0,1.6E1,1E0,1E0,4E0,2E0,3E0,2.1E1,1E0,2E0,1E0,2E0],"tree_param":{"num_deleted":"0","num_feature":"8","num_nodes":"71","size_leaf_vector":"0"}},{"base_weights":[3.17515E1,1.8215496E1,8.432248E1,2.6346434E1,-2.1977634E1,6.133126E1,3.1039746E2,1.7539745E1,9.955664E1,-5.9843674E1,1.1639788E2,3.981431E1,2.6116797E2,5.7609375E1,3.7545703E2,-5.0152443E1,2.273173E1,2.425127E2,4.791196E1,-1.1930877E1,-4.072272E2,5.0384277E1,1.5331201E2,4.9529667E1,-6.0006348E1,5.161328E1,3.138151E2,7.7645996E1,-1.9348007E2,1.1195762E2,1.4977572E1,7.200781E1,2.7534506E2,-1.028125E1,9.9260605E1,2.0119336E2,-4.180906E1,1.7607422E0,6.600521E1,-1.0878906E1,2.1166862E2,-1.3176061E1,6.2091293E1,1.2429199E2,-1.628698E2,-4.9865234E1,1.1312129E2,-2.6238803E2,-6.0078777E1,-2.7490234E1,2.569035E2,2.4618355E1,-1.8427229E1,-4.8953125E1,4.3229165E0,2.6193945E2,2.8490885E1,2.798994E2,2.1890625E1,-1.6474727E2,-3.1914062E0,-3.0610157E1,2.0272787E1,1.817373E2,4.278146E1],"categories":[],"categories_nodes":[],"categories_segments":[],"categories_sizes":[],"default_left":[1,1,1,1,1,1,1,1,1,1,1,1,1,0,0,1,1,1,1,1,0,1,1,1,1,0,0,1,1,1,1,0,0,1,1,1,1,0,0,0,0,1,1,0,0,0,0,0,0,0,0,0,0,0,0,0,0,0,0,0,0,0,0,0,0],"id":21,"left_children":[1,3,5,7,9,11,13,15,17,19,21,23,25,-1,-1,27,29,31,33,35,-1,37,39,41,43,-1,-1,45,47,49,51,-1,-1,53,55,57,59,-1,-1,-1,-1,61,63,-1,-1,-1,-1,-1,-1,-1,-1,-1,-1,-1,-1,-1,-1,-1,-1,-1,-1,-1,-1,-1,-1],"loss_changes":[1.5928586E5,5.9731254E4,2.2005897E5,9.560947E4,1.693974E5,1.744965E5,4.4155312E4,4.8938176E4,1.0650745E5,4.1124434E5,9.333328E3,4.1763836E4,2.7932781E4,0E0,0E0,1.9819344E5,8.619084E4,2.5653125E3,3.9866375E4,1.548703E5,0E0,2.921961E3,4.0629227E4,2.9962492E4,9.6073664E4,0E0,0E0,3.2781816E4,3.0198094E4,2.0918627E5,3.845536E4,0E0,0E0,4.1650137E3,7.3126266E4,3.620946E4,9.917351E4,0E0,0E0,0E0,0E0,4.702606E3,6.3845703E4,0E0,0E0,0E0,0E0,0E0,0E0,0E0,0E0,0E0,0E0,0E0,0E0,0E0,0E0,0E0,0E0,0E0,0E0,0E0,0E0,0E0,0E0],"parents":[2147483647,0,0,1,1,2,2,3,3,4,4,5,5,6,6,7,7,8,8,9,9,10,10,11,11,12,12,15,15,16,16,17,17,18,18,19,19,21,21,22,22,23,23,24,24,27,27,28,28,29,29,30,30,33,33,34,34,35,35,36,36,41,41,42,42],"right_children":[2,4,6,8,10,12,14,16,18,20,22,24,26,-1,-1,28,30,32,34,36,-1,38,40,42,44,-1,-1,46,48,50,52,-1,-1,54,56,58,60,-1,-1,-1,-1,62,64,-1,-1,-1,-1,-1,-1,-1,-1,-1,-1,-1,-1,-1,-1,-1,-1,-1,-1,-1,-1,-1,-1],"split_conditions":[9.85E1,8.35E1,4.5E2,7.65E1,8.75E1,1.7E2,1.16E2,2.25E2,3.75E1,7.25E1,9.3E1,8.5E0,1.16E2,1.7282814E1,1.12637115E2,5E1,3.25E2,2.45E1,6E1,2.5E2,-1.2216817E2,1.25E2,8.5E0,3.45E1,1.16E2,1.5483985E1,9.414453E1,3.25E1,6.75E1,5E1,6.75E1,2.1602345E1,8.260352E1,4.4E1,3.25E2,9.3E1,3.45E1,5.282227E-1,1.9801563E1,-3.263672E0,6.350059E1,1.41E2,3.75E1,3.7287598E1,-4.8860943E1,-1.4959571E1,3.393639E1,-7.8716415E1,-1.8023634E1,-8.24707E0,7.707105E1,7.3855066E0,-5.5281687E0,-1.4685938E1,1.296875E0,7.858184E1,8.547266E0,8.3969826E1,6.567188E0,-4.9424183E1,-9.574219E-1,-9.183047E0,6.081836E0,5.4521194E1,1.2834438E1],"split_indices":[0,0,7,0,5,5,0,7,5,5,0,6,0,0,0,0,7,5,5,7,0,5,6,5,0,0,0,0,0,0,0,0,0,5,7,0,5,0,0,0,0,0,5,0,0,0,0,0,0,0,0,0,0,0,0,0,0,0,0,0,0,0,0,0,0],"split_type":[0,0,0,0,0,0,0,0,0,0,0,0,0,0,0,0,0,0,0,0,0,0,0,0,0,0,0,0,0,0,0,0,0,0,0,0,0,0,0,0,0,0,0,0,0,0,0,0,0,0,0,0,0,0,0,0,0,0,0,0,0,0,0,0,0],"sum_hessian":[2.25E2,1.8E2,4.5E1,1.5E2,3E1,4.2E1,3E0,1.35E2,1.5E1,2.4E1,6E0,3.9E1,3E0,1E0,2E0,9E0,1.26E2,3E0,1.2E1,2.2E1,2E0,3E0,3E0,3.6E1,3E0,1E0,2E0,5E0,4E0,9E0,1.17E2,1E0,2E0,6E0,6E0,2E0,2E1,1E0,2E0,1E0,2E0,6E0,3E1,1E0,2E0,1E0,4E0,2E0,2E0,5E0,4E0,9.1E1,2.6E1,1E0,5E0,1E0,5E0,1E0,1E0,4E0,1.6E1,4E0,2E0,3E0,2.7E1],"tree_param":{"num_deleted":"0","num_feature":"8","num_nodes":"65","size_leaf_vector":"0"}},{"base_weights":[2.4268831E1,1.8036564E1,1.0494006E2,1.4434902E1,6.413594E1,6.444102E1,3.562129E2,-2.060478E0,2.6715189E1,4.7904297E1,9.6796875E1,1.2730018E1,2.6704166E2,-5.6560753E1,1.3425577E1,8.948211E1,8.783861E0,2.9117188E1,9.45599E1,4.521836E1,-7.167334E1,-1.4698467E1,-1.2622489E2,-2.7325602E1,2.191823E1,1.5189026E2,-1.9319141E1,1.6127507E2,-1.4788938E1,4.9887695E1,1.3088728E1,1.3351953E2,8.3203125E0,6.636881E1,1.0794141E1,3.121582E1,-1.16375E2,1.0312145E1,-1.01504555E2,-1.3849707E2,-2.6295898E1,-4.735205E1,-6.2564173E0,3.1400114E1,-1.9725853E1,-7.276221E1,2.0933023E2,-1.00590126E2,1.2773486E2,-2.0319238E2,2.1288051E2,-8.425111E1,1.4004255E1,5.7558594E0,6.2679688E1,-8.280273E0,3.1185547E1,1.2526042E1,9.015869E1,-3.403369E1,9.5052734E1],"categories":[],"categories_nodes":[],"categories_segments":[],"categories_sizes":[],"default_left":[1,1,1,1,1,1,0,1,1,1,0,1,0,1,1,1,1,1,1,1,1,1,1,1,1,1,1,1,1,1,1,0,0,1,1,0,0,0,0,0,0,0,0,0,0,0,0,0,0,0,0,0,0,0,0,0,0,0,0,0,0],"id":22,"left_children":[1,3,5,7,9,11,-1,13,15,17,-1,19,-1,21,23,25,27,29,31,33,35,37,39,41,43,45,47,49,51,53,55,-1,-1,57,59,-1,-1,-1,-1,-1,-1,-1,-1,-1,-1,-1,-1,-1,-1,-1,-1,-1,-1,-1,-1,-1,-1,-1,-1,-1,-1],"loss_changes":[1.1173208E5,3.4107445E4,1.3986623E5,3.996094E4,3.315121E3,1.5375077E5,0E0,7.2498875E4,1.2639486E5,7.7649688E3,0E0,3.888858E4,0E0,5.3554383E4,2.3786666E4,1.7268648E5,3.2230844E5,2.6762256E3,8.968666E3,6.5644844E3,2.2030006E4,2.9270686E4,4.9425234E3,4.767037E3,2.2731803E4,2.2169584E5,1.323611E5,2.6895775E5,1.571828E5,1.8973604E3,2.9652017E3,0E0,0E0,6.5561504E3,2.2120645E4,0E0,0E0,0E0,0E0,0E0,0E0,0E0,0E0,0E0,0E0,0E0,0E0,0E0,0E0,0E0,0E0,0E0,0E0,0E0,0E0,0E0,0E0,0E0,0E0,0E0,0E0],"parents":[2147483647,0,0,1,1,2,2,3,3,4,4,5,5,7,7,8,8,9,9,11,11,13,13,14,14,15,15,16,16,17,17,18,18,19,19,20,20,21,21,22,22,23,23,24,24,25,25,26,26,27,27,28,28,29,29,30,30,33,33,34,34],"right_children":[2,4,6,8,10,12,-1,14,16,18,-1,20,-1,22,24,26,28,30,32,34,36,38,40,42,44,46,48,50,52,54,56,-1,-1,58,60,-1,-1,-1,-1,-1,-1,-1,-1,-1,-1,-1,-1,-1,-1,-1,-1,-1,-1,-1,-1,-1,-1,-1,-1,-1,-1],"split_conditions":[1.41E2,1.7E2,4.5E2,6E1,9.3E1,1.25E2,1.0686387E2,3.75E1,3.75E1,6.5E0,2.9039064E1,6.75E1,8.01125E1,3.45E1,3.25E1,9.3E1,6.75E1,4.2E1,6.25E1,4.85E1,3.25E2,5E1,5E1,5.25E1,8.5E0,6.75E1,3.45E1,4.4E1,7.65E1,3.25E1,7E1,4.0055862E1,2.4960938E0,6E0,5.75E1,9.364746E0,-3.4912502E1,3.0936437E0,-3.0451368E1,-4.154912E1,-7.8887696E0,-1.4205616E1,-1.8769252E0,9.420034E0,-5.917756E0,-2.1828663E1,6.2799072E1,-3.0177038E1,3.832046E1,-6.0957718E1,6.3864155E1,-2.5275333E1,4.201277E0,1.7267579E0,1.8803907E1,-2.4840822E0,9.355664E0,3.7578127E0,2.704761E1,-1.0210108E1,2.8515821E1],"split_indices":[0,5,7,0,0,5,0,5,5,2,0,5,0,5,0,0,0,0,0,5,7,0,0,5,6,0,5,5,0,0,0,0,0,6,5,0,0,0,0,0,0,0,0,0,0,0,0,0,0,0,0,0,0,0,0,0,0,0,0,0,0],"split_type":[0,0,0,0,0,0,0,0,0,0,0,0,0,0,0,0,0,0,0,0,0,0,0,0,0,0,0,0,0,0,0,0,0,0,0,0,0,0,0,0,0,0,0,0,0,0,0,0,0,0,0,0,0,0,0,0,0,0,0,0,0],"sum_hessian":[2.25E2,2.1E2,1.5E1,1.96E2,1.4E1,1.4E1,1E0,8.4E1,1.12E2,1.1E1,3E0,1.2E1,2E0,1.8E1,6.6E1,2.4E1,8.8E1,9E0,2E0,9E0,3E0,1.2E1,6E0,1.1E1,5.5E1,1.5E1,9E0,1.1E1,7.7E1,3E0,6E0,1E0,1E0,5E0,4E0,1E0,2E0,1E1,2E0,5E0,1E0,5E0,6E0,4.5E1,1E1,3E0,1.2E1,6E0,3E0,1E0,1E1,2.2E1,5.5E1,1E0,2E0,3E0,3E0,2E0,3E0,3E0,1E0],"tree_param":{"num_deleted":"0","num_feature":"8","num_nodes":"61","size_leaf_vector":"0"}},{"base_weights":[1.8099247E1,8.191341E0,5.6691235E1,1.4954871E1,-2.501783E1,4.009375E1,2.209414E2,8.890969E0,6.5563354E1,1.6821355E2,-4.41446E1,2.5533106E1,1.7567676E2,4.6867188E1,2.6334375E2,-5.846283E0,2.1689507E1,1.4871143E2,3.4935997E1,2.3581348E2,1.6506836E1,-3.2858267E2,-1.0905382E1,5.226831E1,7.40125E0,2.9351562E1,2.1466797E2,-1.9031002E1,6.7254295E1,8.565918E1,1.1355347E1,2.9807617E1,1.7841016E2,-1.27109375E1,7.759208E1,-8.148021E1,7.136598E1,3.1777344E0,8.1404884E1,1.0374072E2,-1.0451438E1,-8.024164E0,-5.3974308E1,-5.9303384E0,8.629175E1,1.6832275E1,2.4064453E2,7.93998E1,-1.2228338E0,-4.3710938E1,-2.591146E-1,2.2054785E2,1.7008139E1,-2.0705078E1,-1.4797963E2,2.2396763E1,1.1014007E2,-6.051432E0,8.079687E0,1.4405762E1,1.0806083E2,-2.4641756E1,5.956543E1],"categories":[],"categories_nodes":[],"categories_segments":[],"categories_sizes":[],"default_left":[1,1,1,1,1,1,1,1,1,1,1,1,1,0,0,1,1,1,1,0,0,0,1,1,1,0,0,1,1,1,1,0,0,1,1,1,1,1,1,0,1,0,0,0,0,0,0,0,0,0,0,0,0,0,0,0,0,0,0,0,0,0,0],"id":23,"left_children":[1,3,5,7,9,11,13,15,17,19,21,23,25,-1,-1,27,29,31,33,-1,-1,-1,35,37,39,-1,-1,41,43,45,47,-1,-1,49,51,53,55,57,59,-1,61,-1,-1,-1,-1,-1,-1,-1,-1,-1,-1,-1,-1,-1,-1,-1,-1,-1,-1,-1,-1,-1,-1],"loss_changes":[8.595029E4,4.1028773E4,1.1654408E5,4.5756688E4,1.2199835E5,8.0404E4,1.7182438E4,2.577848E4,3.5550312E4,2.6873562E4,2.7059712E5,1.9003502E4,1.6520758E4,0E0,0E0,6.2963793E4,4.7285625E4,8.8071875E3,2.7407875E4,0E0,0E0,0E0,1.6258469E5,2.2626613E4,4.4082207E4,0E0,0E0,2.072074E4,1.444423E4,1.0262103E5,5.487312E4,0E0,0E0,2.6907192E3,5.6874664E4,5.7558727E4,2.221679E4,3.6558026E2,1.6302547E4,0E0,2.3326152E4,0E0,0E0,0E0,0E0,0E0,0E0,0E0,0E0,0E0,0E0,0E0,0E0,0E0,0E0,0E0,0E0,0E0,0E0,0E0,0E0,0E0,0E0],"parents":[2147483647,0,0,1,1,2,2,3,3,4,4,5,5,6,6,7,7,8,8,9,9,10,10,11,11,12,12,15,15,16,16,17,17,18,18,22,22,23,23,24,24,27,27,28,28,29,29,30,30,33,33,34,34,35,35,36,36,37,37,38,38,40,40],"right_children":[2,4,6,8,10,12,14,16,18,20,22,24,26,-1,-1,28,30,32,34,-1,-1,-1,36,38,40,-1,-1,42,44,46,48,-1,-1,50,52,54,56,58,60,-1,62,-1,-1,-1,-1,-1,-1,-1,-1,-1,-1,-1,-1,-1,-1,-1,-1,-1,-1,-1,-1,-1,-1],"split_conditions":[9.85E1,8.35E1,4.5E2,7.65E1,2.25E2,1.7E2,1.16E2,7.5E0,3.75E1,9.3E1,3.25E2,4.85E1,1.16E2,1.4060157E1,7.900313E1,5.75E1,4.1E1,2.45E1,6E1,7.074405E1,4.952051E0,-9.857481E1,5.25E1,3.45E1,6E0,8.8054695E0,6.440039E1,6.5E0,3.75E1,6.75E1,3.25E2,8.942286E0,5.352305E1,4.4E1,3.25E2,4.85E1,9.3E1,1.16E2,6E0,3.1122217E1,1.25E2,-2.4072495E0,-1.6192293E1,-1.7791016E0,2.5887526E1,5.0496826E0,7.219336E1,2.3819942E1,-3.6685014E-1,-1.3113282E1,-7.773438E-2,6.616436E1,5.102442E0,-6.2115235E0,-4.439389E1,6.719029E0,3.3042023E1,-1.8154297E0,2.4239063E0,4.3217287E0,3.241825E1,-7.392527E0,1.7869629E1],"split_indices":[0,0,7,0,7,5,0,6,5,0,7,5,0,0,0,5,5,5,5,0,0,0,5,5,6,0,0,2,0,0,7,0,0,5,7,5,0,0,6,0,5,0,0,0,0,0,0,0,0,0,0,0,0,0,0,0,0,0,0,0,0,0,0],"split_type":[0,0,0,0,0,0,0,0,0,0,0,0,0,0,0,0,0,0,0,0,0,0,0,0,0,0,0,0,0,0,0,0,0,0,0,0,0,0,0,0,0,0,0,0,0,0,0,0,0,0,0,0,0,0,0,0,0,0,0,0,0,0,0],"sum_hessian":[2.25E2,1.8E2,4.5E1,1.5E2,3E1,4.2E1,3E0,1.35E2,1.5E1,2E0,2.8E1,3.9E1,3E0,1E0,2E0,6.3E1,7.2E1,3E0,1.2E1,1E0,1E0,2E0,2.6E1,1.5E1,2.4E1,1E0,2E0,5.4E1,9E0,9E0,6.3E1,1E0,2E0,6E0,6E0,1.4E1,1.2E1,6E0,9E0,3E0,2.1E1,4.2E1,1.2E1,2E0,7E0,7E0,2E0,9E0,5.4E1,1E0,5E0,1E0,5E0,8E0,6E0,6E0,6E0,2E0,4E0,3E0,6E0,1.8E1,3E0],"tree_param":{"num_deleted":"0","num_feature":"8","num_nodes":"63","size_leaf_vector":"0"}},{"base_weights":[1.4608774E1,1.0126087E1,7.281116E1,5.5641093E0,6.537744E1,4.256133E1,2.632793E2,9.117096E0,-3.4976807E1,3.791685E1,1.7173438E2,3.438895E0,6.826085E1,-1.5965351E1,1.3053045E1,-7.385192E1,4.21237E1,2.4081055E1,8.062109E1,1.779069E1,-4.1335938E1,1.0707422E2,3.1008463E1,-2.8504768E1,9.494141E0,2.2155224E1,-1.6348937E0,-2.2993652E1,-1.5710547E2,1.4953516E2,-1.1513281E2,4.03291E1,1.4184028E1,1.1367578E2,7.2558594E0,2.7309082E1,-8.307292E-1,-2.3309896E1,6.3995117E1,8.603516E0,-4.058451E1,-3.25612E1,2.616155E1,1.1736424E1,7.0494484E1,-4.098008E1,2.4993877E1,9.575684E0,-4.445039E1,-3.9628906E0,2.0202214E2,5.076172E0,5.038802E1,-6.1416016E0,2.5370443E1,2.1269531E0,5.1427734E1,-1.8123047E1,1.6876953E1],"categories":[],"categories_nodes":[],"categories_segments":[],"categories_sizes":[],"default_left":[1,1,1,1,1,1,0,1,1,1,0,1,1,1,1,1,1,1,1,1,0,0,1,1,1,1,1,1,0,1,0,1,1,0,0,1,1,0,0,0,0,0,0,0,0,0,0,0,0,0,0,0,0,0,0,0,0,0,0],"id":24,"left_children":[1,3,5,7,9,11,-1,13,15,17,-1,19,21,23,25,27,29,31,33,35,-1,-1,37,39,41,43,45,47,-1,49,-1,51,53,-1,-1,55,57,-1,-1,-1,-1,-1,-1,-1,-1,-1,-1,-1,-1,-1,-1,-1,-1,-1,-1,-1,-1,-1,-1],"loss_changes":[5.8226805E4,5.2819938E4,8.098053E4,2.8550986E4,4.021835E4,1.4846672E4,0E0,1.8077305E4,5.106757E4,6.330422E3,0E0,5.233589E3,9.6928125E3,8.251807E3,2.10259E4,4.2963016E4,1.1856331E5,1.3576597E3,6.450379E3,1.0861622E3,0E0,0E0,1.2242406E4,7.9695635E3,7.160434E3,4.8025438E4,6.4934797E4,6.0162954E3,0E0,3.3027188E4,0E0,1.1626475E3,2.2021533E3,0E0,0E0,2.3200515E3,1.2244824E3,0E0,0E0,0E0,0E0,0E0,0E0,0E0,0E0,0E0,0E0,0E0,0E0,0E0,0E0,0E0,0E0,0E0,0E0,0E0,0E0,0E0,0E0],"parents":[2147483647,0,0,1,1,2,2,3,3,4,4,5,5,7,7,8,8,9,9,11,11,12,12,13,13,14,14,15,15,16,16,17,17,18,18,19,19,22,22,23,23,24,24,25,25,26,26,27,27,29,29,31,31,32,32,35,35,36,36],"right_children":[2,4,6,8,10,12,-1,14,16,18,-1,20,22,24,26,28,30,32,34,36,-1,-1,38,40,42,44,46,48,-1,50,-1,52,54,-1,-1,56,58,-1,-1,-1,-1,-1,-1,-1,-1,-1,-1,-1,-1,-1,-1,-1,-1,-1,-1,-1,-1,-1,-1],"split_conditions":[4.5E2,1.7E2,1.41E2,8.5E0,1.16E2,6E1,7.8983795E1,3.75E1,8.35E1,6.5E0,5.1520313E1,5E1,7.65E1,5.75E1,8.35E1,6.75E1,1.16E2,4.2E1,6.25E1,4.2E1,-1.2400782E1,3.212227E1,9.3E1,3.45E1,3.25E2,7.25E1,9.85E1,4.2E1,-4.713164E1,9.3E1,-3.4539845E1,3.25E1,7E1,3.4102737E1,2.1767578E0,3.75E1,4.45E1,-6.992969E0,1.9198536E1,2.5810547E0,-1.2175354E1,-9.76836E0,7.8484654E0,3.5209274E0,2.1148346E1,-1.2294024E1,7.4981637E0,2.8727052E0,-1.3335117E1,-1.1888672E0,6.0606644E1,1.5228516E0,1.5116406E1,-1.8424805E0,7.611133E0,6.3808596E-1,1.5428321E1,-5.4369144E0,5.063086E0],"split_indices":[7,5,0,6,0,0,0,0,0,2,0,0,0,5,0,0,0,0,0,0,0,0,0,5,7,5,0,0,0,0,0,0,0,0,0,0,0,0,0,0,0,0,0,0,0,0,0,0,0,0,0,0,0,0,0,0,0,0,0],"split_type":[0,0,0,0,0,0,0,0,0,0,0,0,0,0,0,0,0,0,0,0,0,0,0,0,0,0,0,0,0,0,0,0,0,0,0,0,0,0,0,0,0,0,0,0,0,0,0,0,0,0,0,0,0,0,0,0,0,0,0],"sum_hessian":[2.25E2,2.1E2,1.5E1,1.95E2,1.5E1,1.4E1,1E0,1.8E2,1.5E1,1.3E1,2E0,6E0,8E0,2.4E1,1.56E2,1E1,5E0,1.1E1,2E0,5E0,1E0,3E0,5E0,1.6E1,8E0,9.6E1,6E1,7E0,3E0,3E0,2E0,3E0,8E0,1E0,1E0,3E0,2E0,2E0,3E0,4E0,1.2E1,2E0,6E0,8E1,1.6E1,2.4E1,3.6E1,3E0,4E0,1E0,2E0,1E0,2E0,3E0,5E0,2E0,1E0,1E0,1E0],"tree_param":{"num_deleted":"0","num_feature":"8","num_nodes":"59","size_leaf_vector":"0"}},{"base_weights":[1.1166128E1,7.3254404E0,6.111731E1,3.6457052E0,3.0293238E1,3.5353516E1,2.2378711E2,9.560836E-1,3.370573E1,-4.7141337E0,4.896628E1,2.3610277E0,1.6653645E2,4.5831223E0,-2.0118984E1,2.3076923E1,6.852865E1,-2.3711264E1,1.5068685E1,7.451367E1,3.718607E1,2.1520899E1,-4.6128906E1,2.725264E1,-3.1540818E0,-3.3522842E1,8.935026E1,1.658274E1,3.9196613E1,9.6625E1,6.1679688E0,2.3132324E1,-7.057292E-1,2.6016275E1,9.817318E1,1.78444E1,5.674163E1,1.0248915E1,6.1484375E1,2.6480469E1,-7.915885E1,3.625879E1,-5.6112793E1,7.650819E0,-2.4386614E1,3.9095703E1,-6.1452667E1,1.4802734E2,-1.4001953E1,3.238965E1,6.6064453E0,1.7011719E0,4.371289E1,-1.5404297E1,1.4345703E1,7.415918E1,-3.5134766E1,2.089481E1,4.778646E0,6.647813E1,2.160026E1,3.3009766E1,-2.645459E1],"categories":[],"categories_nodes":[],"categories_segments":[],"categories_sizes":[],"default_left":[1,1,1,1,1,1,0,1,1,1,1,1,0,1,1,1,1,0,1,1,1,1,1,1,1,1,1,1,0,0,0,1,1,1,0,1,1,1,0,0,0,0,0,0,0,0,0,0,0,0,0,0,0,0,0,0,0,0,0,0,0,0,0],"id":25,"left_children":[1,3,5,7,9,11,-1,13,15,17,19,21,-1,23,25,27,29,-1,31,33,35,37,39,41,43,45,47,49,-1,-1,-1,51,53,55,-1,57,59,61,-1,-1,-1,-1,-1,-1,-1,-1,-1,-1,-1,-1,-1,-1,-1,-1,-1,-1,-1,-1,-1,-1,-1,-1,-1],"loss_changes":[4.290968E4,1.7722312E4,5.91442E4,1.4763342E4,1.9187963E4,6.4527582E4,0E0,1.3010582E4,3.970461E3,4.4912817E3,2.947254E3,1.3070526E4,0E0,2.5518766E4,3.967803E4,7.1090674E2,4.660343E3,0E0,7.7952026E2,3.1830215E3,4.661035E3,3.8745288E3,1.1689299E4,2.981424E4,2.5192855E4,4.9051664E4,2.026589E4,1.5206582E3,0E0,0E0,0E0,1.6898977E3,8.8468896E2,1.1437531E4,0E0,2.588545E2,9.591328E2,8.391887E3,0E0,0E0,0E0,0E0,0E0,0E0,0E0,0E0,0E0,0E0,0E0,0E0,0E0,0E0,0E0,0E0,0E0,0E0,0E0,0E0,0E0,0E0,0E0,0E0,0E0],"parents":[2147483647,0,0,1,1,2,2,3,3,4,4,5,5,7,7,8,8,9,9,10,10,11,11,13,13,14,14,15,15,16,16,18,18,19,19,20,20,21,21,22,22,23,23,24,24,25,25,26,26,27,27,31,31,32,32,33,33,35,35,36,36,37,37],"right_children":[2,4,6,8,10,12,-1,14,16,18,20,22,-1,24,26,28,30,-1,32,34,36,38,40,42,44,46,48,50,-1,-1,-1,52,54,56,-1,58,60,62,-1,-1,-1,-1,-1,-1,-1,-1,-1,-1,-1,-1,-1,-1,-1,-1,-1,-1,-1,-1,-1,-1,-1,-1,-1],"split_conditions":[1.41E2,3.75E2,4.5E2,1.7E2,5E1,1.25E2,6.713614E1,6.5E0,6.5E0,5.15E1,6.75E1,6.75E1,4.9960938E1,6E0,1.25E2,9.85E1,6.25E1,-7.1133795E0,4.2E1,6E1,9.3E1,5.75E1,3.25E2,1.16E2,8.35E1,3.75E1,6.25E1,4.2E1,1.1758985E1,2.8987501E1,1.8503907E0,3.75E1,4.45E1,5.15E1,2.9451956E1,8.35E1,1.16E2,4.85E1,1.8445312E1,7.944141E0,-2.3747656E1,1.0877637E1,-1.683384E1,2.2952456E0,-7.3159842E0,1.1728711E1,-1.84358E1,4.4408203E1,-4.2005863E0,9.716895E0,1.9819337E0,5.103516E-1,1.3113868E1,-4.6212893E0,4.303711E0,2.2247755E1,-1.054043E1,6.268443E0,1.4335939E0,1.994344E1,6.480078E0,9.90293E0,-7.936377E0],"split_indices":[0,7,7,5,0,5,0,2,2,5,0,5,0,6,5,0,0,0,0,0,0,5,7,0,0,5,0,0,0,0,0,0,0,5,0,0,0,5,0,0,0,0,0,0,0,0,0,0,0,0,0,0,0,0,0,0,0,0,0,0,0,0,0],"split_type":[0,0,0,0,0,0,0,0,0,0,0,0,0,0,0,0,0,0,0,0,0,0,0,0,0,0,0,0,0,0,0,0,0,0,0,0,0,0,0,0,0,0,0,0,0,0,0,0,0,0,0,0,0,0,0,0,0,0,0,0,0,0,0],"sum_hessian":[2.25E2,2.1E2,1.5E1,1.82E2,2.8E1,1.4E1,1E0,1.68E2,1.4E1,1E1,1.8E1,1.2E1,2E0,1.44E2,2.4E1,1.2E1,2E0,5E0,5E0,4E0,1.4E1,9E0,3E0,3.6E1,1.08E2,2.2E1,2E0,1E1,2E0,1E0,1E0,3E0,2E0,2E0,2E0,8E0,6E0,8E0,1E0,1E0,2E0,3.3E1,3E0,7.2E1,3.6E1,6E0,1.6E1,1E0,1E0,3E0,7E0,2E0,1E0,1E0,1E0,1E0,1E0,6E0,2E0,4E0,2E0,5E0,3E0],"tree_param":{"num_deleted":"0","num_feature":"8","num_nodes":"63","size_leaf_vector":"0"}},{"base_weights":[9.05543E0,3.1150725E0,3.2232594E1,-6.729261E0,1.0143887E1,2.2835938E1,1.2518848E2,-3.980664E1,2.0570889E0,1.8735788E1,-1.1247354E1,1.5024219E1,9.524414E1,4.010547E1,1.9021875E2,-2.5474076E0,-1.014808E2,1.487357E1,-2.3063522E1,-1.2038444E2,3.0228542E1,1.4392708E2,-2.6912043E1,-2.1453962E1,2.2092545E1,3.1358072E1,1.4345117E2,1.7446428E1,-3.0029297E1,-6.393325E0,2.8740118E1,-3.7430786E1,1.90931E1,-1.8635872E2,-4.0807617E1,1.9289973E2,1.49822445E1,2.0115039E2,1.4740234E1,-2.4979231E2,-1.1508247E0,4.554199E0,-4.2098633E1,4.2868E1,1.0292629E1,1.2695312E0,3.859245E1,-5.2078777E1,2.029948E0,-1.496569E1,3.859961E1,7.453277E1,2.8063533E0,-6.748605E0,-5.5165234E1,-5.449219E-1,2.3129688E1,-1.0711914E1,-4.726888E1,2.2962646E2,7.963086E1,3.9442894E1,-3.9311665E1,-1.24876175E2,2.5796026E1,1.3919043E2,-8.672135E1,-1.6371973E2,5.3014973E1,-2.123698E0,1.3338232E2,3.7200138E1,-5.6524555E1],"categories":[],"categories_nodes":[],"categories_segments":[],"categories_sizes":[],"default_left":[1,1,1,1,1,1,1,1,1,1,1,1,1,0,0,1,0,1,1,1,1,1,1,1,1,0,0,1,1,1,1,1,1,0,1,1,1,0,0,0,1,1,1,1,1,0,0,0,0,0,0,0,0,0,0,0,0,0,0,0,0,0,0,0,0,0,0,0,0,0,0,0,0],"id":26,"left_children":[1,3,5,7,9,11,13,15,17,19,21,23,25,-1,-1,27,-1,29,31,33,35,37,39,41,43,-1,-1,45,47,49,51,53,55,-1,57,59,61,-1,-1,-1,63,65,67,69,71,-1,-1,-1,-1,-1,-1,-1,-1,-1,-1,-1,-1,-1,-1,-1,-1,-1,-1,-1,-1,-1,-1,-1,-1,-1,-1,-1,-1],"loss_changes":[3.1015418E4,1.2592373E4,3.732102E4,2.2169723E4,1.9692621E4,2.2891229E4,1.450307E4,3.6508395E4,1.9982467E4,1.25153516E5,7.922691E4,1.0787559E4,7.820676E3,0E0,0E0,6.568056E3,0E0,1.2274581E4,1.3433851E4,2.389529E4,1.731994E5,1.9212492E4,1.6622089E5,3.950235E3,7.893828E3,0E0,0E0,2.345545E3,3.640166E3,7.1344995E3,2.948023E4,8.333816E3,4.8822778E2,0E0,2.7148486E2,6.6746094E3,8.92028E4,0E0,0E0,0E0,9.323954E4,6.122677E4,5.495088E4,4.9151984E4,4.345405E4,0E0,0E0,0E0,0E0,0E0,0E0,0E0,0E0,0E0,0E0,0E0,0E0,0E0,0E0,0E0,0E0,0E0,0E0,0E0,0E0,0E0,0E0,0E0,0E0,0E0,0E0,0E0,0E0],"parents":[2147483647,0,0,1,1,2,2,3,3,4,4,5,5,6,6,7,7,8,8,9,9,10,10,11,11,12,12,15,15,17,17,18,18,19,19,20,20,21,21,22,22,23,23,24,24,27,27,28,28,29,29,30,30,31,31,32,32,34,34,35,35,36,36,40,40,41,41,42,42,43,43,44,44],"right_children":[2,4,6,8,10,12,14,16,18,20,22,24,26,-1,-1,28,-1,30,32,34,36,38,40,42,44,-1,-1,46,48,50,52,54,56,-1,58,60,62,-1,-1,-1,64,66,68,70,72,-1,-1,-1,-1,-1,-1,-1,-1,-1,-1,-1,-1,-1,-1,-1,-1,-1,-1,-1,-1,-1,-1,-1,-1,-1,-1,-1,-1],"split_conditions":[9.85E1,5E1,4.5E2,3.75E1,8.35E1,1.7E2,1.41E2,3.45E1,7.25E1,2.25E2,2.25E2,3.25E2,1.41E2,1.2031641E1,5.7065628E1,4.2E1,-3.044424E1,3.75E1,1.7E2,6.75E1,3.25E2,9.3E1,3.25E2,5.75E1,1.16E2,9.407422E0,4.3035355E1,3.75E1,2.45E1,6.75E1,4.2E1,3.75E1,3.25E1,-5.590762E1,7.25E1,6.5E0,6.75E1,6.034512E1,4.4220705E0,-7.49377E1,3.45E1,1.16E2,1.16E2,6.75E1,6.75E1,3.808594E-1,1.1577735E1,-1.5623633E1,6.089844E-1,-4.489707E0,1.1579884E1,2.235983E1,8.41906E-1,-2.0245814E0,-1.654957E1,-1.6347657E-1,6.9389067E0,-3.2135744E0,-1.4180664E1,6.888794E1,2.388926E1,1.1832869E1,-1.17935E1,-3.7462852E1,7.738808E0,4.175713E1,-2.6016407E1,-4.911592E1,1.5904492E1,-6.371094E-1,4.0014698E1,1.1160042E1,-1.6957367E1],"split_indices":[0,0,7,5,0,5,0,5,5,7,7,7,0,0,0,0,0,0,5,0,7,0,7,5,0,0,0,0,5,5,0,0,0,0,0,2,5,0,0,0,5,0,0,5,5,0,0,0,0,0,0,0,0,0,0,0,0,0,0,0,0,0,0,0,0,0,0,0,0,0,0,0,0],"split_type":[0,0,0,0,0,0,0,0,0,0,0,0,0,0,0,0,0,0,0,0,0,0,0,0,0,0,0,0,0,0,0,0,0,0,0,0,0,0,0,0,0,0,0,0,0,0,0,0,0,0,0,0,0,0,0,0,0,0,0,0,0,0,0,0,0,0,0,0,0,0,0,0,0],"sum_hessian":[2.25E2,1.8E2,4.5E1,7.5E1,1.05E2,4.2E1,3E0,1.5E1,6E1,7.5E1,3E1,3.9E1,3E0,2E0,1E0,1E1,5E0,4E1,2E1,5E0,7E1,2E0,2.8E1,6E0,3.3E1,2E0,1E0,6E0,4E0,1.6E1,2.4E1,1.5E1,5E0,2E0,3E0,5E0,6.5E1,1E0,1E0,2E0,2.6E1,3E0,3E0,1.1E1,2.2E1,4E0,2E0,2E0,2E0,1.4E1,2E0,8E0,1.6E1,6E0,9E0,1E0,4E0,1E0,2E0,3E0,2E0,4.5E1,2E1,4E0,2.2E1,1E0,2E0,1E0,2E0,8E0,3E0,1.6E1,6E0],"tree_param":{"num_deleted":"0","num_feature":"8","num_nodes":"73","size_leaf_vector":"0"}},{"base_weights":[6.791422E0,4.0618243E0,4.2363525E1,-2.5827864E1,6.3170705E0,2.3629688E1,1.6168555E2,-9.98753E0,-8.586002E1,2.8869074E1,2.409821E0,-1.4741586E0,1.2453646E2,1.2177343E1,-6.2902832E1,-1.2721875E2,-1.5712891E0,-4.7121876E1,1.0293542E2,-6.051157E1,7.604523E0,2.1653646E1,-1.8635742E1,-1.0564671E1,1.08427734E2,-8.870117E1,-2.4736328E1,1.7282715E0,-9.008179E1,1.98214E2,1.7392578E1,-7.488228E1,1.23515625E1,1.3252236E1,-5.597416E1,-1.470638E1,4.3510254E1,4.668164E1,-3.46356E1,1.6815918E1,-2.7057617E1,8.1171875E0,-4.522168E1,6.5744977E0,-1.6097656E1,-2.6723633E1,-9.531529E1,-9.340898E1,1.2471562E2,-9.484874E1,9.977864E0,1.7433082E0,2.1355675E1,3.0240885E1,-7.4398796E1,5.2373047E0,-2.7296875E1,-3.5517578E0,6.038151E1,1.4556641E1,-4.5260418E1],"categories":[],"categories_nodes":[],"categories_segments":[],"categories_sizes":[],"default_left":[1,1,1,1,1,1,0,1,1,1,1,1,0,1,1,0,0,1,1,1,1,1,1,1,0,0,1,1,1,0,1,1,0,1,1,1,1,0,1,0,0,0,0,0,0,0,0,0,0,0,0,0,0,0,0,0,0,0,0,0,0],"id":27,"left_children":[1,3,5,7,9,11,-1,13,15,17,19,21,-1,23,25,-1,-1,27,29,31,33,35,37,39,-1,-1,41,43,45,-1,47,49,-1,51,53,55,57,-1,59,-1,-1,-1,-1,-1,-1,-1,-1,-1,-1,-1,-1,-1,-1,-1,-1,-1,-1,-1,-1,-1,-1],"loss_changes":[2.1771969E4,1.4386373E4,3.1945174E4,1.3406415E4,1.7289342E4,3.8180805E4,0E0,1.6013184E4,1.0258324E4,1.6807328E5,5.569914E4,5.5633584E3,0E0,2.303478E4,1.7443877E3,0E0,0E0,3.1634656E4,1.1880859E5,1.4537152E4,5.711642E4,5.408119E3,9.977399E3,4.519278E3,0E0,0E0,2.3861206E3,7.969418E2,1.0550781E2,0E0,1.1867361E5,1.9584312E4,0E0,1.3485748E4,2.2900137E4,8.962647E2,3.390441E3,0E0,4.317448E3,0E0,0E0,0E0,0E0,0E0,0E0,0E0,0E0,0E0,0E0,0E0,0E0,0E0,0E0,0E0,0E0,0E0,0E0,0E0,0E0,0E0,0E0],"parents":[2147483647,0,0,1,1,2,2,3,3,4,4,5,5,7,7,8,8,9,9,10,10,11,11,13,13,14,14,17,17,18,18,19,19,20,20,21,21,22,22,23,23,26,26,27,27,28,28,30,30,31,31,33,33,34,34,35,35,36,36,38,38],"right_children":[2,4,6,8,10,12,-1,14,16,18,20,22,-1,24,26,-1,-1,28,30,32,34,36,38,40,-1,-1,42,44,46,-1,48,50,-1,52,54,56,58,-1,60,-1,-1,-1,-1,-1,-1,-1,-1,-1,-1,-1,-1,-1,-1,-1,-1,-1,-1,-1,-1,-1,-1],"split_conditions":[1.41E2,2.45E1,4.5E2,6.5E0,3.75E1,1.25E2,4.8505665E1,9.3E1,6.25E1,6.75E1,5.5E0,4.85E1,3.736094E1,8.35E1,9.85E1,-3.8165627E1,-4.7138673E-1,3.45E1,8.35E1,1.25E2,7.5E0,3.45E1,6E0,4.2E1,3.252832E1,-2.6610353E1,1.16E2,6.5E0,3.25E1,5.9464203E1,3.45E1,3.75E2,3.705469E0,5E1,3.25E2,2.45E1,6E0,1.4004493E1,3.25E2,5.0447755E0,-8.117286E0,2.4351563E0,-1.35665045E1,1.9723494E0,-4.829297E0,-8.01709E0,-2.859459E1,-2.8022696E1,3.741469E1,-2.8454622E1,2.9933593E0,5.229925E-1,6.4067025E0,9.072266E0,-2.231964E1,1.5711914E0,-8.189063E0,-1.0655274E0,1.8114454E1,4.3669925E0,-1.3578126E1],"split_indices":[0,5,7,2,5,5,0,0,0,0,2,5,0,0,0,0,0,5,0,5,2,5,6,0,0,0,0,2,0,0,5,7,0,0,7,5,6,0,7,0,0,0,0,0,0,0,0,0,0,0,0,0,0,0,0,0,0,0,0,0,0],"split_type":[0,0,0,0,0,0,0,0,0,0,0,0,0,0,0,0,0,0,0,0,0,0,0,0,0,0,0,0,0,0,0,0,0,0,0,0,0,0,0,0,0,0,0,0,0,0,0,0,0,0,0,0,0,0,0,0,0,0,0,0,0],"sum_hessian":[2.25E2,2.1E2,1.5E1,1.4E1,1.96E2,1.4E1,1E0,1.2E1,2E0,2.8E1,1.68E2,1.2E1,2E0,9E0,3E0,1E0,1E0,1.4E1,1.4E1,1.2E1,1.56E2,5E0,7E0,8E0,1E0,1E0,2E0,7E0,7E0,6E0,8E0,1E1,2E0,1.44E2,1.2E1,2E0,3E0,1E0,6E0,3E0,5E0,1E0,1E0,6E0,1E0,1E0,6E0,4E0,4E0,8E0,2E0,6E1,8.4E1,2E0,1E1,1E0,1E0,1E0,2E0,1E0,5E0],"tree_param":{"num_deleted":"0","num_feature":"8","num_nodes":"61","size_leaf_vector":"0"}},{"base_weights":[4.9995937E0,2.5921671E0,3.643506E1,-1.1322838E0,2.4254536E1,2.5096874E1,1.0325391E2,9.56717E0,-4.7428913E0,1.4695447E1,1.0857422E2,1.2477464E1,7.141537E1,-7.7951107E0,4.2608643E1,2.1389744E1,-1.234071E1,-5.9517045E0,2.5875616E1,2.5427734E1,1.374336E2,2.1280273E1,7.708594E0,8.482422E1,2.2298828E1,5.805013E0,-7.967676E1,-6.880469E0,5.9678387E1,-3.561693E1,7.0431526E1,1.8281757E1,-3.898602E1,-2.0730143E1,9.818685E0,4.5800392E1,1.7508984E1,-7.246094E-1,2.8856771E1,-8.62793E0,1.5942522E1,1.9051332E1,-5.6289062E1,-1.2280957E2,-9.985026E0,4.9282227E0,-2.7057617E1,7.657143E1,3.0023438E1,8.5253906E-1,-6.763428E1,1.4724414E2,1.5147904E1,8.751817E-1,1.09556885E2,-1.0602127E2,-2.587779E1,1.5861816E1,-1.5117188E0,9.954427E0,6.6379555E1,5.186849E0,3.0850447E1,-2.5520834E-1,-1.6873047E1,1.0644531E1,2.3865234E1],"categories":[],"categories_nodes":[],"categories_segments":[],"categories_sizes":[],"default_left":[1,1,1,1,1,1,0,1,1,1,1,1,1,1,1,1,1,1,1,0,0,1,1,0,0,1,1,1,1,1,1,1,1,0,1,1,1,0,0,1,1,0,0,0,0,0,0,0,0,0,0,0,0,0,0,0,0,0,0,0,0,0,0,0,0,0,0],"id":28,"left_children":[1,3,5,7,9,11,-1,13,15,17,19,21,23,25,27,29,31,33,35,-1,-1,37,39,-1,-1,41,43,45,47,49,51,53,55,-1,57,59,61,-1,-1,63,65,-1,-1,-1,-1,-1,-1,-1,-1,-1,-1,-1,-1,-1,-1,-1,-1,-1,-1,-1,-1,-1,-1,-1,-1,-1,-1],"loss_changes":[1.7008914E4,1.7051033E4,9.530318E3,7.0376826E3,2.3391055E4,7.8765996E3,0E0,2.6721205E4,2.7266902E4,6.8483247E3,3.704043E3,3.816919E2,8.430762E1,3.0768104E4,1.3926877E4,8.917552E4,8.7202914E4,2.767222E3,2.3654443E3,0E0,0E0,6.8778955E2,1.4826887E3,0E0,0E0,2.3280367E4,1.3803748E4,1.3246746E3,3.7126094E3,1.7572498E4,6.995971E4,7.934349E4,4.7343086E4,0E0,4.348053E2,3.02763E3,2.3059126E3,0E0,0E0,2.718301E2,3.9786865E1,0E0,0E0,0E0,0E0,0E0,0E0,0E0,0E0,0E0,0E0,0E0,0E0,0E0,0E0,0E0,0E0,0E0,0E0,0E0,0E0,0E0,0E0,0E0,0E0,0E0,0E0],"parents":[2147483647,0,0,1,1,2,2,3,3,4,4,5,5,7,7,8,8,9,9,10,10,11,11,12,12,13,13,14,14,15,15,16,16,17,17,18,18,21,21,22,22,25,25,26,26,27,27,28,28,29,29,30,30,31,31,32,32,34,34,35,35,36,36,39,39,40,40],"right_children":[2,4,6,8,10,12,-1,14,16,18,20,22,24,26,28,30,32,34,36,-1,-1,38,40,-1,-1,42,44,46,48,50,52,54,56,-1,58,60,62,-1,-1,64,66,-1,-1,-1,-1,-1,-1,-1,-1,-1,-1,-1,-1,-1,-1,-1,-1,-1,-1,-1,-1,-1,-1,-1,-1,-1,-1],"split_conditions":[1.7E2,3.75E2,1.41E2,6E0,1.41E2,6.5E0,3.0976173E1,5.25E1,4.2E1,5E1,5.15E1,4.2E1,6.25E1,6.5E0,4.45E1,6.75E1,6.75E1,5.15E1,6.75E1,7.6283207E0,4.123008E1,3.25E1,7E1,2.5447268E1,6.6896486E0,1.16E2,6.25E1,4.2E1,8.35E1,3.45E1,8.35E1,6E1,4.95E1,-6.2190433E0,4.2E1,6E1,9.3E1,-2.1738282E-1,8.657032E0,5.5E1,1.16E2,5.7153997E0,-1.6886719E1,-3.6842873E1,-2.995508E0,1.4784669E0,-8.117286E0,2.2971428E1,9.007031E0,2.5576174E-1,-2.0290283E1,4.4173244E1,4.5443716E0,2.6255453E-1,3.2867065E1,-3.1806383E1,-7.7633376E0,4.758545E0,-4.5351565E-1,2.9863281E0,1.9913868E1,1.5560548E0,9.255135E0,-7.656251E-2,-5.0619144E0,3.1933596E0,7.1595707E0],"split_indices":[5,7,0,6,0,2,0,5,5,0,5,0,0,2,0,0,0,5,0,0,0,0,0,0,0,0,0,0,0,5,0,0,5,0,0,0,0,0,0,0,0,0,0,0,0,0,0,0,0,0,0,0,0,0,0,0,0,0,0,0,0,0,0,0,0,0,0],"split_type":[0,0,0,0,0,0,0,0,0,0,0,0,0,0,0,0,0,0,0,0,0,0,0,0,0,0,0,0,0,0,0,0,0,0,0,0,0,0,0,0,0,0,0,0,0,0,0,0,0,0,0,0,0,0,0,0,0,0,0,0,0,0,0,0,0,0,0],"sum_hessian":[2.25E2,2.1E2,1.5E1,1.8E2,3E1,1.4E1,1E0,4.5E1,1.35E2,2.8E1,2E0,1.2E1,2E0,3E1,1.5E1,3E1,1.05E2,1E1,1.8E1,1E0,1E0,3E0,9E0,1E0,1E0,2.6E1,4E0,4E0,1.1E1,1.4E1,1.6E1,4.9E1,5.6E1,5E0,5E0,4E0,1.4E1,1E0,2E0,3E0,6E0,2.2E1,4E0,2E0,2E0,3E0,1E0,6E0,5E0,7E0,7E0,6E0,1E1,4.2E1,7E0,8E0,4.8E1,3E0,2E0,2E0,2E0,8E0,6E0,2E0,1E0,5E0,1E0],"tree_param":{"num_deleted":"0","num_feature":"8","num_nodes":"67","size_leaf_vector":"0"}},{"base_weights":[4.181256E0,-4.2368245E-1,2.2209791E1,-3.0310075E0,1.5967266E1,1.6815815E1,7.464258E1,4.3369067E-1,-1.972895E1,-2.750837E0,9.138985E1,-1.4310547E1,2.2250105E1,2.1644531E1,1.1681836E2,4.903618E0,-1.6965422E1,-9.7425E0,-9.637305E1,-1.7346905E1,1.8638021E1,1.3365755E2,1.8658854E1,1.1200684E1,-3.624414E1,1.1080433E1,3.6217773E1,6.419922E0,2.6046875E1,-5.9648805E0,1.5679595E1,1.14257164E2,-3.2033516E1,-1.8552225E1,6.1046223E1,1.9953403E1,-5.2169086E1,3.144029E1,-1.7446615E1,1.1225098E2,-5.989974E1,-1.384834E2,4.3996746E1,-9.817871E0,2.14875E1,7.733463E1,1.04978695E1,4.3633595E1,-1.0904217E1,-7.756699E1,2.4874561E1,1.6491699E2,6.46875E0,-1.9892903E2,-8.871773E0,-5.558129E0,-1.0332682E2,-2.0117188E0,2.9141796E1,-8.397266E1,-7.323242E0,4.347168E1,1.1548828E1,-2.125586E1,-4.9140625E0,-9.5274414E1,5.4248047E0,-2.1712053E1,3.6720703E1,-1.1399739E1,2.7423979E1,1.3224805E2,-2.1661459E1,-3.8709263E1,7.7288284E1],"categories":[],"categories_nodes":[],"categories_segments":[],"categories_sizes":[],"default_left":[1,1,1,1,1,1,1,1,1,1,1,1,1,1,0,1,1,1,0,1,1,0,0,1,1,1,1,0,0,1,1,1,1,1,0,1,1,1,1,0,1,0,0,1,1,1,1,0,0,0,0,0,0,0,0,0,0,0,0,0,0,0,0,0,0,0,0,0,0,0,0,0,0,0,0],"id":29,"left_children":[1,3,5,7,9,11,13,15,17,19,21,23,25,27,-1,29,31,33,-1,35,37,-1,-1,39,41,43,45,-1,-1,47,49,51,53,55,-1,57,59,61,63,-1,65,-1,-1,67,69,71,73,-1,-1,-1,-1,-1,-1,-1,-1,-1,-1,-1,-1,-1,-1,-1,-1,-1,-1,-1,-1,-1,-1,-1,-1,-1,-1,-1,-1],"loss_changes":[1.8771996E4,7.7837085E3,1.1754602E4,9.091528E3,3.554559E4,7.5918477E3,6.412457E3,1.0271425E4,1.972695E4,6.87937E3,1.2876965E4,4.32283E3,5.3712207E3,3.3853027E1,0E0,1.2390989E4,5.704646E4,1.6723273E4,0E0,1.7926367E4,4.7062134E3,0E0,0E0,3.546268E4,3.8907895E4,4.995742E3,1.6108498E4,0E0,0E0,1.3459919E4,4.7371605E4,1.5314824E4,9.487492E4,2.476179E4,0E0,1.4713945E3,9.368854E3,1.1732065E3,3.8766052E1,0E0,7.4493486E3,0E0,0E0,5.225588E3,3.2411426E3,3.548197E4,3.9143984E4,0E0,0E0,0E0,0E0,0E0,0E0,0E0,0E0,0E0,0E0,0E0,0E0,0E0,0E0,0E0,0E0,0E0,0E0,0E0,0E0,0E0,0E0,0E0,0E0,0E0,0E0,0E0,0E0],"parents":[2147483647,0,0,1,1,2,2,3,3,4,4,5,5,6,6,7,7,8,8,9,9,10,10,11,11,12,12,13,13,15,15,16,16,17,17,19,19,20,20,23,23,24,24,25,25,26,26,29,29,30,30,31,31,32,32,33,33,35,35,36,36,37,37,38,38,40,40,43,43,44,44,45,45,46,46],"right_children":[2,4,6,8,10,12,14,16,18,20,22,24,26,28,-1,30,32,34,-1,36,38,-1,-1,40,42,44,46,-1,-1,48,50,52,54,56,-1,58,60,62,64,-1,66,-1,-1,68,70,72,74,-1,-1,-1,-1,-1,-1,-1,-1,-1,-1,-1,-1,-1,-1,-1,-1,-1,-1,-1,-1,-1,-1,-1,-1,-1,-1,-1,-1],"split_conditions":[9.85E1,1.25E2,4.5E2,6.5E0,6.5E0,3.25E2,1.41E2,8.35E1,8.75E1,7E1,6.25E1,5.75E1,5.75E1,1.16E2,3.504551E1,4.45E1,2.25E2,7.25E1,-2.8911915E1,4.2E1,9.3E1,4.0097267E1,5.5976562E0,1.16E2,1.16E2,1.16E2,1.16E2,1.9259766E0,7.8140626E0,2.25E2,2.25E2,9.3E1,3.25E2,6.75E1,1.8313868E1,3.25E1,1.7E2,1.7E2,1.7E2,3.3675293E1,1.41E2,-4.154502E1,1.3199024E1,3.75E2,2.45E1,1.25E2,1.25E2,1.3090079E1,-3.2712653E0,-2.32701E1,7.4623685E0,4.94751E1,1.9406251E0,-5.967871E1,-2.661532E0,-1.6674387E0,-3.0998047E1,-6.035156E-1,8.742539E0,-2.5191797E1,-2.1969728E0,1.3041505E1,3.4646485E0,-6.376758E0,-1.4742188E0,-2.8582325E1,1.6274415E0,-6.513616E0,1.10162115E1,-3.4199219E0,8.227194E0,3.9674416E1,-6.498438E0,-1.161278E1,2.3186485E1],"split_indices":[0,5,7,2,2,7,0,0,5,0,0,5,5,0,0,0,7,5,0,0,0,0,0,0,0,0,0,0,0,7,7,0,7,5,0,0,5,5,5,0,0,0,0,7,5,5,5,0,0,0,0,0,0,0,0,0,0,0,0,0,0,0,0,0,0,0,0,0,0,0,0,0,0,0,0],"split_type":[0,0,0,0,0,0,0,0,0,0,0,0,0,0,0,0,0,0,0,0,0,0,0,0,0,0,0,0,0,0,0,0,0,0,0,0,0,0,0,0,0,0,0,0,0,0,0,0,0,0,0,0,0,0,0,0,0,0,0,0,0,0,0,0,0,0,0,0,0,0,0,0,0,0,0],"sum_hessian":[2.25E2,1.8E2,4.5E1,1.56E2,2.4E1,4.2E1,3E0,1.3E2,2.6E1,2E1,4E0,6E0,3.6E1,2E0,1E0,1.04E2,2.6E1,2.4E1,2E0,1.2E1,8E0,2E0,2E0,3E0,3E0,2.1E1,1.5E1,1E0,1E0,5.2E1,5.2E1,2E0,2.4E1,2.2E1,2E0,6E0,6E0,6E0,2E0,1E0,2E0,1E0,2E0,7E0,1.4E1,5E0,1E1,4E0,4.8E1,4E0,4.8E1,1E0,1E0,2E0,2.2E1,2E1,2E0,2E0,4E0,3E0,3E0,3E0,3E0,1E0,1E0,1E0,1E0,6E0,1E0,2E0,1.2E1,3E0,2E0,6E0,4E0],"tree_param":{"num_deleted":"0","num_feature":"8","num_nodes":"75","size_leaf_vector":"0"}},{"base_weights":[3.1576328E0,1.0956383E0,3.0152832E1,-2.1494923E1,2.8101702E0,1.8923698E1,9.929492E1,-4.4037354E1,3.734375E0,-1.9645702E1,4.6354594E0,4.1965146E0,7.643359E1,1.1199707E1,-7.941953E1,4.5138283E1,-4.89541E1,9.824414E1,-4.5339844E1,-1.3737109E1,6.238732E0,1.8697998E1,-1.5838216E1,-2.2473958E0,2.5770508E1,1.1104004E1,9.0637695E1,-7.6921875E1,-1.3990886E1,2.3016928E1,-5.9860794E1,-4.373763E1,-5.7572117E0,2.2413671E1,3.4069235E0,3.6833332E1,6.5139976E0,-2.600586E1,1.75E1,-1.015625E-1,-3.2695312E0,9.9609375E-1,1.4141276E1,7.298828E0,-2.8285156E1,3.5458984E0,3.0979492E1,-7.5129776E1,5.8997397E0,-1.6685547E1,3.1586914E0,3.0870768E1,-1.7588867E1,8.31544E0,-6.379464E0,-8.576172E0,4.098242E1,9.655273E0,-3.733496E1],"categories":[],"categories_nodes":[],"categories_segments":[],"categories_sizes":[],"default_left":[1,1,1,1,1,1,0,1,1,1,1,1,0,1,0,1,1,0,1,1,1,1,1,1,0,1,0,0,1,1,1,0,1,1,1,0,1,1,0,0,0,0,0,0,0,0,0,0,0,0,0,0,0,0,0,0,0,0,0],"id":30,"left_children":[1,3,5,7,9,11,-1,13,15,17,19,21,-1,23,-1,25,27,-1,29,31,33,35,37,39,-1,41,-1,-1,43,45,47,-1,49,51,53,-1,55,57,-1,-1,-1,-1,-1,-1,-1,-1,-1,-1,-1,-1,-1,-1,-1,-1,-1,-1,-1,-1,-1],"loss_changes":[1.2547017E4,8.232906E3,1.0543466E4,8.695396E3,8.165794E3,1.2383627E4,0E0,1.6524734E4,1.9661775E4,4.9890547E4,5.476193E3,4.0730762E3,0E0,8.4165674E2,0E0,6.736256E3,2.835167E3,0E0,1.4281684E4,3.3392095E3,7.6645703E3,1.5277551E3,2.4889287E3,6.2479353E0,0E0,1.0871588E2,0E0,0E0,1.1194113E3,3.5526794E2,1.1488305E4,0E0,1.3193721E3,9.000614E3,7.018361E3,0E0,3.4722786E3,2.3805225E3,0E0,0E0,0E0,0E0,0E0,0E0,0E0,0E0,0E0,0E0,0E0,0E0,0E0,0E0,0E0,0E0,0E0,0E0,0E0,0E0,0E0],"parents":[2147483647,0,0,1,1,2,2,3,3,4,4,5,5,7,7,8,8,9,9,10,10,11,11,13,13,15,15,16,16,18,18,19,19,20,20,21,21,22,22,23,23,25,25,28,28,29,29,30,30,32,32,33,33,34,34,36,36,37,37],"right_children":[2,4,6,8,10,12,-1,14,16,18,20,22,-1,24,-1,26,28,-1,30,32,34,36,38,40,-1,42,-1,-1,44,46,48,-1,50,52,54,-1,56,58,-1,-1,-1,-1,-1,-1,-1,-1,-1,-1,-1,-1,-1,-1,-1,-1,-1,-1,-1,-1,-1],"split_conditions":[1.41E2,2.45E1,4.5E2,6.75E1,5.5E0,1.25E2,2.9788477E1,4.2E1,9.3E1,3.75E1,3.25E1,7.5E0,2.2930079E1,3.75E1,-2.3825861E1,8.35E1,9.85E1,2.9473244E1,3.25E2,3.25E2,6E0,3.75E1,3.75E2,3.25E1,7.7311525E0,7.25E1,2.7191309E1,-2.3076563E1,1.16E2,5.75E1,1.25E2,-1.3121289E1,7.5E0,6.5E0,8.35E1,1.105E1,5.75E1,3.25E2,5.25E0,-3.046875E-2,-9.808594E-1,2.9882812E-1,4.242383E0,2.1896486E0,-8.485547E0,1.0637696E0,9.293848E0,-2.2538933E1,1.769922E0,-5.0056643E0,9.4760746E-1,9.26123E0,-5.2766604E0,2.4946322E0,-1.9138393E0,-2.5728517E0,1.2294727E1,2.8965821E0,-1.1200489E1],"split_indices":[0,5,7,0,2,5,0,0,0,5,0,6,0,0,0,0,0,0,7,7,6,5,7,0,0,0,0,0,0,5,5,0,6,2,0,0,5,7,0,0,0,0,0,0,0,0,0,0,0,0,0,0,0,0,0,0,0,0,0],"split_type":[0,0,0,0,0,0,0,0,0,0,0,0,0,0,0,0,0,0,0,0,0,0,0,0,0,0,0,0,0,0,0,0,0,0,0,0,0,0,0,0,0,0,0,0,0,0,0,0,0,0,0,0,0,0,0,0,0,0,0],"sum_hessian":[2.25E2,2.1E2,1.5E1,1.4E1,1.96E2,1.4E1,1E0,7E0,7E0,1.4E1,1.82E2,1.2E1,2E0,3E0,4E0,4E0,3E0,2E0,1.2E1,1.4E1,1.68E2,7E0,5E0,2E0,1E0,3E0,1E0,1E0,2E0,2E0,1E1,2E0,1.2E1,2.4E1,1.44E2,2E0,5E0,4E0,1E0,1E0,1E0,1E0,2E0,1E0,1E0,1E0,1E0,8E0,2E0,5E0,7E0,2E1,4E0,9.6E1,4.8E1,4E0,1E0,1E0,3E0],"tree_param":{"num_deleted":"0","num_feature":"8","num_nodes":"59","size_leaf_vector":"0"}},{"base_weights":[2.4853776E0,-9.479454E-1,1.5940727E1,-6.2344956E0,5.0960937E0,-1.5252511E1,2.1001026E1,-3.2278354E0,-3.5274307E1,-8.322754E0,1.4655743E1,5.532715E0,-3.222461E1,9.126776E0,3.364484E1,3.6648648E0,-1.4485581E1,-1.1479752E2,3.8462613E0,-4.5908855E1,-7.795489E-1,4.9504948E1,-2.7186415E-1,9.078223E1,-5.314453E1,-1.1675391E2,3.4869793E1,2.0214394E1,-6.199805E0,5.0327736E1,1.3597461E1,-2.4127224E1,5.113393E1,2.7283026E1,-8.405664E1,4.12417E1,-3.4510742E1,-7.776367E1,1.18671875E1,1.9120682E1,-2.9804537E1,1.3383723E2,2.6235577E1,-8.989898E0,3.136499E1,-8.561426E1,5.897461E0,4.4097656E1,8.207031E0,-4.3789062E0,2.8030273E1,-2.814502E1,7.2260046E0,8.3146484E1,2.4384487E1,-4.66769E0,4.216211E1,-1.1331591E1,-8.62168E1,6.1805607E1,4.6234374E0,1.2611328E1,9.015283E1,-6.1621483E1,-1.1913037E2,8.671875E-1,5.441081E1,-2.1029297E1,-1.239834E2,1.6016602E1,1.7841797E0,-4.5412946E0,3.0390926E1,-4.6711494E1,-8.639788E0,2.735254E1,1.7340332E2,7.641927E1,1.01640625E1,-2.2207218E1,2.2849392E1,-9.80918E1,6.387193E1,-1.1891927E1,9.080078E0,4.9813965E1,1.1578125E1,-1.3529948E1,1.8234375E1,-3.919271E-1,1.6688086E2,7.856484E1,-7.404427E1,-1.6882324E1,8.713867E0,1.3078125E1,6.470703E1],"categories":[],"categories_nodes":[],"categories_segments":[],"categories_sizes":[],"default_left":[1,1,1,1,1,1,1,1,1,1,1,1,1,1,1,1,1,0,1,1,1,1,1,0,1,0,1,1,1,1,1,1,1,1,1,1,0,1,1,1,1,1,1,1,1,0,0,0,0,1,1,0,1,1,1,1,1,0,0,0,0,0,0,0,0,0,0,0,0,0,0,0,0,0,0,0,0,0,0,0,0,0,0,0,0,0,0,0,0,0,0,0,0,0,0,0,0],"id":31,"left_children":[1,3,5,7,9,11,13,15,17,19,21,23,25,27,29,31,33,-1,35,37,39,41,43,-1,45,-1,47,49,51,53,55,57,59,61,63,65,-1,67,69,71,73,75,77,79,81,-1,-1,-1,-1,83,85,-1,87,89,91,93,95,-1,-1,-1,-1,-1,-1,-1,-1,-1,-1,-1,-1,-1,-1,-1,-1,-1,-1,-1,-1,-1,-1,-1,-1,-1,-1,-1,-1,-1,-1,-1,-1,-1,-1,-1,-1,-1,-1,-1,-1],"loss_changes":[1.0455533E4,5.8151055E3,7.581283E3,8.355486E3,1.102573E4,2.6476719E3,5.6983633E3,6.9591553E3,2.8440484E4,1.017092E4,2.6024223E4,2.4833406E4,2.6756955E4,3.863901E3,5.6701895E3,7.511253E4,1.0109345E5,0E0,1.1463921E4,1.1965507E4,1.8475607E4,2.5924086E4,1.0211169E4,0E0,6.2561396E3,0E0,3.762102E2,2.62158E3,3.149699E3,6.4867656E3,5.414176E3,2.7624143E4,1.0137492E4,1.9156004E4,2.8885078E3,2.079601E3,0E0,7.881705E3,9.693924E1,5.204862E3,4.2482324E3,7.8965273E3,9.708135E3,1.2711493E4,3.9931266E4,0E0,0E0,0E0,0E0,5.1245013E2,3.0071333E3,0E0,1.8461346E3,2.804555E4,4.3147613E4,1.2912661E3,1.7765386E3,0E0,0E0,0E0,0E0,0E0,0E0,0E0,0E0,0E0,0E0,0E0,0E0,0E0,0E0,0E0,0E0,0E0,0E0,0E0,0E0,0E0,0E0,0E0,0E0,0E0,0E0,0E0,0E0,0E0,0E0,0E0,0E0,0E0,0E0,0E0,0E0,0E0,0E0,0E0,0E0],"parents":[2147483647,0,0,1,1,2,2,3,3,4,4,5,5,6,6,7,7,8,8,9,9,10,10,11,11,12,12,13,13,14,14,15,15,16,16,18,18,19,19,20,20,21,21,22,22,24,24,26,26,27,27,28,28,29,29,30,30,31,31,32,32,33,33,34,34,35,35,37,37,38,38,39,39,40,40,41,41,42,42,43,43,44,44,49,49,50,50,52,52,53,53,54,54,55,55,56,56],"right_children":[2,4,6,8,10,12,14,16,18,20,22,24,26,28,30,32,34,-1,36,38,40,42,44,-1,46,-1,48,50,52,54,56,58,60,62,64,66,-1,68,70,72,74,76,78,80,82,-1,-1,-1,-1,84,86,-1,88,90,92,94,96,-1,-1,-1,-1,-1,-1,-1,-1,-1,-1,-1,-1,-1,-1,-1,-1,-1,-1,-1,-1,-1,-1,-1,-1,-1,-1,-1,-1,-1,-1,-1,-1,-1,-1,-1,-1,-1,-1,-1,-1],"split_conditions":[9.85E1,5.25E1,3.25E2,9.3E1,5E1,5.75E1,5.25E1,4.85E1,3.45E1,3.25E2,6.75E1,1.16E2,1.16E2,4.85E1,8.5E1,6.75E1,6.75E1,-3.443926E1,4.85E1,4.2E1,4.2E1,3.25E2,9.3E1,2.7234669E1,1.41E2,-3.5026173E1,1.41E2,2.45E1,4.95E1,1.16E2,1.7E2,6E1,4.4E1,6E1,8.35E1,6E0,-1.0353223E1,3.75E1,4.45E1,3.25E1,4.45E1,6E1,6.5E0,1.25E2,3.25E2,-2.5684278E1,1.7692384E0,1.3229298E1,2.4621096E0,1.41E2,7.5E0,-8.443506E0,1.16E2,6.75E1,6.75E1,1.25E2,1.41E2,-3.3994772E0,-2.586504E1,1.8541683E1,1.3870313E0,3.7833986E0,2.704585E1,-1.8486446E1,-3.5739113E1,2.6015627E-1,1.6323244E1,-6.3087893E0,-3.7195023E1,4.8049808E0,5.3525394E-1,-1.3623884E0,9.117278E0,-1.4013449E1,-2.5919363E0,8.205762E0,5.2021E1,2.2925783E1,3.049219E0,-6.6621656E0,6.854818E0,-2.942754E1,1.916158E1,-3.567578E0,2.7240236E0,1.494419E1,3.4734375E0,-4.0589848E0,5.4703126E0,-1.17578134E-1,5.006426E1,2.3569454E1,-2.2213284E1,-5.0646973E0,2.6141603E0,3.9234376E0,1.941211E1],"split_indices":[0,5,7,0,0,5,5,5,5,7,0,0,0,5,5,0,0,0,5,0,0,7,0,0,0,0,0,5,5,0,5,0,5,0,0,6,0,0,0,0,0,0,6,5,7,0,0,0,0,0,6,0,0,5,5,5,0,0,0,0,0,0,0,0,0,0,0,0,0,0,0,0,0,0,0,0,0,0,0,0,0,0,0,0,0,0,0,0,0,0,0,0,0,0,0,0,0],"split_type":[0,0,0,0,0,0,0,0,0,0,0,0,0,0,0,0,0,0,0,0,0,0,0,0,0,0,0,0,0,0,0,0,0,0,0,0,0,0,0,0,0,0,0,0,0,0,0,0,0,0,0,0,0,0,0,0,0,0,0,0,0,0,0,0,0,0,0,0,0,0,0,0,0,0,0,0,0,0,0,0,0,0,0,0,0,0,0,0,0,0,0,0,0,0,0,0,0],"sum_hessian":[2.25E2,1.8E2,4.5E1,9.6E1,8.4E1,6E0,3.9E1,8.8E1,8E0,3.5E1,4.9E1,3E0,3E0,2.1E1,1.8E1,5.5E1,3.3E1,2E0,6E0,5E0,3E1,1.4E1,3.5E1,1E0,2E0,1E0,2E0,1.2E1,9E0,9E0,9E0,3.5E1,2E1,2.1E1,1.2E1,3E0,3E0,3E0,2E0,1.8E1,1.2E1,2E0,1.2E1,2.8E1,7E0,1E0,1E0,1E0,1E0,3E0,9E0,3E0,6E0,3E0,6E0,6E0,3E0,3E1,5E0,1.6E1,4E0,1.8E1,3E0,9E0,3E0,1E0,2E0,2E0,1E0,1E0,1E0,6E0,1.2E1,6E0,6E0,1E0,1E0,2E0,1E1,2E1,8E0,1E0,6E0,2E0,1E0,3E0,6E0,2E0,4E0,2E0,1E0,4E0,2E0,3E0,3E0,2E0,1E0],"tree_param":{"num_deleted":"0","num_feature":"8","num_nodes":"97","size_leaf_vector":"0"}},{"base_weights":[1.8943584E0,-8.3917475E-1,1.26090355E1,-2.6664884E0,1.0669922E1,-1.2964844E1,1.6769238E1,-7.463603E0,2.9557202E0,-3.7832031E0,2.0557552E1,4.7026367E0,-2.7391113E1,6.868164E0,2.735105E1,-4.1948366E0,-3.8401123E1,-9.571321E0,1.1918105E1,-1.3597656E1,6.6617837E0,3.2171005E1,2.6891742E0,7.716504E1,-4.5173176E1,-9.924121E1,2.9639322E1,1.5502554E1,-5.0433593E0,4.035957E1,1.1607422E1,-7.3976502E0,1.4037109E1,-9.183789E1,-5.2825522E0,-3.8496746E1,-2.528095E0,4.4509315E1,-2.1336315E0,-3.5546875E-1,-1.6175E1,-7.167969E-1,1.0530273E1,4.36957E1,1.421211E1,2.9077148E1,-2.4371094E1,-7.277246E1,5.0126953E0,3.74834E1,6.975586E0,-3.275879E0,2.1463673E1,-2.2570312E1,5.6925225E0,7.0688965E1,1.7262835E1,-3.6166294E0,3.5347656E1,-1.2192623E1,3.5443916E1,3.9203125E1,-1.3139453E2,3.690625E1,-2.1101562E1,-6.531055E1,1.0087239E1,1.4118042E1,-2.6510832E1,1.1376172E2,2.1575994E1,-3.1007511E1,1.7734478E1,5.314453E0,-6.3896484E0,1.9164062E1,1.2643229E0,9.986328E0,6.2839844E1,2.849935E1,-4.8125E0,-3.0398438E1,-3.1445312E0,7.9882812E0,-9.693359E0,3.8606445E1,8.6015625E0,2.1683105E1,-1.1721191E1,-3.138021E-1,1.4184863E2,5.9708595E1,-5.9234375E1,-1.3083008E1,6.7539062E0,1.0463542E1,5.5E1],"categories":[],"categories_nodes":[],"categories_segments":[],"categories_sizes":[],"default_left":[1,1,1,1,1,1,1,1,1,1,1,1,1,1,1,1,1,1,1,1,1,1,1,0,1,0,1,1,1,1,1,1,1,0,1,1,1,1,1,0,0,1,1,1,1,0,1,0,0,0,0,1,1,0,1,1,1,1,1,0,0,0,0,0,0,0,0,0,0,0,0,0,0,0,0,0,0,0,0,0,0,0,0,0,0,0,0,0,0,0,0,0,0,0,0,0,0],"id":32,"left_children":[1,3,5,7,9,11,13,15,17,19,21,23,25,27,29,31,33,35,37,39,41,43,45,-1,47,-1,49,51,53,55,57,59,61,-1,63,65,67,69,71,-1,-1,73,75,77,79,-1,81,-1,-1,-1,-1,83,85,-1,87,89,91,93,95,-1,-1,-1,-1,-1,-1,-1,-1,-1,-1,-1,-1,-1,-1,-1,-1,-1,-1,-1,-1,-1,-1,-1,-1,-1,-1,-1,-1,-1,-1,-1,-1,-1,-1,-1,-1,-1,-1],"loss_changes":[6.629878E3,3.8350132E3,5.111467E3,4.256409E3,3.6504524E3,1.9129413E3,4.002999E3,8.434753E3,8.309938E3,1.218215E3,3.0261904E3,1.7942275E4,1.9332014E4,2.3408574E3,3.422755E3,4.658537E3,1.3672855E4,6.2182534E3,1.9787379E4,1.990282E2,1.7881183E2,1.2417295E3,5.7071016E3,0E0,4.5200684E3,0E0,2.7185938E2,1.5255378E3,2.010155E3,5.7848096E3,3.7420647E3,1.4195573E4,4.9070297E4,0E0,4.7830903E3,8.475133E3,1.0753999E4,1.8191912E4,1.8333654E4,0E0,0E0,1.3660063E2,2.9577148E2,2.5991465E3,1.4961989E3,0E0,4.161704E2,0E0,0E0,0E0,0E0,3.6658337E2,1.8728467E3,0E0,2.2033398E3,2.0254648E4,2.6265676E4,7.7556134E2,1.3806299E3,0E0,0E0,0E0,0E0,0E0,0E0,0E0,0E0,0E0,0E0,0E0,0E0,0E0,0E0,0E0,0E0,0E0,0E0,0E0,0E0,0E0,0E0,0E0,0E0,0E0,0E0,0E0,0E0,0E0,0E0,0E0,0E0,0E0,0E0,0E0,0E0,0E0,0E0],"parents":[2147483647,0,0,1,1,2,2,3,3,4,4,5,5,6,6,7,7,8,8,9,9,10,10,11,11,12,12,13,13,14,14,15,15,16,16,17,17,18,18,19,19,20,20,21,21,22,22,24,24,26,26,27,27,28,28,29,29,30,30,31,31,32,32,34,34,35,35,36,36,37,37,38,38,41,41,42,42,43,43,44,44,46,46,51,51,52,52,54,54,55,55,56,56,57,57,58,58],"right_children":[2,4,6,8,10,12,14,16,18,20,22,24,26,28,30,32,34,36,38,40,42,44,46,-1,48,-1,50,52,54,56,58,60,62,-1,64,66,68,70,72,-1,-1,74,76,78,80,-1,82,-1,-1,-1,-1,84,86,-1,88,90,92,94,96,-1,-1,-1,-1,-1,-1,-1,-1,-1,-1,-1,-1,-1,-1,-1,-1,-1,-1,-1,-1,-1,-1,-1,-1,-1,-1,-1,-1,-1,-1,-1,-1,-1,-1,-1,-1,-1,-1],"split_conditions":[9.85E1,3.75E2,3.25E2,5.75E1,5E1,5.75E1,5.25E1,9.3E1,5E1,5.15E1,7.65E1,1.16E2,1.16E2,4.85E1,8.5E1,7.5E0,3.45E1,3.25E2,6.75E1,3.25E1,3.75E1,6.5E0,5.15E1,2.3149513E1,1.41E2,-2.9772364E1,1.41E2,2.45E1,1.16E2,1.16E2,1.7E2,8.35E1,8.35E1,-2.7551369E1,3.75E1,4.2E1,4.2E1,3.25E2,7.65E1,-1.0664063E-1,-4.8525E0,3.25E1,4.2E1,5.15E1,5.15E1,8.723145E0,9.3E1,-2.183174E1,1.5038086E0,1.124502E1,2.092676E0,1.16E2,7.5E0,-6.771094E0,1.41E2,6.75E1,6.75E1,1.25E2,1.41E2,-3.657787E0,1.0633175E1,1.1760938E1,-3.941836E1,1.1071876E1,-6.330469E0,-1.9593164E1,3.026172E0,4.2354126E0,-7.95325E0,3.4128517E1,6.472799E0,-9.302254E0,5.3203435E0,1.594336E0,-1.9168946E0,5.749219E0,3.7929687E-1,2.9958985E0,1.8851954E1,8.549806E0,-1.44375E0,-9.119532E0,-9.4335943E-1,2.3964844E0,-2.9080079E0,1.1581934E1,2.580469E0,6.504932E0,-3.5163577E0,-9.4140634E-2,4.2554592E1,1.7912579E1,-1.7770313E1,-3.9249024E0,2.026172E0,3.1390626E0,1.65E1],"split_indices":[0,7,7,5,0,5,5,0,0,5,0,0,0,5,5,6,5,7,0,0,0,2,5,0,0,0,0,5,0,0,5,0,0,0,5,0,0,7,0,0,0,0,0,5,5,0,0,0,0,0,0,0,6,0,0,5,5,5,0,0,0,0,0,0,0,0,0,0,0,0,0,0,0,0,0,0,0,0,0,0,0,0,0,0,0,0,0,0,0,0,0,0,0,0,0,0,0],"split_type":[0,0,0,0,0,0,0,0,0,0,0,0,0,0,0,0,0,0,0,0,0,0,0,0,0,0,0,0,0,0,0,0,0,0,0,0,0,0,0,0,0,0,0,0,0,0,0,0,0,0,0,0,0,0,0,0,0,0,0,0,0,0,0,0,0,0,0,0,0,0,0,0,0,0,0,0,0,0,0,0,0,0,0,0,0,0,0,0,0,0,0,0,0,0,0,0,0],"sum_hessian":[2.25E2,1.8E2,4.5E1,1.56E2,2.4E1,6E0,3.9E1,8.4E1,7.2E1,1E1,1.4E1,3E0,3E0,2.1E1,1.8E1,7.7E1,7E0,3E1,4.2E1,5E0,5E0,8E0,6E0,1E0,2E0,1E0,2E0,1.2E1,9E0,9E0,9E0,6.6E1,1.1E1,2E0,5E0,5E0,2.5E1,1.2E1,3E1,1E0,4E0,2E0,3E0,4E0,4E0,3E0,3E0,1E0,1E0,1E0,1E0,3E0,9E0,3E0,6E0,3E0,6E0,6E0,3E0,6E1,6E0,1E1,1E0,1E0,4E0,3E0,2E0,1.5E1,1E1,2E0,1E1,1.2E1,1.8E1,1E0,1E0,1E0,2E0,2E0,2E0,2E0,2E0,2E0,1E0,1E0,2E0,3E0,6E0,3E0,3E0,2E0,1E0,4E0,2E0,3E0,3E0,2E0,1E0],"tree_param":{"num_deleted":"0","num_feature":"8","num_nodes":"97","size_leaf_vector":"0"}},{"base_weights":[1.5822473E0,2.948756E-1,1.8460571E1,-1.1516537E1,1.1927248E0,4.3424478E-1,3.6432617E1,-9.7566104E-1,-5.3354816E1,-9.414779E0,2.0556748E0,-1.1894531E1,5.655971E0,6.3658203E1,2.3449219E1,8.412109E0,-2.4201172E1,-7.34375E1,-6.5947266E0,-2.9728842E1,-4.002704E0,1.2220305E1,2.9452378E-1,9.171875E0,-2.7013672E1,1.8982422E1,-9.084473E0,4.2515626E0,4.7628906E1,-4.532118E0,6.245508E1,-3.438867E1,-9.342448E0,5.2992187E0,-8.725695E0,4.8352345E1,3.8341966E0,5.3613815E0,-4.0604777E0,4.260742E0,2.24694E1,-1.6737305E1,-9.5442706E-1,1.5500977E1,-2.0373047E1,1.4813965E1,-1.6674154E1,6.790039E0,-2.080371E1,1.0691406E1,1.2783203E0,-1.0945801E1,4.517578E0,8.561198E-2,8.0501625E1,-1.5361247E1,2.2710123E1,-3.0460938E1,1.2907755E1,4.006393E1,-1.3325347E1],"categories":[],"categories_nodes":[],"categories_segments":[],"categories_sizes":[],"default_left":[1,1,1,1,1,1,1,1,1,1,1,1,1,0,1,1,1,0,0,0,1,1,1,0,0,1,1,1,0,1,0,0,1,1,1,1,1,1,1,0,0,0,0,0,0,0,0,0,0,0,0,0,0,0,0,0,0,0,0,0,0],"id":33,"left_children":[1,3,5,7,9,11,13,15,17,19,21,23,25,-1,27,29,31,-1,-1,-1,33,35,37,-1,-1,39,41,43,-1,45,-1,-1,47,49,51,53,55,57,59,-1,-1,-1,-1,-1,-1,-1,-1,-1,-1,-1,-1,-1,-1,-1,-1,-1,-1,-1,-1,-1,-1],"loss_changes":[4.9052373E3,2.2513633E3,5.1676987E3,6.563126E3,1.8226411E3,6.466725E2,1.3351104E3,3.0380479E3,2.3329033E3,1.5301223E3,3.2723662E3,1.2032839E3,1.5475099E3,0E0,3.0468564E3,7.2784985E3,2.8421875E2,0E0,0E0,0E0,6.1736694E2,7.995802E3,3.4861594E3,0E0,0E0,1.09600464E2,2.3289694E2,1.7008643E3,0E0,2.3611177E3,0E0,0E0,6.959541E2,9.474014E1,3.1406177E2,7.7518125E3,8.682487E3,2.012717E4,3.5282445E4,0E0,0E0,0E0,0E0,0E0,0E0,0E0,0E0,0E0,0E0,0E0,0E0,0E0,0E0,0E0,0E0,0E0,0E0,0E0,0E0,0E0,0E0],"parents":[2147483647,0,0,1,1,2,2,3,3,4,4,5,5,6,6,7,7,8,8,9,9,10,10,11,11,12,12,14,14,15,15,16,16,20,20,21,21,22,22,25,25,26,26,27,27,29,29,32,32,33,33,34,34,35,35,36,36,37,37,38,38],"right_children":[2,4,6,8,10,12,14,16,18,20,22,24,26,-1,28,30,32,-1,-1,-1,34,36,38,-1,-1,40,42,44,-1,46,-1,-1,48,50,52,54,56,58,60,-1,-1,-1,-1,-1,-1,-1,-1,-1,-1,-1,-1,-1,-1,-1,-1,-1,-1,-1,-1,-1,-1],"split_conditions":[1.41E2,2.45E1,5.25E1,6.5E0,3.25E1,3.45E1,6E1,9.3E1,6.25E1,6E0,6E0,2.45E1,4.85E1,1.9097462E1,1.25E2,8.35E1,9.85E1,-2.203125E1,-1.978418E0,-8.918653E0,4.95E1,4.2E1,6.75E1,2.7515626E0,-8.104102E0,6E0,4.95E1,8.75E1,1.4288672E1,4.2E1,1.8736525E1,-1.0316602E1,1.16E2,3.45E1,4.25E2,3.75E1,5.25E1,4.15E1,4.15E1,1.2782227E0,6.7408204E0,-5.0211916E0,-2.8632814E-1,4.6502934E0,-6.111914E0,4.4441895E0,-5.0022464E0,2.0370119E0,-6.2411137E0,3.207422E0,3.834961E-1,-3.2837403E0,1.3552735E0,2.5683595E-2,2.4150488E1,-4.608374E0,6.8130374E0,-9.138282E0,3.8723266E0,1.2019179E1,-3.9976041E0],"split_indices":[0,5,5,2,0,5,5,0,0,6,6,5,5,0,5,0,0,0,0,0,5,0,0,0,0,6,5,5,0,0,0,0,0,5,7,0,5,5,5,0,0,0,0,0,0,0,0,0,0,0,0,0,0,0,0,0,0,0,0,0,0],"split_type":[0,0,0,0,0,0,0,0,0,0,0,0,0,0,0,0,0,0,0,0,0,0,0,0,0,0,0,0,0,0,0,0,0,0,0,0,0,0,0,0,0,0,0,0,0,0,0,0,0,0,0,0,0,0,0,0,0,0,0,0,0],"sum_hessian":[2.25E2,2.1E2,1.5E1,1.4E1,1.96E2,8E0,7E0,1.2E1,2E0,1.4E1,1.82E2,2E0,6E0,1E0,6E0,9E0,3E0,1E0,1E0,2E0,1.2E1,2.6E1,1.56E2,1E0,1E0,3E0,3E0,4E0,2E0,8E0,1E0,1E0,2E0,4E0,8E0,4E0,2.2E1,7.2E1,8.4E1,1E0,2E0,1E0,2E0,3E0,1E0,3E0,5E0,1E0,1E0,1E0,3E0,7E0,1E0,2E0,2E0,1.1E1,1.1E1,1.2E1,6E1,1.4E1,7E1],"tree_param":{"num_deleted":"0","num_feature":"8","num_nodes":"61","size_leaf_vector":"0"}},{"base_weights":[1.2437819E0,-8.4991693E-1,9.454993E0,-2.2980256E0,8.278203E0,-9.408203E0,1.2519678E1,-4.7844854E-1,-1.1041233E1,-4.097356E0,2.0016977E1,5.9814453E0,-2.24458E1,4.6002307E0,2.1030634E1,-2.9281895E0,2.0203543E1,8.631445E1,-2.2282265E1,2.4355469E0,-1.0044922E1,3.2056362E1,5.1180243E0,6.7893555E1,-3.728711E1,-8.2356445E1,2.4976562E1,-6.481201E0,1.0203646E1,4.106724E1,8.623948E0,-4.44792E0,1.39296875E1,-6.138672E0,4.742271E1,1.23265625E2,6.2060547E0,-1.4671875E2,-5.082626E0,-1.2991211E1,4.7498047E1,2.8238933E0,-4.3628906E1,-5.957031E-1,5.6694336E1,2.5533691E1,-1.6577148E1,-5.9552734E1,3.6220703E0,3.386035E1,3.6044922E0,-1.6304966E1,3.1142578E1,1.5326021E1,-1.5394531E1,6.786758E1,-1.7289062E1,-1.666155E1,3.2677456E1,-1.2795997E0,-3.568633E1,1.8540039E0,4.148828E1,-2.7645313E1,2.2279297E1,1.3966992E2,8.769856E0,-4.5673958E1,6.313433E1,-4.9316406E-1,-1.5392187E1,-2.3522136E0,6E0,2.1567383E1,-1.5172526E1,7.6308594E0,2.8957682E1,-2.1653646E1,-6.738281E-1,5.7714844E0,-2.094629E1,3.1905691E1,-3.4430804E0,-3.156836E1,8.4765625E0,-1.1901041E0,1.14302734E2,-3.436914E1,8.435547E0,2.285612E1,-3.7039845E1,5.4109375E1,2.008724E1],"categories":[],"categories_nodes":[],"categories_segments":[],"categories_sizes":[],"default_left":[1,1,1,1,1,1,1,1,1,1,1,1,1,1,1,1,1,1,1,1,1,1,1,0,1,0,1,1,1,1,1,1,1,1,1,0,0,0,1,1,0,1,0,1,0,1,1,0,0,0,0,1,0,1,1,1,1,1,1,0,0,0,0,0,0,0,0,0,0,0,0,0,0,0,0,0,0,0,0,0,0,0,0,0,0,0,0,0,0,0,0,0,0],"id":34,"left_children":[1,3,5,7,9,11,13,15,17,19,21,23,25,27,29,31,33,35,37,39,41,43,45,-1,47,-1,49,51,53,55,57,59,61,63,65,-1,-1,-1,67,69,-1,71,-1,73,-1,75,77,-1,-1,-1,-1,79,-1,81,83,85,87,89,91,-1,-1,-1,-1,-1,-1,-1,-1,-1,-1,-1,-1,-1,-1,-1,-1,-1,-1,-1,-1,-1,-1,-1,-1,-1,-1,-1,-1,-1,-1,-1,-1,-1,-1],"loss_changes":[3.8933838E3,2.4115742E3,2.7770361E3,2.492421E3,3.7138633E3,1.5387666E3,2.599336E3,6.696343E3,3.14715E4,5.295782E2,2.1678003E3,1.3246944E4,1.3421398E4,1.432197E3,4.36901E3,3.0850503E3,1.0329299E4,8.1153027E3,5.276085E4,5.483235E3,3.1485059E3,5.6651387E3,3.5237258E3,0E0,2.948309E3,0E0,4.4754553E2,3.4646362E3,2.202789E3,1.21211455E4,8.451121E3,1.0742422E4,3.2509692E3,5.5053184E3,2.3734441E4,0E0,0E0,0E0,6.6570984E4,1.7245422E2,0E0,1.1275249E2,0E0,1.6195012E3,0E0,2.4224365E1,3.083418E2,0E0,0E0,0E0,0E0,8.381387E2,0E0,4.1552656E3,1.425852E3,1.6169557E4,1.6080574E3,6.483706E3,8.0191943E2,0E0,0E0,0E0,0E0,0E0,0E0,0E0,0E0,0E0,0E0,0E0,0E0,0E0,0E0,0E0,0E0,0E0,0E0,0E0,0E0,0E0,0E0,0E0,0E0,0E0,0E0,0E0,0E0,0E0,0E0,0E0,0E0,0E0,0E0],"parents":[2147483647,0,0,1,1,2,2,3,3,4,4,5,5,6,6,7,7,8,8,9,9,10,10,11,11,12,12,13,13,14,14,15,15,16,16,17,17,18,18,19,19,20,20,21,21,22,22,24,24,26,26,27,27,28,28,29,29,30,30,31,31,32,32,33,33,34,34,38,38,39,39,41,41,43,43,45,45,46,46,51,51,53,53,54,54,55,55,56,56,57,57,58,58],"right_children":[2,4,6,8,10,12,14,16,18,20,22,24,26,28,30,32,34,36,38,40,42,44,46,-1,48,-1,50,52,54,56,58,60,62,64,66,-1,-1,-1,68,70,-1,72,-1,74,-1,76,78,-1,-1,-1,-1,80,-1,82,84,86,88,90,92,-1,-1,-1,-1,-1,-1,-1,-1,-1,-1,-1,-1,-1,-1,-1,-1,-1,-1,-1,-1,-1,-1,-1,-1,-1,-1,-1,-1,-1,-1,-1,-1,-1,-1],"split_conditions":[9.85E1,3.75E2,3.25E2,8.35E1,6E1,5.75E1,5.25E1,7.65E1,2.25E2,5.15E1,7.65E1,1.16E2,1.16E2,1.16E2,1.16E2,1.7E2,7.5E0,9.3E1,3.25E2,5E1,5E1,5.15E1,5.15E1,2.0368067E1,1.41E2,-2.4706934E1,1.41E2,3.75E2,3.75E2,1.25E2,1.41E2,8.5E0,6.5E0,4.95E1,3.25E2,3.697969E1,1.8618165E0,-4.4015625E1,6.75E1,3.25E1,1.4249414E1,3.75E1,-1.3088673E1,6.75E1,1.70083E1,8.35E1,9.3E1,-1.7865822E1,1.0866212E0,1.0158106E1,1.0813477E0,2.45E1,9.342773E0,1.41E2,1.41E2,6.75E1,1.7E2,6.75E1,6E1,-3.8387993E-1,-1.0705899E1,5.562012E-1,1.2446485E1,-8.293594E0,6.6837893E0,4.1900978E1,2.6309571E0,-1.3702188E1,1.89403E1,-1.4794922E-1,-4.617656E0,-7.056641E-1,1.8000001E0,6.4702153E0,-4.5517583E0,2.289258E0,8.6873045E0,-6.496094E0,-2.0214845E-1,1.7314454E0,-6.283887E0,9.571708E0,-1.0329242E0,-9.470509E0,2.5429688E0,-3.5703126E-1,3.429082E1,-1.0310742E1,2.5306642E0,6.856836E0,-1.1111954E1,1.6232813E1,6.026172E0],"split_indices":[0,7,7,0,0,5,5,0,7,5,0,0,0,0,0,5,6,0,7,0,0,5,5,0,0,0,0,7,7,5,0,6,2,5,7,0,0,0,5,0,0,0,0,0,0,0,0,0,0,0,0,5,0,0,0,5,5,5,5,0,0,0,0,0,0,0,0,0,0,0,0,0,0,0,0,0,0,0,0,0,0,0,0,0,0,0,0,0,0,0,0,0,0],"split_type":[0,0,0,0,0,0,0,0,0,0,0,0,0,0,0,0,0,0,0,0,0,0,0,0,0,0,0,0,0,0,0,0,0,0,0,0,0,0,0,0,0,0,0,0,0,0,0,0,0,0,0,0,0,0,0,0,0,0,0,0,0,0,0,0,0,0,0,0,0,0,0,0,0,0,0,0,0,0,0,0,0,0,0,0,0,0,0,0,0,0,0,0,0],"sum_hessian":[2.25E2,1.8E2,4.5E1,1.56E2,2.4E1,6E0,3.9E1,1.3E2,2.6E1,1.2E1,1.2E1,3E0,3E0,2.1E1,1.8E1,1.17E2,1.3E1,2E0,2.4E1,6E0,6E0,6E0,6E0,1E0,2E0,1E0,2E0,7E0,1.4E1,6E0,1.2E1,1.08E2,9E0,7E0,6E0,1E0,1E0,2E0,2.2E1,5E0,1E0,5E0,1E0,3E0,3E0,3E0,3E0,1E0,1E0,1E0,1E0,6E0,1E0,1.2E1,2E0,4E0,2E0,6E0,6E0,9.9E1,9E0,7E0,2E0,4E0,3E0,1E0,5E0,1.4E1,8E0,1E0,4E0,2E0,3E0,1E0,2E0,1E0,2E0,2E0,1E0,1E0,5E0,6E0,6E0,1E0,1E0,2E0,2E0,1E0,1E0,2E0,4E0,1E0,5E0],"tree_param":{"num_deleted":"0","num_feature":"8","num_nodes":"93","size_leaf_vector":"0"}},{"base_weights":[1.3412179E0,6.450295E-2,9.370086E0,8.812756E-1,-1.061649E1,-3.0615985E0,1.7382812E1,-4.691159E0,4.3747406E0,4.736621E1,-3.0735973E1,3.0594308E0,-8.745256E0,3.6380207E1,1.30078125E1,-1.7105972E0,-3.6695477E1,-2.3120443E1,6.6898065E0,-5.413086E0,6.676367E1,2.664388E1,-4.6447483E1,-9.888347E0,4.0373047E1,2.1585286E0,-3.7083984E1,7.6492186E0,3.5464844E1,3.5191813E0,-2.1386858E1,-7.359342E1,1.5185547E-1,-5.281211E1,1.11953125E1,-4.1861186E0,1.3447085E1,-1.3616211E1,5.358203E1,-6.551953E1,1.3536458E1,-4.189453E-1,-1.1698438E1,5.3149414E0,-2.7695312E0,1.2811899E1,-1.7272135E1,7.205078E0,4.5992188E1,-1.3434101E1,1.801273E1,1.259654E1,-4.8448975E1,-1.3642578E1,9.297526E0,-1.4421387E1,-1.031875E2,3.6506836E1,-4.2592773E0,-3.1422525E1,4.695638E-1,3.6373672E1,-8.605183E-1,2.4825195E1,-8.4714516E1,-1.8821615E0,1.3453125E1,-9.183594E0,5.029297E0,6.000868E0,2.2509375E1,-2.6833984E1,9.2578125E-1],"categories":[],"categories_nodes":[],"categories_segments":[],"categories_sizes":[],"default_left":[1,1,1,1,1,1,1,1,1,1,1,1,1,0,1,1,1,1,1,0,0,1,1,1,0,1,0,1,1,1,1,0,1,1,1,1,1,0,0,1,0,0,0,1,1,1,1,0,0,0,0,0,0,0,0,0,0,0,0,0,0,0,0,0,0,0,0,0,0,0,0,0,0],"id":35,"left_children":[1,3,5,7,9,11,13,15,17,19,21,23,25,-1,27,29,31,33,35,-1,-1,37,39,41,-1,43,-1,45,47,49,51,-1,53,55,57,59,61,-1,-1,63,-1,-1,-1,65,67,69,71,-1,-1,-1,-1,-1,-1,-1,-1,-1,-1,-1,-1,-1,-1,-1,-1,-1,-1,-1,-1,-1,-1,-1,-1,-1,-1],"loss_changes":[2.3160256E3,1.719249E3,3.141182E3,3.583003E3,1.7787994E4,4.7902344E2,1.1059312E3,6.7099775E3,7.347479E3,4.456535E3,1.1154308E4,3.7811213E3,2.2430427E3,0E0,1.7744695E3,6.866828E3,8.1687207E3,9.761274E3,7.7729146E3,0E0,0E0,3.9831814E3,1.1183051E4,9.7941895E1,0E0,1.08049835E2,0E0,2.1512036E3,5.611233E2,1.3264785E4,1.3485566E4,0E0,6.314796E2,8.181633E3,2.1113887E3,5.2137207E3,2.1352895E4,0E0,0E0,1.4242217E4,0E0,0E0,0E0,2.5960632E2,1.9625352E2,7.235718E2,5.468596E2,0E0,0E0,0E0,0E0,0E0,0E0,0E0,0E0,0E0,0E0,0E0,0E0,0E0,0E0,0E0,0E0,0E0,0E0,0E0,0E0,0E0,0E0,0E0,0E0,0E0,0E0],"parents":[2147483647,0,0,1,1,2,2,3,3,4,4,5,5,6,6,7,7,8,8,9,9,10,10,11,11,12,12,14,14,15,15,16,16,17,17,18,18,21,21,22,22,23,23,25,25,27,27,28,28,29,29,30,30,32,32,33,33,34,34,35,35,36,36,39,39,43,43,44,44,45,45,46,46],"right_children":[2,4,6,8,10,12,14,16,18,20,22,24,26,-1,28,30,32,34,36,-1,-1,38,40,42,-1,44,-1,46,48,50,52,-1,54,56,58,60,62,-1,-1,64,-1,-1,-1,66,68,70,72,-1,-1,-1,-1,-1,-1,-1,-1,-1,-1,-1,-1,-1,-1,-1,-1,-1,-1,-1,-1,-1,-1,-1,-1,-1,-1],"split_conditions":[3.75E2,7.5E0,6E1,4.95E1,3.75E1,5.15E1,6.75E1,6.5E0,5.5E0,2.45E1,3.25E2,5E1,5E1,1.09140625E1,1.41E2,4.45E1,6E0,7.25E1,5E1,-1.6239258E0,2.0029102E1,5.75E1,1.25E2,3.25E1,1.2111915E1,4.2E1,-1.11251955E1,1.16E2,5.15E1,7E1,7E1,-2.2078028E1,3.45E1,6.75E1,8.75E1,3.25E2,8.35E1,-4.0848637E0,1.607461E1,6E0,4.0609374E0,-1.256836E-1,-3.5095315E0,3.75E1,4.45E1,9.3E1,5.15E1,2.1615236E0,1.3797657E1,-4.0302305E0,5.403819E0,3.7789624E0,-1.4534693E1,-4.0927734E0,2.789258E0,-4.326416E0,-3.0956251E1,1.0952051E1,-1.2777833E0,-9.426758E0,1.4086916E-1,1.0912102E1,-2.581555E-1,7.447559E0,-2.5414356E1,-5.6464845E-1,4.035938E0,-2.7550783E0,1.5087892E0,1.8002604E0,6.752813E0,-8.050196E0,2.777344E-1],"split_indices":[7,2,0,5,5,5,0,2,2,5,7,0,0,0,0,5,6,5,0,0,0,5,5,0,0,0,0,0,5,0,0,0,5,5,5,7,0,0,0,6,0,0,0,0,0,0,5,0,0,0,0,0,0,0,0,0,0,0,0,0,0,0,0,0,0,0,0,0,0,0,0,0,0],"split_type":[0,0,0,0,0,0,0,0,0,0,0,0,0,0,0,0,0,0,0,0,0,0,0,0,0,0,0,0,0,0,0,0,0,0,0,0,0,0,0,0,0,0,0,0,0,0,0,0,0,0,0,0,0,0,0,0,0,0,0,0,0,0,0,0,0,0,0,0,0,0,0,0,0],"sum_hessian":[2.25E2,1.95E2,3E1,1.82E2,1.3E1,1.2E1,1.8E1,7E1,1.12E2,3E0,1E1,6E0,6E0,2E0,1.6E1,6.5E1,5E0,8E0,1.04E2,1E0,2E0,2E0,8E0,5E0,1E0,5E0,1E0,1.4E1,2E0,5.2E1,1.3E1,2E0,3E0,4E0,4E0,4E1,6.4E1,1E0,1E0,6E0,2E0,1E0,4E0,3E0,2E0,1.2E1,2E0,1E0,1E0,2.4E1,2.8E1,6E0,7E0,1E0,2E0,3E0,1E0,1E0,3E0,5E0,3.5E1,2.4E1,4E1,1E0,5E0,2E0,1E0,1E0,1E0,8E0,4E0,1E0,1E0],"tree_param":{"num_deleted":"0","num_feature":"8","num_nodes":"73","size_leaf_vector":"0"}},{"base_weights":[8.799433E-1,-6.050047E-1,6.703762E0,4.535623E0,-2.339298E0,-1.0202567E1,9.494776E0,4.21416E1,9.3191314E-1,-1.8844604E1,-1.3744512E-1,1.03125E0,-1.8885742E1,-5.6063056E0,1.2324563E1,-2.409375E1,7.2251305E1,-4.437207E1,5.4390135E0,1.5986328E1,-2.4962332E1,-1.9973091E1,1.4436014E0,5.5007812E1,-3.5296875E1,-6.987402E1,2.1401693E1,-3.3984374E-2,-1.3024739E1,9.786921E0,2.8910156E1,1.8812012E1,8.956494E1,2.5833333E0,-9.261914E1,-2.8622684E0,2.106013E1,-1.6327908E1,-3.3753582E1,-5.5578682E1,6.976432E1,6.650092E0,-1.3866581E1,-5.3322266E1,3.7695312E-1,2.8910156E1,3.1923828E0,-1.53125E1,1.5255859E1,5.6103516E0,-2.514746E1,1.3098594E1,-3.438616E0,7.298828E0,3.368099E1,-9.966797E0,1.245421E1,2.5006674E1,-1.7460938E0,-2.9291407E1,-9.882812E-2,-3.791289E1,-6.4785156E0,2.9356445E1,-7.462728E1,1.0207324E2,2.5732422E0,8.99788E1,-8.176424E-1,-1.17203125E2,-1.8711661E0,2.203125E0,-2.5171875E1,-1.6664062E1,