{"learner":{"attributes":{"scikit_learn":"{\"n_estimators\": 100, \"objective\": \"reg:squarederror\", \"max_depth\": 4, \"learning_rate\": 0.1, \"verbosity\": null, \"booster\": null, \"tree_method\": null, \"gamma\": null, \"min_child_weight\": null, \"max_delta_step\": null, \"subsample\": null, \"colsample_bytree\": null, \"colsample_bylevel\": null, \"colsample_bynode\": null, \"reg_alpha\": null, \"reg_lambda\": null, \"scale_pos_weight\": null, \"base_score\": null, \"missing\": NaN, \"num_parallel_tree\": null, \"kwargs\": {}, \"random_state\": 42, \"n_jobs\": null, \"monotone_constraints\": null, \"interaction_constraints\": null, \"importance_type\": \"gain\", \"gpu_id\": null, \"validate_parameters\": null, \"_estimator_type\": \"regressor\"}"},"feature_names":["area_aov","order_freq","competition_cuisine_1","competition_cuisine_2","competition_cuisine_3","agg_position","brand_aov","brand_cuisine","brand_orders","area_population","area_households","area_top_nationality_1","area_top_nationality_2","area_top_nationality_3","area_top_cuisine_1","area_top_cuisine_2","area_top_cuisine_3"],"feature_types":["float","float","float","float","float","float","float","float","float","float","float","float","float","float","float","float","float"],"gradient_booster":{"model":{"gbtree_model_param":{"num_trees":"100","size_leaf_vector":"0"},"tree_info":[0,0,0,0,0,0,0,0,0,0,0,0,0,0,0,0,0,0,0,0,0,0,0,0,0,0,0,0,0,0,0,0,0,0,0,0,0,0,0,0,0,0,0,0,0,0,0,0,0,0,0,0,0,0,0,0,0,0,0,0,0,0,0,0,0,0,0,0,0,0,0,0,0,0,0,0,0,0,0,0,0,0,0,0,0,0,0,0,0,0,0,0,0,0,0,0,0,0,0,0],"trees":[{"base_weights":[4.121129E0,2.6823206E0,4.5110044E0,1.5790617E0,4.6914554E0,4.982416E0,2.7849143E0,1.9045953E0,4.4929042E-2,5.06193E0,1.0490661E0,5.394842E0,2.0459082E0,4.496362E0,1.4118726E0,3.0165021E0,9.5170224E-1,-1.8945763E-1,1.8621047E-1,5.5028925E0,-5.7868257E-2,4.9848723E0,4.9407968E-1,5.2186875E0,1.5529245E0,2.698171E0,4.3145213E-1],"categories":[],"categories_nodes":[],"categories_segments":[],"categories_sizes":[],"default_left":[true,true,true,true,true,true,true,true,true,false,false,true,true,true,true,false,false,false,false,false,false,false,false,false,false,false,false],"id":0,"left_children":[1,3,5,7,9,11,13,15,17,-1,-1,19,21,23,25,-1,-1,-1,-1,-1,-1,-1,-1,-1,-1,-1,-1],"loss_changes":[4.455664E1,4.5790207E1,4.9592896E1,8.404427E0,5.4850006E0,6.162805E1,3.8299606E1,1.1962582E1,1.6773693E-1,0E0,0E0,3.09552E1,3.8583992E1,8.904724E0,1.3969227E1,0E0,0E0,0E0,0E0,0E0,0E0,0E0,0E0,0E0,0E0,0E0,0E0],"parents":[2147483647,0,0,1,1,2,2,3,3,4,4,5,5,6,6,7,7,8,8,11,11,12,12,13,13,14,14],"right_children":[2,4,6,8,10,12,14,16,18,-1,-1,20,22,24,26,-1,-1,-1,-1,-1,-1,-1,-1,-1,-1,-1,-1],"split_conditions":[2.1189356E-1,6.7097616E-1,8.136678E-1,7.599504E-1,8.923135E-1,8.30433E-1,4.6900952E-1,4.1581726E-1,8.4477645E-1,5.0619304E-1,1.0490661E-1,9.0941775E-1,3.7000662E-1,7.8569216E-1,6.2420976E-1,3.0165023E-1,9.517022E-2,-1.8945763E-2,1.8621048E-2,5.502893E-1,-5.786826E-3,4.9848723E-1,4.940797E-2,5.2186877E-1,1.5529245E-1,2.6981708E-1,4.3145213E-2],"split_indices":[13,12,16,0,0,14,0,1,0,0,0,0,7,5,13,0,0,0,0,0,0,0,0,0,0,0,0],"split_type":[0,0,0,0,0,0,0,0,0,0,0,0,0,0,0,0,0,0,0,0,0,0,0,0,0,0,0],"sum_hessian":[1E2,2.3E1,7.7E1,1.6E1,7E0,5.9E1,1.8E1,1.3E1,3E0,6E0,1E0,5.1E1,8E0,7E0,1.1E1,5E0,8E0,1E0,2E0,5E1,1E0,2E0,6E0,5E0,2E0,4E0,7E0],"tree_param":{"num_deleted":"0","num_feature":"17","num_nodes":"27","size_leaf_vector":"0"}},{"base_weights":[3.7396114E0,2.4560716E0,4.0866027E0,1.4444789E0,4.2986975E0,4.5023813E0,2.5585346E0,1.74248E0,4.0354967E-2,4.6280503E0,9.966128E-1,4.865829E0,1.9021947E0,4.131371E0,1.2967656E0,2.765127E0,8.671065E-1,-1.7998475E-1,1.7379646E-1,5.0979E0,1.6647835E0,4.6525474E0,4.5173E-1,5.092763E0,1.8967884E0,2.4823172E0,3.9370003E-1],"categories":[],"categories_nodes":[],"categories_segments":[],"categories_sizes":[],"default_left":[true,true,true,true,true,true,true,true,true,false,false,true,true,true,true,false,false,false,false,false,false,false,false,false,false,false,false],"id":1,"left_children":[1,3,5,7,9,11,13,15,17,-1,-1,19,21,23,25,-1,-1,-1,-1,-1,-1,-1,-1,-1,-1,-1,-1],"loss_changes":[3.4946167E1,3.8526306E1,3.8036743E1,7.043003E0,4.088043E0,4.7446167E1,3.234916E1,1.0135113E1,1.4889055E-1,0E0,0E0,3.0142334E1,3.3801918E1,7.526581E0,1.1870281E1,0E0,0E0,0E0,0E0,0E0,0E0,0E0,0E0,0E0,0E0,0E0,0E0],"parents":[2147483647,0,0,1,1,2,2,3,3,4,4,5,5,6,6,7,7,8,8,11,11,12,12,13,13,14,14],"right_children":[2,4,6,8,10,12,14,16,18,-1,-1,20,22,24,26,-1,-1,-1,-1,-1,-1,-1,-1,-1,-1,-1,-1],"split_conditions":[2.1189356E-1,6.7097616E-1,8.136678E-1,7.599504E-1,8.923135E-1,8.30433E-1,4.6900952E-1,4.1581726E-1,8.4477645E-1,4.6280503E-1,9.966128E-2,9.62705E-1,3.7000662E-1,4.150728E-1,6.2420976E-1,2.765127E-1,8.6710654E-2,-1.7998476E-2,1.7379647E-2,5.0979E-1,1.6647835E-1,4.6525475E-1,4.5173E-2,5.0927633E-1,1.8967883E-1,2.4823172E-1,3.9370004E-2],"split_indices":[13,12,16,0,0,14,0,1,0,0,0,15,7,9,13,0,0,0,0,0,0,0,0,0,0,0,0],"split_type":[0,0,0,0,0,0,0,0,0,0,0,0,0,0,0,0,0,0,0,0,0,0,0,0,0,0,0],"sum_hessian":[1E2,2.3E1,7.7E1,1.6E1,7E0,5.9E1,1.8E1,1.3E1,3E0,6E0,1E0,5.1E1,8E0,7E0,1.1E1,5E0,8E0,1E0,2E0,4.7E1,4E0,2E0,6E0,4E0,3E0,4E0,7E0],"tree_param":{"num_deleted":"0","num_feature":"17","num_nodes":"27","size_leaf_vector":"0"}},{"base_weights":[3.3963265E0,3.6419916E0,1.8636061E0,3.7631001E0,9.2741376E-1,3.3691504E0,-6.308204E-2,2.4228117E0,4.1022E0,-1.2195742E-1,1.667647E0,4.117135E0,1.4048861E0,-4.7384095E-1,7.794631E-1,1.5941765E0,3.9524918E0,2.2830698E0,4.478094E0,-2.521002E-1,6.916407E-2,-5.769701E-1,2.0902485E-2,9.467821E-1,2.2241256E-1],"categories":[],"categories_nodes":[],"categories_segments":[],"categories_sizes":[],"default_left":[true,true,true,true,true,true,true,true,true,true,false,false,false,true,true,false,false,false,false,false,false,false,false,false,false],"id":2,"left_children":[1,3,5,7,9,11,13,15,17,19,-1,-1,-1,21,23,-1,-1,-1,-1,-1,-1,-1,-1,-1,-1],"loss_changes":[3.124292E1,2.4783325E1,4.6623966E1,2.7329468E1,4.087279E0,7.439049E0,3.1380048E0,1.778241E1,3.353943E1,9.2055514E-2,0E0,0E0,0E0,3.18195E-1,6.903911E-2,0E0,0E0,0E0,0E0,0E0,0E0,0E0,0E0,0E0,0E0],"parents":[2147483647,0,0,1,1,2,2,3,3,4,4,5,5,6,6,7,7,8,8,9,9,13,13,14,14],"right_children":[2,4,6,8,10,12,14,16,18,20,-1,-1,-1,22,24,-1,-1,-1,-1,-1,-1,-1,-1,-1,-1],"split_conditions":[7.8825647E-1,9.725403E-1,6.727723E-1,2.1189356E-1,5.461498E-1,9.0592706E-1,9.1743135E-1,7.148029E-1,1.1658862E-1,4.586276E-1,1.667647E-1,4.117135E-1,1.4048861E-1,7.892189E-1,9.6021676E-1,1.5941766E-1,3.952492E-1,2.28307E-1,4.4780943E-1,-2.5210021E-2,6.916407E-3,-5.769701E-2,2.0902485E-3,9.4678216E-2,2.2241255E-2],"split_indices":[0,15,6,13,2,0,0,12,11,0,0,0,0,1,0,0,0,0,0,0,0,0,0,0,0],"split_type":[0,0,0,0,0,0,0,0,0,0,0,0,0,0,0,0,0,0,0,0,0,0,0,0,0],"sum_hessian":[1E2,8.5E1,1.5E1,8.1E1,4E0,8E0,7E0,1.8E1,6.3E1,2E0,2E0,5E0,3E0,5E0,2E0,1.3E1,5E0,1.2E1,5.1E1,1E0,1E0,4E0,1E0,1E0,1E0],"tree_param":{"num_deleted":"0","num_feature":"17","num_nodes":"25","size_leaf_vector":"0"}},{"base_weights":[3.0764244E0,3.4956756E0,2.2567554E0,3.6080494E0,-2.9400468E-2,2.8933523E0,2.486084E-1,4.0535507E0,2.4475443E0,1.8627548E-1,-2.3037618E-1,1.8159202E0,4.3933907E0,1.5154787E0,-2.5754404E-1,4.232052E0,2.0334549E-1,3.9048414E0,1.8391675E0,2.6167724E0,7.243156E-1,2.1836414E0,4.949092E0,-1.9522503E-2,-6.477391E-1],"categories":[],"categories_nodes":[],"categories_segments":[],"categories_sizes":[],"default_left":[true,true,true,true,true,true,true,true,true,false,false,true,true,false,true,false,false,false,false,false,false,false,false,false,false],"id":3,"left_children":[1,3,5,7,9,11,13,15,17,-1,-1,19,21,-1,23,-1,-1,-1,-1,-1,-1,-1,-1,-1,-1],"loss_changes":[2.6819519E1,2.5854248E1,4.658075E1,2.2650146E1,1.7295033E-1,3.727527E1,6.8025975E0,2.9379211E1,1.0550064E1,0E0,0E0,1.3840481E1,2.7005157E0,0E0,7.303531E-1,0E0,0E0,0E0,0E0,0E0,0E0,0E0,0E0,0E0,0E0],"parents":[2147483647,0,0,1,1,2,2,3,3,4,4,5,5,6,6,7,7,8,8,11,11,12,12,14,14],"right_children":[2,4,6,8,10,12,14,16,18,-1,-1,20,22,-1,24,-1,-1,-1,-1,-1,-1,-1,-1,-1,-1],"split_conditions":[6.3205075E-1,9.526249E-1,7.0308244E-1,8.0080366E-1,6.1562395E-1,8.694051E-1,1.2980601E-1,9.527898E-1,7.158428E-2,1.8627549E-2,-2.3037618E-2,5.93139E-1,3.505807E-1,1.5154788E-1,5.5764383E-1,4.232052E-1,2.033455E-2,3.9048415E-1,1.8391675E-1,2.6167724E-1,7.243156E-2,2.1836415E-1,4.949092E-1,-1.9522504E-3,-6.477391E-2],"split_indices":[6,9,0,16,0,6,10,1,11,0,0,16,2,0,10,0,0,0,0,0,0,0,0,0,0],"split_type":[0,0,0,0,0,0,0,0,0,0,0,0,0,0,0,0,0,0,0,0,0,0,0,0,0],"sum_hessian":[1E2,6.4E1,3.6E1,6.2E1,2E0,2.7E1,9E0,4.3E1,1.9E1,1E0,1E0,1.7E1,1E1,2E0,7E0,4.1E1,2E0,4E0,1.5E1,9E0,8E0,3E0,7E0,5E0,2E0],"tree_param":{"num_deleted":"0","num_feature":"17","num_nodes":"25","size_leaf_vector":"0"}},{"base_weights":[2.7900267E0,6.255565E-1,2.8962433E0,1.4654328E0,-1.6073981E-1,3.1320105E0,1.6163841E0,2.2448047E-1,-6.582003E-1,-6.3683635E-1,3.1877785E0,9.982444E-1,2.9002707E0,1.1617525E0,3.3089728E0,1.5749806E0,-2.395297E-1,3.2135038E0,8.236691E-1],"categories":[],"categories_nodes":[],"categories_segments":[],"categories_sizes":[],"default_left":[true,true,true,false,true,true,true,false,false,false,true,true,true,false,false,false,false,false,false],"id":4,"left_children":[1,3,5,-1,7,9,11,-1,-1,-1,13,15,17,-1,-1,-1,-1,-1,-1],"loss_changes":[2.1408386E1,4.1979036E0,2.3905396E1,0E0,9.142806E-1,1.8844543E1,1.0596386E1,0E0,0E0,0E0,1.5553711E1,9.657554E0,6.0543823E-1,0E0,0E0,0E0,0E0,0E0,0E0],"parents":[2147483647,0,0,1,1,2,2,4,4,5,5,6,6,10,10,11,11,12,12],"right_children":[2,4,6,-1,8,10,12,-1,-1,-1,14,16,18,-1,-1,-1,-1,-1,-1],"split_conditions":[7.188234E-2,4.3294334E-1,8.5874736E-1,1.4654328E-1,6.928458E-1,2.0116867E-2,6.4266276E-1,2.2448046E-2,-6.582003E-2,-6.368364E-2,3.9551094E-2,6.797013E-1,8.273621E-1,1.1617525E-1,3.308973E-1,1.5749806E-1,-2.395297E-2,3.213504E-1,8.2366906E-2],"split_indices":[14,0,15,0,0,12,11,0,0,0,13,6,0,0,0,0,0,0,0],"split_type":[0,0,0,0,0,0,0,0,0,0,0,0,0,0,0,0,0,0,0],"sum_hessian":[1E2,5E0,9.5E1,2E0,3E0,7.9E1,1.6E1,2E0,1E0,1E0,7.8E1,1.2E1,4E0,5E0,7.3E1,8E0,4E0,3E0,1E0],"tree_param":{"num_deleted":"0","num_feature":"17","num_nodes":"19","size_leaf_vector":"0"}},{"base_weights":[2.5211608E0,2.8779569E0,1.8262179E0,2.0954065E0,3.4888453E0,1.1514415E0,3.53297E0,2.4807901E0,7.617632E-2,1.3157659E0,4.0839887E0,4.1134825E-1,2.1039534E0,3.9080427E0,7.865846E-2,3.1895285E0,1.0278562E0,-1.0379581E0,8.927331E-1,2.6789827E0,1.8766026E-1,1.2255602E0,4.2636404E0,-2.737147E-1,1.4291117E0,6.8053037E-1,2.7305987E0,1.6279165E0,4.3269477E0],"categories":[],"categories_nodes":[],"categories_segments":[],"categories_sizes":[],"default_left":[true,true,true,true,true,true,true,true,true,true,true,true,true,true,false,false,false,false,false,false,false,false,false,false,false,false,false,false,false],"id":5,"left_children":[1,3,5,7,9,11,13,15,17,19,21,23,25,27,-1,-1,-1,-1,-1,-1,-1,-1,-1,-1,-1,-1,-1,-1,-1],"loss_changes":[1.9787415E1,2.3762756E1,3.8544014E1,2.3934555E1,3.9891693E1,1.8873074E1,1.2648773E1,2.3495117E1,6.3851433E0,1.3337936E1,8.63974E0,1.2244112E1,8.84552E0,1.5524902E0,0E0,0E0,0E0,0E0,0E0,0E0,0E0,0E0,0E0,0E0,0E0,0E0,0E0,0E0,0E0],"parents":[2147483647,0,0,1,1,2,2,3,3,4,4,5,5,6,6,7,7,8,8,9,9,10,10,11,11,12,12,13,13],"right_children":[2,4,6,8,10,12,14,16,18,20,22,24,26,28,-1,-1,-1,-1,-1,-1,-1,-1,-1,-1,-1,-1,-1,-1,-1],"split_conditions":[6.3205075E-1,5.37185E-1,8.814182E-1,7.869148E-1,1.8117334E-1,7.697165E-1,6.8682826E-1,5.337956E-1,9.5731035E-2,2.5858036E-1,1.066432E-1,8.07589E-1,1.431121E-1,1.2773588E-1,7.865846E-3,3.1895286E-1,1.02785625E-1,-1.0379582E-1,8.927331E-2,2.678983E-1,1.8766027E-2,1.2255602E-1,4.2636403E-1,-2.737147E-2,1.4291118E-1,6.805304E-2,2.7305987E-1,1.6279165E-1,4.3269476E-1],"split_indices":[6,8,6,9,9,2,0,15,6,0,3,12,14,0,0,0,0,0,0,0,0,0,0,0,0,0,0,0,0],"split_type":[0,0,0,0,0,0,0,0,0,0,0,0,0,0,0,0,0,0,0,0,0,0,0,0,0,0,0,0,0],"sum_hessian":[1E2,6.4E1,3.6E1,3E1,3.4E1,2.7E1,9E0,2.5E1,5E0,8E0,2.6E1,1.6E1,1.1E1,8E0,1E0,1.6E1,9E0,2E0,3E0,3E0,5E0,2E0,2.4E1,1E1,6E0,4E0,7E0,2E0,6E0],"tree_param":{"num_deleted":"0","num_feature":"17","num_nodes":"29","size_leaf_vector":"0"}},{"base_weights":[2.2918448E0,2.3955808E0,5.5659544E-1,4.5022157E-1,2.498654E0,-4.048358E-2,1.0145255E0,1.1192983E0,-1.6414142E-1,2.631407E0,8.0900735E-1,-3.0811346E-1,1.5143086E-1,1.8888116E-1,-6.116046E-1,-6.563873E-1,2.6795068E0,1.4298254E0,-1.6926706E-1],"categories":[],"categories_nodes":[],"categories_segments":[],"categories_sizes":[],"default_left":[true,true,true,true,true,true,false,false,true,true,true,false,false,false,false,false,false,false,false],"id":6,"left_children":[1,3,5,7,9,11,-1,-1,13,15,17,-1,-1,-1,-1,-1,-1,-1,-1],"loss_changes":[1.6847351E1,1.792389E1,1.9550147E0,2.6500595E0,1.8058716E1,2.5210607E-1,0E0,0E0,7.4737895E-1,1.4884644E1,5.1006646E0,0E0,0E0,0E0,0E0,0E0,0E0,0E0,0E0],"parents":[2147483647,0,0,1,1,2,2,3,3,4,4,5,5,8,8,9,9,10,10],"right_children":[2,4,6,8,10,12,-1,-1,14,16,18,-1,-1,-1,-1,-1,-1,-1,-1],"split_conditions":[9.0592706E-1,7.188234E-2,4.8747492E-1,4.3294334E-1,9.564575E-1,9.51766E-1,1.0145255E-1,1.11929834E-1,6.928458E-1,1.9689798E-2,7.041937E-1,-3.0811345E-2,1.5143086E-2,1.8888116E-2,-6.1160456E-2,-6.5638736E-2,2.6795068E-1,1.4298254E-1,-1.6926706E-2],"split_indices":[0,14,1,0,15,0,0,0,0,12,6,0,0,0,0,0,0,0,0],"split_type":[0,0,0,0,0,0,0,0,0,0,0,0,0,0,0,0,0,0,0],"sum_hessian":[1E2,9.4E1,6E0,5E0,8.9E1,3E0,3E0,2E0,3E0,8.2E1,7E0,1E0,2E0,2E0,1E0,1E0,8.1E1,4E0,3E0],"tree_param":{"num_deleted":"0","num_feature":"17","num_nodes":"19","size_leaf_vector":"0"}},{"base_weights":[2.0674505E0,3.5918941E0,1.9157165E0,4.030177E0,1.5180305E0,2.6105382E0,1.5492291E0,2.8133075E0,-2.1974476E-1,3.2627993E0,1.3157082E0,1.5190707E0,3.4145339E0,-4.886868E-1,1.5906966E-1,3.9941626E0,9.562604E-1,-1.8589039E-1,1.5596817E0],"categories":[],"categories_nodes":[],"categories_segments":[],"categories_sizes":[],"default_left":[true,true,true,false,false,true,true,true,true,true,true,false,false,false,false,false,false,false,false],"id":7,"left_children":[1,3,5,-1,-1,7,9,11,13,15,17,-1,-1,-1,-1,-1,-1,-1,-1],"loss_changes":[1.6481262E1,1.1535797E0,1.989215E1,0E0,0E0,1.840895E1,2.1317001E1,1.737883E1,3.8337263E-1,7.988968E0,2.1538246E1,0E0,0E0,0E0,0E0,0E0,0E0,0E0,0E0],"parents":[2147483647,0,0,1,1,2,2,5,5,6,6,7,7,8,8,9,9,10,10],"right_children":[2,4,6,-1,-1,8,10,12,14,16,18,-1,-1,-1,-1,-1,-1,-1,-1],"split_conditions":[5.6161683E-2,6.454675E-1,3.1995404E-1,4.0301773E-1,1.5180306E-1,9.2514914E-1,8.3049566E-2,2.9751414E-1,5.865484E-1,8.6395735E-1,1.8297967E-1,1.5190707E-1,3.414534E-1,-4.8868682E-2,1.5906965E-2,3.9941627E-1,9.562604E-2,-1.858904E-2,1.5596817E-1],"split_indices":[10,3,7,0,0,2,5,10,0,2,8,0,0,0,0,0,0,0,0],"split_type":[0,0,0,0,0,0,0,0,0,0,0,0,0,0,0,0,0,0,0],"sum_hessian":[1E2,7E0,9.3E1,5E0,2E0,3E1,6.3E1,2.8E1,2E0,6E0,5.7E1,1E1,1.8E1,1E0,1E0,4E0,2E0,8E0,4.9E1],"tree_param":{"num_deleted":"0","num_feature":"17","num_nodes":"19","size_leaf_vector":"0"}},{"base_weights":[1.8770188E0,2.1769676E0,1.2993515E0,3.3701875E0,1.8432162E0,7.122926E-1,2.813181E0,3.7011461E0,1.0332764E0,2.6655452E0,1.1239125E0,3.0538008E-1,2.1534085E0,9.311997E-1,3.4867158E0,5.916505E-1,3.9529307E0,1.0160729E0,3.4267766E0,2.1183453E0,5.9685344E-1,-5.436183E-1,8.899946E-1,6.106106E-1,2.3398461E0,1.2381297E0,5.204797E-3],"categories":[],"categories_nodes":[],"categories_segments":[],"categories_sizes":[],"default_left":[true,true,true,true,true,true,true,true,false,true,true,true,true,true,false,false,false,false,false,false,false,false,false,false,false,false,false],"id":8,"left_children":[1,3,5,7,9,11,13,15,-1,17,19,21,23,25,-1,-1,-1,-1,-1,-1,-1,-1,-1,-1,-1,-1,-1],"loss_changes":[1.4671661E1,1.9673553E1,3.0878345E1,6.230179E0,2.8353882E1,1.5761823E1,9.42897E0,6.2733917E0,0E0,2.6653275E1,1.44594E1,1.1899565E1,2.9707718E-1,1.1304185E0,0E0,0E0,0E0,0E0,0E0,0E0,0E0,0E0,0E0,0E0,0E0,0E0,0E0],"parents":[2147483647,0,0,1,1,2,2,3,3,4,4,5,5,6,6,7,7,9,9,10,10,11,11,12,12,13,13],"right_children":[2,4,6,8,10,12,14,16,-1,18,20,22,24,26,-1,-1,-1,-1,-1,-1,-1,-1,-1,-1,-1,-1,-1],"split_conditions":[6.3205075E-1,1.6573669E-1,8.814182E-1,8.8901216E-1,4.937055E-1,8.912604E-1,3.4961766E-1,1.433275E-1,1.0332765E-1,3.7440544E-1,2.8889567E-1,5.9826744E-1,1.057616E-1,3.8804767E-1,3.486716E-1,5.916505E-2,3.952931E-1,1.01607285E-1,3.4267768E-1,2.1183454E-1,5.9685346E-2,-5.436183E-2,8.8999465E-2,6.1061062E-2,2.3398462E-1,1.2381297E-1,5.204797E-4],"split_indices":[6,1,6,7,10,2,2,9,0,0,15,12,0,0,0,0,0,0,0,0,0,0,0,0,0,0,0],"split_type":[0,0,0,0,0,0,0,0,0,0,0,0,0,0,0,0,0,0,0,0,0,0,0,0,0,0,0],"sum_hessian":[1E2,6.4E1,3.6E1,1.2E1,5.2E1,2.7E1,9E0,1E1,2E0,2.3E1,2.9E1,2.2E1,5E0,3E0,6E0,1E0,9E0,8E0,1.5E1,9E0,2E1,9E0,1.3E1,1E0,4E0,2E0,1E0],"tree_param":{"num_deleted":"0","num_feature":"17","num_nodes":"27","size_leaf_vector":"0"}},{"base_weights":[1.7098742E0,3.0644908E0,1.5763975E0,3.4736838E0,1.2246077E0,1.4371538E0,3.1016898E0,2.0397003E0,1.1064156E0,3.9262414E0,1.5017157E0,9.420148E-2,2.4250321E0,2.0889506E0,6.2410885E-1],"categories":[],"categories_nodes":[],"categories_segments":[],"categories_sizes":[],"default_left":[true,true,true,false,false,true,true,true,true,false,false,false,false,false,false],"id":9,"left_children":[1,3,5,-1,-1,7,9,11,13,-1,-1,-1,-1,-1,-1],"loss_changes":[1.3430939E1,1.769043E0,1.5506805E1,0E0,0E0,1.5280319E1,3.3387299E0,2.2261429E1,2.6655388E1,0E0,0E0,0E0,0E0,0E0,0E0],"parents":[2147483647,0,0,1,1,2,2,5,5,6,6,7,7,8,8],"right_children":[2,4,6,-1,-1,8,10,12,14,-1,-1,-1,-1,-1,-1],"split_conditions":[5.6161683E-2,6.454675E-1,9.312953E-1,3.473684E-1,1.22460775E-1,3.1995404E-1,3.8398415E-1,1.791182E-1,1.6899513E-1,3.9262414E-1,1.5017156E-1,9.420148E-3,2.4250321E-1,2.0889507E-1,6.2410887E-2],"split_indices":[10,3,5,0,0,7,6,11,5,0,0,0,0,0,0],"split_type":[0,0,0,0,0,0,0,0,0,0,0,0,0,0,0],"sum_hessian":[1E2,7E0,9.3E1,5E0,2E0,8.7E1,6E0,2.9E1,5.8E1,3E0,3E0,5E0,2.4E1,1.8E1,4E1],"tree_param":{"num_deleted":"0","num_feature":"17","num_nodes":"15","size_leaf_vector":"0"}},{"base_weights":[1.5540932E0,1.1228321E0,1.8943692E0,1.5844172E0,-2.06269E-1,3.0423574E0,1.3878148E0,7.8929946E-2,2.1025116E0,1.543627E0,-6.6476166E-1,-2.6216954E-1,3.280137E0,2.0438427E-1,1.8296545E0,1.9258611E0,-3.402692E-1,3.4737924E-1,2.6116824E0,1.862174E0,4.532665E-1,-9.2155963E-1,3.272195E-1,5.253855E-1,3.4393775E0,-2.0707549E-1,8.21843E-1,2.479731E0,8.3881176E-1],"categories":[],"categories_nodes":[],"categories_segments":[],"categories_sizes":[],"default_left":[true,true,true,true,true,true,true,true,true,true,true,false,true,true,true,false,false,false,false,false,false,false,false,false,false,false,false,false,false],"id":10,"left_children":[1,3,5,7,9,11,13,15,17,19,21,-1,23,25,27,-1,-1,-1,-1,-1,-1,-1,-1,-1,-1,-1,-1,-1,-1],"loss_changes":[1.2694473E1,2.9161007E1,2.7761292E1,2.7133514E1,1.1456232E1,1.3431946E1,2.0541512E1,8.397631E0,2.2327972E1,1.9793224E-1,3.1036787E0,0E0,4.7730103E0,3.2188969E0,1.6599556E1,0E0,0E0,0E0,0E0,0E0,0E0,0E0,0E0,0E0,0E0,0E0,0E0,0E0,0E0],"parents":[2147483647,0,0,1,1,2,2,3,3,4,4,5,5,6,6,7,7,8,8,9,9,10,10,12,12,13,13,14,14],"right_children":[2,4,6,8,10,12,14,16,18,20,22,-1,24,26,28,-1,-1,-1,-1,-1,-1,-1,-1,-1,-1,-1,-1,-1,-1],"split_conditions":[5.1044786E-1,3.4873253E-1,6.183616E-1,1.9365534E-1,3.5443336E-1,2.7100902E-2,1.8253985E-1,1.2058122E-1,3.119637E-1,3.289007E-1,7.1382797E-1,-2.6216954E-2,1.0439751E-1,7.632854E-1,6.9431615E-1,1.9258611E-1,-3.402692E-2,3.4737926E-2,2.6116824E-1,1.8621741E-1,4.532665E-2,-9.215596E-2,3.2721948E-2,5.253855E-2,3.4393775E-1,-2.070755E-2,8.218431E-2,2.4797311E-1,8.388118E-2],"split_indices":[8,8,8,11,4,13,9,1,2,0,1,0,11,15,7,0,0,0,0,0,0,0,0,0,0,0,0,0,0],"split_type":[0,0,0,0,0,0,0,0,0,0,0,0,0,0,0,0,0,0,0,0,0,0,0,0,0,0,0,0,0],"sum_hessian":[1E2,4.6E1,5.4E1,3.4E1,1.2E1,1.5E1,3.9E1,9E0,2.5E1,2E0,1E1,1E0,1.4E1,1.1E1,2.8E1,1E0,8E0,6E0,1.9E1,1E0,1E0,8E0,2E0,1E0,1.3E1,7E0,4E0,1.6E1,1.2E1],"tree_param":{"num_deleted":"0","num_feature":"17","num_nodes":"29","size_leaf_vector":"0"}},{"base_weights":[1.4124479E0,7.656353E-1,1.5933589E0,1.80731E-1,1.9128525E0,1.8504198E0,6.977266E-1,7.705318E-1,-3.0918273E-1,2.7495952E0,8.608877E-1,2.0918891E0,2.496613E-1,1.8053851E0,-9.885631E-2,1.1439456E0,-2.3313962E-1,-4.6439344E-1,3.973168E-2,1.0390645E0,2.452428E0,2.3840415E0,-7.00739E-1,2.537576E0,4.388004E-1,1.829568E0,-4.4049197E-1],"categories":[],"categories_nodes":[],"categories_segments":[],"categories_sizes":[],"default_left":[true,true,true,true,true,true,true,true,true,false,false,true,true,true,true,false,false,false,false,false,false,false,false,false,false,false,false],"id":11,"left_children":[1,3,5,7,9,11,13,15,17,-1,-1,19,21,23,25,-1,-1,-1,-1,-1,-1,-1,-1,-1,-1,-1,-1],"loss_changes":[1.0598633E1,1.5758581E1,1.6667023E1,5.1504107E0,4.6747E0,2.2669785E1,1.694297E1,3.2649765E0,5.600036E-1,0E0,0E0,1.719014E1,1.9927235E1,6.8913155E0,8.711733E0,0E0,0E0,0E0,0E0,0E0,0E0,0E0,0E0,0E0,0E0,0E0,0E0],"parents":[2147483647,0,0,1,1,2,2,3,3,4,4,5,5,6,6,7,7,8,8,11,11,12,12,13,13,14,14],"right_children":[2,4,6,8,10,12,14,16,18,-1,-1,20,22,24,26,-1,-1,-1,-1,-1,-1,-1,-1,-1,-1,-1,-1],"split_conditions":[2.1189356E-1,6.7097616E-1,8.136678E-1,4.1581726E-1,1.00249484E-1,8.30433E-1,4.6900952E-1,7.599504E-1,8.069037E-1,2.7495953E-1,8.608877E-2,2.5337654E-1,3.7000662E-1,4.150728E-1,1.3960023E-1,1.1439456E-1,-2.3313962E-2,-4.6439346E-2,3.9731683E-3,1.0390645E-1,2.4524282E-1,2.3840415E-1,-7.00739E-2,2.537576E-1,4.388004E-2,1.829568E-1,-4.40492E-2],"split_indices":[13,12,16,1,13,14,0,0,7,0,0,16,7,9,2,0,0,0,0,0,0,0,0,0,0,0,0],"split_type":[0,0,0,0,0,0,0,0,0,0,0,0,0,0,0,0,0,0,0,0,0,0,0,0,0,0,0],"sum_hessian":[1E2,2.3E1,7.7E1,1.6E1,7E0,5.9E1,1.8E1,7E0,9E0,3E0,4E0,5.1E1,8E0,7E0,1.1E1,5E0,2E0,6E0,3E0,1.4E1,3.7E1,2E0,6E0,4E0,3E0,1E0,1E1],"tree_param":{"num_deleted":"0","num_feature":"17","num_nodes":"27","size_leaf_vector":"0"}},{"base_weights":[1.284705E0,1.4231493E0,5.169122E-1,-6.31574E-2,1.5168331E0,1.5949342E-1,1.3428187E0,5.357705E-1,-4.9656397E-1,1.6920029E0,7.681445E-1,5.3882575E-1,-5.552035E-1,-1.5746744E-1,-7.569268E-1,3.713182E-1,1.9296979E0,1.8090225E0,-1.4137237E-1,7.1129507E-1,-4.3211263E-2,-9.484735E-2,-6.465807E-1],"categories":[],"categories_nodes":[],"categories_segments":[],"categories_sizes":[],"default_left":[true,true,true,true,true,true,false,false,true,true,true,true,true,false,false,false,false,false,false,false,false,false,false],"id":12,"left_children":[1,3,5,7,9,11,-1,-1,13,15,17,19,21,-1,-1,-1,-1,-1,-1,-1,-1,-1,-1],"loss_changes":[1.000032E1,1.1931412E1,4.8041363E0,1.82352E0,9.192108E0,3.8235571E0,0E0,0E0,2.3396122E-1,1.937436E1,1.6349579E1,9.341879E-1,1.4900386E-1,0E0,0E0,0E0,0E0,0E0,0E0,0E0,0E0,0E0,0E0],"parents":[2147483647,0,0,1,1,2,2,3,3,4,4,5,5,8,8,9,9,10,10,11,11,12,12],"right_children":[2,4,6,8,10,12,-1,-1,14,16,18,20,22,-1,-1,-1,-1,-1,-1,-1,-1,-1,-1],"split_conditions":[8.5874736E-1,7.188234E-2,6.4266276E-1,4.3294334E-1,8.707845E-1,6.797013E-1,1.3428187E-1,5.3577047E-2,6.928458E-1,1.1658862E-1,2.9630113E-1,8.9545393E-1,8.4342524E-2,-1.5746744E-2,-7.5692676E-2,3.713182E-2,1.9296978E-1,1.8090226E-1,-1.4137237E-2,7.112951E-2,-4.3211263E-3,-9.484735E-3,-6.465807E-2],"split_indices":[15,14,11,0,16,6,0,0,0,11,1,2,1,0,0,0,0,0,0,0,0,0,0],"split_type":[0,0,0,0,0,0,0,0,0,0,0,0,0,0,0,0,0,0,0,0,0,0,0],"sum_hessian":[1E2,8.4E1,1.6E1,5E0,7.9E1,1.2E1,4E0,2E0,3E0,6.3E1,1.6E1,8E0,4E0,2E0,1E0,1E1,5.3E1,7E0,9E0,6E0,2E0,1E0,3E0],"tree_param":{"num_deleted":"0","num_feature":"17","num_nodes":"23","size_leaf_vector":"0"}},{"base_weights":[1.1610459E0,1.3943586E0,7.197926E-1,2.3558466E0,1.1322132E0,2.845933E-1,1.8663714E0,1.0798514E0,2.802972E0,1.7613893E0,5.9113204E-1,-3.798622E-2,1.473716E0,6.360043E-1,2.5806153E0,3.2111514E-1,1.1892567E0,2.958453E0,7.795627E-1,9.88248E-1,2.9401526E0,1.5711552E0,2.2455305E-1,-5.0933313E-1,6.2569803E-1,8.400579E-1,-9.0105E-2],"categories":[],"categories_nodes":[],"categories_segments":[],"categories_sizes":[],"default_left":[true,true,true,true,true,true,true,true,true,true,true,true,false,true,false,false,false,false,false,false,false,false,false,false,false,false,false],"id":13,"left_children":[1,3,5,7,9,11,13,15,17,19,21,23,-1,25,-1,-1,-1,-1,-1,-1,-1,-1,-1,-1,-1,-1,-1],"loss_changes":[9.394302E0,1.3715912E1,1.7931482E1,4.390106E0,1.7001862E1,1.0796407E1,7.1465416E0,3.316021E-2,5.2511597E-1,1.8966812E1,1.04248705E1,7.5136757E0,0E0,8.165195E-1,0E0,0E0,0E0,0E0,0E0,0E0,0E0,0E0,0E0,0E0,0E0,0E0,0E0],"parents":[2147483647,0,0,1,1,2,2,3,3,4,4,5,5,6,6,7,7,8,8,9,9,10,10,11,11,13,13],"right_children":[2,4,6,8,10,12,14,16,18,20,22,24,-1,26,-1,-1,-1,-1,-1,-1,-1,-1,-1,-1,-1,-1,-1],"split_conditions":[6.3205075E-1,1.6573669E-1,8.814182E-1,4.190094E-1,4.937055E-1,8.912604E-1,3.7547332E-1,2.023355E-1,9.751624E-1,5.8008766E-1,1.7953897E-1,6.773311E-1,1.473716E-1,4.4843292E-1,2.5806153E-1,3.2111514E-2,1.1892567E-1,2.958453E-1,7.7956274E-2,9.88248E-2,2.9401526E-1,1.5711552E-1,2.2455305E-2,-5.0933313E-2,6.2569804E-2,8.4005795E-2,-9.0105E-3],"split_indices":[6,1,6,3,10,2,2,4,4,7,0,1,0,0,0,0,0,0,0,0,0,0,0,0,0,0,0],"split_type":[0,0,0,0,0,0,0,0,0,0,0,0,0,0,0,0,0,0,0,0,0,0,0,0,0,0,0],"sum_hessian":[1E2,6.4E1,3.6E1,1.2E1,5.2E1,2.7E1,9E0,4E0,8E0,2.3E1,2.9E1,2.2E1,5E0,4E0,5E0,1E0,3E0,7E0,1E0,1.5E1,8E0,7E0,2.2E1,1.3E1,9E0,3E0,1E0],"tree_param":{"num_deleted":"0","num_feature":"17","num_nodes":"27","size_leaf_vector":"0"}},{"base_weights":[1.060677E0,9.658981E-1,2.1954384E0,1.5633104E0,7.5334543E-1,2.9323525E0,9.096646E-1,3.1733222E0,9.7260606E-1,6.0575056E-1,2.037333E0,7.6848626E-1,3.5005922E0,2.416651E0,4.2641732E-1,2.5759354E-2,9.153794E-1,6.476977E-1,2.4636478E0],"categories":[],"categories_nodes":[],"categories_segments":[],"categories_sizes":[],"default_left":[true,true,true,true,true,false,false,true,true,true,true,false,false,false,false,false,false,false,false],"id":14,"left_children":[1,3,5,7,9,-1,-1,11,13,15,17,-1,-1,-1,-1,-1,-1,-1,-1],"loss_changes":[8.742142E0,1.0885536E1,3.9650764E0,1.973859E1,1.2410603E1,0E0,0E0,2.0320244E0,1.39552E1,1.1828835E1,2.5512543E0,0E0,0E0,0E0,0E0,0E0,0E0,0E0,0E0],"parents":[2147483647,0,0,1,1,2,2,3,3,4,4,7,7,8,8,9,9,10,10],"right_children":[2,4,6,8,10,-1,-1,12,14,16,18,-1,-1,-1,-1,-1,-1,-1,-1],"split_conditions":[9.312953E-1,1.7165074E-1,3.8398415E-1,1.7371637E-1,8.814182E-1,2.9323527E-1,9.0966456E-2,1.4364545E-1,2.3772413E-1,4.6064144E-1,2.0810944E-1,7.6848626E-2,3.5005924E-1,2.4166511E-1,4.2641733E-2,2.5759356E-3,9.1537945E-2,6.476977E-2,2.4636479E-1],"split_indices":[5,5,6,6,6,0,0,0,2,3,0,0,0,0,0,0,0,0,0],"split_type":[0,0,0,0,0,0,0,0,0,0,0,0,0,0,0,0,0,0,0],"sum_hessian":[1E2,9.4E1,6E0,2.3E1,7.1E1,3E0,3E0,5E0,1.8E1,6.5E1,6E0,1E0,4E0,4E0,1.4E1,2.3E1,4.2E1,2E0,4E0],"tree_param":{"num_deleted":"0","num_feature":"17","num_nodes":"19","size_leaf_vector":"0"}},{"base_weights":[9.694675E-1,6.395236E-1,1.2337929E0,9.922597E-1,-3.593446E-1,2.12127E0,8.479572E-1,-6.0560714E-2,1.4158103E0,8.247435E-1,-7.9704535E-1,4.2930248E-1,2.4787006E0,-2.8451562E-2,1.1813692E0,-4.8596656E-1,2.0967488E0,1.7327745E0,-1.986013E-1,1.4256325E0,1.4923632E-1,-9.8460686E-1,-3.1199535E-2,-3.749321E-1,8.223581E-1,4.4386458E-1,2.6112816E0,4.886024E-1,-4.6757618E-1,1.7275982E0,3.7619534E-1],"categories":[],"categories_nodes":[],"categories_segments":[],"categories_sizes":[],"default_left":[true,true,true,true,true,true,true,true,true,true,true,true,true,true,true,false,false,false,false,false,false,false,false,false,false,false,false,false,false,false,false],"id":15,"left_children":[1,3,5,7,9,11,13,15,17,19,21,23,25,27,29,-1,-1,-1,-1,-1,-1,-1,-1,-1,-1,-1,-1,-1,-1,-1,-1],"loss_changes":[8.019424E0,1.6916395E1,1.7034363E1,1.5693035E1,7.394949E0,8.612076E0,1.1721821E1,1.1114003E1,1.3136898E1,1.4108632E0,1.4057131E0,1.5727642E0,2.3480835E0,2.9530723E0,1.2104553E1,0E0,0E0,0E0,0E0,0E0,0E0,0E0,0E0,0E0,0E0,0E0,0E0,0E0,0E0,0E0,0E0],"parents":[2147483647,0,0,1,1,2,2,3,3,4,4,5,5,6,6,7,7,8,8,9,9,10,10,11,11,12,12,13,13,14,14],"right_children":[2,4,6,8,10,12,14,16,18,20,22,24,26,28,30,-1,-1,-1,-1,-1,-1,-1,-1,-1,-1,-1,-1,-1,-1,-1,-1],"split_conditions":[5.1044786E-1,3.4873253E-1,6.183616E-1,3.1283182E-1,1.5116364E-1,1.5566994E-1,1.8253985E-1,9.043014E-1,8.349997E-1,2.779124E-1,6.721498E-1,6.97898E-1,7.043652E-2,2.615376E-1,6.9431615E-1,-4.8596658E-2,2.0967488E-1,1.7327745E-1,-1.9860132E-2,1.4256325E-1,1.4923632E-2,-9.846069E-2,-3.1199537E-3,-3.749321E-2,8.2235806E-2,4.4386458E-2,2.6112816E-1,4.886024E-2,-4.675762E-2,1.7275982E-1,3.7619535E-2],"split_indices":[8,8,8,0,7,14,9,1,15,0,1,2,0,4,7,0,0,0,0,0,0,0,0,0,0,0,0,0,0,0,0],"split_type":[0,0,0,0,0,0,0,0,0,0,0,0,0,0,0,0,0,0,0,0,0,0,0,0,0,0,0,0,0,0,0],"sum_hessian":[1E2,4.6E1,5.4E1,3.4E1,1.2E1,1.5E1,3.9E1,1E1,2.4E1,3E0,9E0,3E0,1.2E1,1.1E1,2.8E1,9E0,1E0,2E1,4E0,1E0,2E0,7E0,2E0,1E0,2E0,1E0,1.1E1,5E0,6E0,1.6E1,1.2E1],"tree_param":{"num_deleted":"0","num_feature":"17","num_nodes":"31","size_leaf_vector":"0"}},{"base_weights":[8.8175976E-1,7.977453E-1,1.8959903E0,1.3319402E0,6.0860056E-1,2.5606349E0,7.5734806E-1,2.7700899E0,8.0768555E-1,1.0749929E0,3.0487642E-1,6.43682E-1,3.066635E0,3.0189064E-1,2.1635332E0,-1.938876E-1,1.3592664E0,-6.002374E-1,6.153614E-1],"categories":[],"categories_nodes":[],"categories_segments":[],"categories_sizes":[],"default_left":[true,true,true,true,true,false,false,true,true,true,true,false,false,false,false,false,false,false,false],"id":16,"left_children":[1,3,5,7,9,-1,-1,11,13,15,17,-1,-1,-1,-1,-1,-1,-1,-1],"loss_changes":[7.0936966E0,8.788193E0,3.3582554E0,1.5857597E1,9.871389E0,0E0,0E0,1.8095131E0,1.2376684E1,1.03633995E1,1.3015455E1,0E0,0E0,0E0,0E0,0E0,0E0,0E0,0E0],"parents":[2147483647,0,0,1,1,2,2,3,3,4,4,7,7,8,8,9,9,10,10],"right_children":[2,4,6,8,10,-1,-1,12,14,16,18,-1,-1,-1,-1,-1,-1,-1,-1],"split_conditions":[9.312953E-1,1.7165074E-1,3.8398415E-1,1.7371637E-1,3.1995404E-1,2.560635E-1,7.573481E-2,1.4364545E-1,1.4770386E-1,1.8604295E-1,3.192535E-1,6.43682E-2,3.0666348E-1,3.0189065E-2,2.1635333E-1,-1.9388761E-2,1.3592665E-1,-6.0023744E-2,6.153614E-2],"split_indices":[5,5,6,6,7,0,0,0,5,11,6,0,0,0,0,0,0,0,0],"split_type":[0,0,0,0,0,0,0,0,0,0,0,0,0,0,0,0,0,0,0],"sum_hessian":[1E2,9.4E1,6E0,2.3E1,7.1E1,3E0,3E0,5E0,1.8E1,2.7E1,4.4E1,1E0,4E0,1.4E1,4E0,5E0,2.2E1,1.1E1,3.3E1],"tree_param":{"num_deleted":"0","num_feature":"17","num_nodes":"19","size_leaf_vector":"0"}},{"base_weights":[8.041523E-1,5.556273E-1,1.1010807E0,1.9981272E0,4.0905884E-1,1.5350467E0,4.2644033E-1,4.5168328E-1,2.2718174E0,-1.3876677E0,5.067279E-1,1.802141E0,-5.959511E-4,1.1491662E0,-5.0427353E-1,2.7380747E-1,1.4343208E0,9.986552E-2,1.9595069E0,5.512169E-1,-5.5221015E-1,1.5386161E0,3.7410307E-1,-1.1315377E0,2.2384529E-1],"categories":[],"categories_nodes":[],"categories_segments":[],"categories_sizes":[],"default_left":[true,true,true,true,true,true,true,false,false,false,true,true,true,true,true,false,false,false,false,false,false,false,false,false,false],"id":17,"left_children":[1,3,5,7,9,11,13,-1,-1,-1,15,17,19,21,23,-1,-1,-1,-1,-1,-1,-1,-1,-1,-1],"loss_changes":[6.8414154E0,1.123387E1,1.2520092E1,1.0900898E0,1.0003852E1,1.1075424E1,1.3359863E1,0E0,0E0,0E0,1.0626094E1,5.9655685E0,1.8263267E0,2.744731E0,4.363795E0,0E0,0E0,0E0,0E0,0E0,0E0,0E0,0E0,0E0,0E0],"parents":[2147483647,0,0,1,1,2,2,3,3,4,4,5,5,6,6,10,10,11,11,12,12,13,13,14,14],"right_children":[2,4,6,8,10,12,14,-1,-1,-1,16,18,20,22,24,-1,-1,-1,-1,-1,-1,-1,-1,-1,-1],"split_conditions":[5.4796845E-1,5.9112977E-2,4.625875E-1,2.208083E-1,9.5731035E-2,9.2351365E-1,8.0832887E-1,4.516833E-2,2.2718175E-1,-1.3876677E-1,7.7222013E-1,7.2419226E-2,4.5979822E-1,8.042814E-1,4.6359622E-1,2.7380748E-2,1.4343208E-1,9.986552E-3,1.9595069E-1,5.512169E-2,-5.5221017E-2,1.5386161E-1,3.7410308E-2,-1.1315377E-1,2.238453E-2],"split_indices":[14,6,11,0,6,2,14,0,0,0,9,12,5,15,1,0,0,0,0,0,0,0,0,0,0],"split_type":[0,0,0,0,0,0,0,0,0,0,0,0,0,0,0,0,0,0,0,0,0,0,0,0,0],"sum_hessian":[1E2,5.6E1,4.4E1,4E0,5.2E1,2.6E1,1.8E1,1E0,3E0,2E0,5E1,2.2E1,4E0,1E1,8E0,4.1E1,9E0,2E0,2E1,2E0,2E0,6E0,4E0,4E0,4E0],"tree_param":{"num_deleted":"0","num_feature":"17","num_nodes":"25","size_leaf_vector":"0"}},{"base_weights":[7.2978395E-1,9.1779447E-1,3.7977144E-1,1.6997503E0,7.0867705E-1,4.442949E-2,1.2807518E0,7.251214E-1,2.0523496E0,9.2452466E-1,-1.99516E-1,-2.3369652E-1,1.1031743E0,3.606131E-1,1.8340753E0,1.9768763E-1,2.2594714E0,2.194834E0,6.592087E-1,4.3005675E-1,-1.0410147E0,-4.0632734E-1,1.0526179E0,5.910332E-1,1.4183043E0,5.136541E-1,-1.2577546E-1],"categories":[],"categories_nodes":[],"categories_segments":[],"categories_sizes":[],"default_left":[true,true,true,true,true,true,true,false,true,true,true,true,true,true,false,false,false,false,false,false,false,false,false,false,false,false,false],"id":18,"left_children":[1,3,5,7,9,11,13,-1,15,17,19,21,23,25,-1,-1,-1,-1,-1,-1,-1,-1,-1,-1,-1,-1,-1],"loss_changes":[6.2978554E0,9.424259E0,1.11221485E1,2.9792938E0,1.0574116E1,8.502813E0,4.4299526E0,0E0,3.0105972E0,1.3045582E1,6.275326E0,5.5350304E0,1.3008118E-1,4.3679214E-1,0E0,0E0,0E0,0E0,0E0,0E0,0E0,0E0,0E0,0E0,0E0,0E0,0E0],"parents":[2147483647,0,0,1,1,2,2,3,3,4,4,5,5,6,6,8,8,9,9,10,10,11,11,12,12,13,13],"right_children":[2,4,6,8,10,12,14,-1,16,18,20,22,24,26,-1,-1,-1,-1,-1,-1,-1,-1,-1,-1,-1,-1,-1],"split_conditions":[6.3205075E-1,1.6573669E-1,8.814182E-1,4.8299825E-1,8.0832887E-1,8.912604E-1,3.7547332E-1,7.251214E-2,3.2998288E-1,5.9112977E-2,5.0396574E-1,9.5812285E-1,9.9189353E-1,4.4843292E-1,1.8340753E-1,1.9768763E-2,2.2594714E-1,2.194834E-1,6.5920874E-2,4.3005675E-2,-1.0410147E-1,-4.0632736E-2,1.05261795E-1,5.910332E-2,1.4183043E-1,5.1365413E-2,-1.2577546E-2],"split_indices":[6,1,6,15,14,2,2,0,6,6,11,1,2,0,0,0,0,0,0,0,0,0,0,0,0,0,0],"split_type":[0,0,0,0,0,0,0,0,0,0,0,0,0,0,0,0,0,0,0,0,0,0,0,0,0,0,0],"sum_hessian":[1E2,6.4E1,3.6E1,1.2E1,5.2E1,2.7E1,9E0,4E0,8E0,4.2E1,1E1,2.2E1,5E0,4E0,5E0,1E0,7E0,6E0,3.6E1,6E0,4E0,2E1,2E0,3E0,2E0,3E0,1E0],"tree_param":{"num_deleted":"0","num_feature":"17","num_nodes":"27","size_leaf_vector":"0"}},{"base_weights":[6.6700655E-1,4.425198E-1,9.3653405E-1,6.21559E-1,-3.6269486E-1,-3.740059E-2,1.1481254E0,5.3573348E-2,1.2645621E0,-7.88055E-1,1.2311443E-1,7.555267E-1,-8.228478E-1,-1.232506E-1,1.3059664E0,-4.6199507E-1,9.246823E-1,-3.595138E-1,1.4449453E0,-1.6884363E-1,-8.781285E-1,3.0547822E-1,-1.6107543E-1,-6.1618435E-1,4.107667E-1,1.7091227E0,7.707928E-1],"categories":[],"categories_nodes":[],"categories_segments":[],"categories_sizes":[],"default_left":[true,true,true,true,true,true,true,true,true,true,true,false,false,true,true,false,false,false,false,false,false,false,false,false,false,false,false],"id":19,"left_children":[1,3,5,7,9,11,13,15,17,19,21,-1,-1,23,25,-1,-1,-1,-1,-1,-1,-1,-1,-1,-1,-1,-1],"loss_changes":[5.6966057E0,8.44284E0,9.316364E0,1.7097431E1,2.3701038E0,6.2269063E0,7.585949E0,1.2104221E1,6.964512E0,1.863811E-1,3.6016068E-1,0E0,0E0,1.5692837E0,5.8026543E0,0E0,0E0,0E0,0E0,0E0,0E0,0E0,0E0,0E0,0E0,0E0,0E0],"parents":[2147483647,0,0,1,1,2,2,3,3,4,4,5,5,6,6,7,7,8,8,9,9,10,10,13,13,14,14],"right_children":[2,4,6,8,10,12,14,16,18,20,22,-1,-1,24,26,-1,-1,-1,-1,-1,-1,-1,-1,-1,-1,-1,-1],"split_conditions":[5.4796845E-1,7.876032E-1,1.7058602E-1,5.1044786E-1,4.066885E-1,6.983402E-1,9.350105E-2,6.3933E-1,1.614066E-1,9.756624E-2,4.9273825E-1,7.555267E-2,-8.228478E-2,3.847171E-1,3.9291918E-1,-4.6199508E-2,9.246823E-2,-3.595138E-2,1.4449453E-1,-1.6884362E-2,-8.7812856E-2,3.0547822E-2,-1.6107542E-2,-6.1618436E-2,4.107667E-2,1.7091227E-1,7.707928E-2],"split_indices":[14,8,16,8,11,2,12,11,13,1,1,0,0,1,11,0,0,0,0,0,0,0,0,0,0,0,0],"split_type":[0,0,0,0,0,0,0,0,0,0,0,0,0,0,0,0,0,0,0,0,0,0,0,0,0,0,0],"sum_hessian":[1E2,5.6E1,4.4E1,4.6E1,1E1,8E0,3.6E1,2.5E1,2.1E1,5E0,5E0,4E0,4E0,4E0,3.2E1,1.6E1,9E0,2E0,1.9E1,1E0,4E0,3E0,2E0,2E0,2E0,1.7E1,1.5E1],"tree_param":{"num_deleted":"0","num_feature":"17","num_nodes":"27","size_leaf_vector":"0"}},{"base_weights":[6.031304E-1,1.3869263E0,5.300081E-1,1.6685629E0,3.6134425E-1,2.9366764E-1,8.15628E-1,1.8340841E-1,1.3154746E0,1.1506897E0,2.5520253E-1,9.024594E-2,1.5818176E0,3.184569E-1,1.4851148E0,1.4322617E0,-2.6593765E-2,9.1868997E-1,-4.3664074E-1],"categories":[],"categories_nodes":[],"categories_segments":[],"categories_sizes":[],"default_left":[true,true,true,false,false,true,true,true,true,true,true,false,false,false,false,false,false,false,false],"id":20,"left_children":[1,3,5,-1,-1,7,9,11,13,15,17,-1,-1,-1,-1,-1,-1,-1,-1],"loss_changes":[5.053528E0,1.7078056E0,6.10581E0,0E0,0E0,5.7299047E0,7.5929813E0,6.240931E0,3.727255E-1,8.656826E0,8.204636E0,0E0,0E0,0E0,0E0,0E0,0E0,0E0,0E0],"parents":[2147483647,0,0,1,1,2,2,5,5,6,6,7,7,8,8,9,9,10,10],"right_children":[2,4,6,-1,-1,8,10,12,14,16,18,-1,-1,-1,-1,-1,-1,-1,-1],"split_conditions":[5.6161683E-2,6.454675E-1,5.4796845E-1,1.6685629E-1,3.6134426E-2,9.3764913E-1,4.625875E-1,9.349152E-1,2.0810944E-1,8.7261677E-1,8.0832887E-1,9.024594E-3,1.5818177E-1,3.184569E-2,1.4851148E-1,1.4322618E-1,-2.6593765E-3,9.1869E-2,-4.3664075E-2],"split_indices":[10,3,14,0,0,6,11,5,0,2,14,0,0,0,0,0,0,0,0],"split_type":[0,0,0,0,0,0,0,0,0,0,0,0,0,0,0,0,0,0,0],"sum_hessian":[1E2,7E0,9.3E1,5E0,2E0,5.2E1,4.1E1,4.8E1,4E0,2.5E1,1.6E1,4.6E1,2E0,1E0,3E0,2E1,5E0,8E0,8E0],"tree_param":{"num_deleted":"0","num_feature":"17","num_nodes":"19","size_leaf_vector":"0"}},{"base_weights":[5.501374E-1,4.8655212E-1,1.3344898E0,5.3912747E-1,-5.6763005E-1,1.8822422E0,4.53115E-1,1.2931167E0,4.30078E-1,3.025341E-1,-8.608047E-1,1.5668335E0,4.2240363E-1,-9.323492E-2,5.810759E-1],"categories":[],"categories_nodes":[],"categories_segments":[],"categories_sizes":[],"default_left":[true,true,true,true,true,false,false,true,true,false,false,false,false,false,false],"id":21,"left_children":[1,3,5,7,9,-1,-1,11,13,-1,-1,-1,-1,-1,-1],"loss_changes":[4.387905E0,5.571306E0,2.526554E0,6.926073E0,1.5359727E0,0E0,0E0,1.9597816E0,6.454729E0,0E0,0E0,0E0,0E0,0E0,0E0],"parents":[2147483647,0,0,1,1,2,2,3,3,4,4,7,7,8,8],"right_children":[2,4,6,8,10,-1,-1,12,14,-1,-1,-1,-1,-1,-1],"split_conditions":[9.312953E-1,8.388008E-1,3.8398415E-1,8.737923E-2,1.3793056E-1,1.8822423E-1,4.53115E-2,8.0401045E-1,2.1356158E-1,3.025341E-2,-8.608047E-2,1.5668336E-1,4.2240363E-2,-9.323492E-3,5.8107592E-2],"split_indices":[5,5,6,10,0,0,0,4,13,0,0,0,0,0,0],"split_type":[0,0,0,0,0,0,0,0,0,0,0,0,0,0,0],"sum_hessian":[1E2,9.4E1,6E0,9E1,4E0,3E0,3E0,1E1,8E1,1E0,3E0,7E0,3E0,1.8E1,6.2E1],"tree_param":{"num_deleted":"0","num_feature":"17","num_nodes":"15","size_leaf_vector":"0"}},{"base_weights":[4.993358E-1,1.286022E0,4.3611327E-1,1.9191018E0,3.3143657E-1,-2.0624986E-1,5.496853E-1,4.2714944E-1,2.2148967E-2,7.971359E-1,-9.6374434E-1,3.1874084E-1,9.528015E-1,1.2273209E0,1.6766691E-1,-1.2522787E0,6.7226505E-1,-2.5886774E-1,5.986912E-1,1.2340353E0,6.030874E-2],"categories":[],"categories_nodes":[],"categories_segments":[],"categories_sizes":[],"default_left":[true,true,true,false,true,true,true,false,false,true,true,true,true,false,false,false,false,false,false,false,false],"id":22,"left_children":[1,3,5,-1,7,9,11,-1,-1,13,15,17,19,-1,-1,-1,-1,-1,-1,-1,-1],"loss_changes":[4.462513E0,3.5942411E0,7.0440464E0,0E0,1.0895029E-1,1.2169122E1,7.237198E0,0E0,0E0,1.6897354E0,5.090267E0,8.725174E0,7.20455E0,0E0,0E0,0E0,0E0,0E0,0E0,0E0,0E0],"parents":[2147483647,0,0,1,1,2,2,4,4,5,5,6,6,9,9,10,10,11,11,12,12],"right_children":[2,4,6,-1,8,10,12,-1,-1,14,16,18,20,-1,-1,-1,-1,-1,-1,-1,-1],"split_conditions":[8.3049566E-2,4.5715404E-1,1.8297967E-1,1.9191019E-1,5.447328E-1,2.606691E-1,6.676035E-1,4.2714946E-2,2.2148967E-3,7.4893117E-1,9.1186E-1,2.3413157E-1,7.8051776E-1,1.22732095E-1,1.6766692E-2,-1.2522787E-1,6.722651E-2,-2.5886774E-2,5.986912E-2,1.2340353E-1,6.030874E-3],"split_indices":[5,3,8,0,0,3,12,0,0,1,1,13,4,0,0,0,0,0,0,0,0],"split_type":[0,0,0,0,0,0,0,0,0,0,0,0,0,0,0,0,0,0,0,0,0],"sum_hessian":[1E2,6E0,9.4E1,3E0,3E0,1.4E1,8E1,2E0,1E0,6E0,8E0,5.2E1,2.8E1,3E0,3E0,7E0,1E0,1.7E1,3.5E1,2.1E1,7E0],"tree_param":{"num_deleted":"0","num_feature":"17","num_nodes":"21","size_leaf_vector":"0"}},{"base_weights":[4.5417202E-1,1.191254E0,3.9507994E-1,1.7751691E0,3.095253E-1,-1.5968092E-1,5.010936E-1,3.9867273E-1,2.1041512E-2,7.3735064E-1,-7.7163494E-1,1.110903E0,3.5490823E-1,1.2954806E0,2.5500256E-1,-1.1427042E0,4.7509494E-1,-3.4632522E-1,1.3617324E0,-5.8868605E-1,5.3391945E-1],"categories":[],"categories_nodes":[],"categories_segments":[],"categories_sizes":[],"default_left":[true,true,true,false,true,true,true,false,false,true,true,true,true,false,false,false,false,false,false,false,false],"id":23,"left_children":[1,3,5,-1,7,9,11,-1,-1,13,15,17,19,-1,-1,-1,-1,-1,-1,-1,-1],"loss_changes":[3.9284859E0,3.0545235E0,5.667179E0,0E0,9.448168E-2,9.352038E0,6.7373486E0,0E0,0E0,1.5541394E0,5.1691256E0,5.954336E0,1.1462635E1,0E0,0E0,0E0,0E0,0E0,0E0,0E0,0E0],"parents":[2147483647,0,0,1,1,2,2,4,4,5,5,6,6,9,9,10,10,11,11,12,12],"right_children":[2,4,6,-1,8,10,12,-1,-1,14,16,18,20,-1,-1,-1,-1,-1,-1,-1,-1],"split_conditions":[8.3049566E-2,4.5715404E-1,1.9828293E-1,1.7751692E-1,5.447328E-1,2.606691E-1,3.252602E-1,3.9867274E-2,2.1041513E-3,3.3318537E-1,7.838559E-1,1.17116265E-1,3.8929808E-1,1.2954806E-1,2.5500257E-2,-1.1427043E-1,4.7509495E-2,-3.4632523E-2,1.3617323E-1,-5.8868606E-2,5.3391945E-2],"split_indices":[5,3,8,0,0,3,8,0,0,4,6,5,8,0,0,0,0,0,0,0,0],"split_type":[0,0,0,0,0,0,0,0,0,0,0,0,0,0,0,0,0,0,0,0,0],"sum_hessian":[1E2,6E0,9.4E1,3E0,3E0,1.5E1,7.9E1,2E0,1E0,6E0,9E0,1.4E1,6.5E1,2E0,4E0,7E0,2E0,2E0,1.2E1,1E1,5.5E1],"tree_param":{"num_deleted":"0","num_feature":"17","num_nodes":"21","size_leaf_vector":"0"}},{"base_weights":[4.1275322E-1,3.5632542E-1,1.1195943E0,7.28819E-1,2.2721192E-1,1.6036656E0,3.5562444E-1,1.7686721E0,3.620854E-1,-2.2780985E-1,4.0660125E-1,2.6460576E-1,2.0165644E0,2.4826964E-3,1.3684765E0,6.594678E-1,-6.2668544E-1,-1.05030864E-1,6.581092E-1],"categories":[],"categories_nodes":[],"categories_segments":[],"categories_sizes":[],"default_left":[true,true,true,true,true,false,false,true,true,true,true,false,false,false,false,false,false,false,false],"id":24,"left_children":[1,3,5,7,9,-1,-1,11,13,15,17,-1,-1,-1,-1,-1,-1,-1,-1],"loss_changes":[3.6294937E0,4.403328E0,2.0184078E0,8.511967E0,5.969703E0,0E0,0E0,1.7034817E0,6.872721E0,7.84546E0,6.760458E0,0E0,0E0,0E0,0E0,0E0,0E0,0E0,0E0],"parents":[2147483647,0,0,1,1,2,2,3,3,4,4,7,7,8,8,9,9,10,10],"right_children":[2,4,6,8,10,-1,-1,12,14,16,18,-1,-1,-1,-1,-1,-1,-1,-1],"split_conditions":[9.312953E-1,1.7165074E-1,3.8398415E-1,1.7371637E-1,3.5408962E-1,1.6036656E-1,3.5562444E-2,1.4364545E-1,1.4770386E-1,1.7495081E-1,4.6064144E-1,2.6460577E-2,2.0165645E-1,2.4826964E-4,1.3684766E-1,6.594678E-2,-6.266855E-2,-1.0503086E-2,6.581092E-2],"split_indices":[5,5,6,6,6,0,0,0,5,7,3,0,0,0,0,0,0,0,0],"split_type":[0,0,0,0,0,0,0,0,0,0,0,0,0,0,0,0,0,0,0],"sum_hessian":[1E2,9.4E1,6E0,2.3E1,7.1E1,3E0,3E0,5E0,1.8E1,2E1,5.1E1,1E0,4E0,1.4E1,4E0,6E0,1.4E1,1.7E1,3.4E1],"tree_param":{"num_deleted":"0","num_feature":"17","num_nodes":"19","size_leaf_vector":"0"}},{"base_weights":[3.7761384E-1,1.0419813E0,3.2468554E-1,1.5411412E0,2.8232628E-1,-1.5825342E-1,4.1721478E-1,3.6319146E-1,1.9865394E-2,7.7905583E-1,-6.5512633E-1,2.1647589E-1,7.6277363E-1,2.9602134E-1,1.1634165E0,-9.3389255E-1,3.9954773E-1,-2.764214E-1,4.6378088E-1,2.0172442E-1,1.1469423E0],"categories":[],"categories_nodes":[],"categories_segments":[],"categories_sizes":[],"default_left":[true,true,true,false,true,true,true,false,false,true,true,true,true,false,false,false,false,false,false,false,false],"id":25,"left_children":[1,3,5,-1,7,9,11,-1,-1,13,15,17,19,-1,-1,-1,-1,-1,-1,-1,-1],"loss_changes":[3.213231E0,2.2192202E0,4.3111925E0,0E0,7.7680826E-2,7.961957E0,5.384247E0,0E0,0E0,7.695606E-1,3.6072173E0,6.4667892E0,6.0192204E0,0E0,0E0,0E0,0E0,0E0,0E0,0E0,0E0],"parents":[2147483647,0,0,1,1,2,2,4,4,5,5,6,6,9,9,10,10,11,11,12,12],"right_children":[2,4,6,-1,8,10,12,-1,-1,14,16,18,20,-1,-1,-1,-1,-1,-1,-1,-1],"split_conditions":[8.3049566E-2,4.5715404E-1,1.9828293E-1,1.5411411E-1,5.447328E-1,2.2443226E-1,6.676035E-1,3.6319148E-2,1.9865395E-3,1.6739228E-1,7.838559E-1,2.3413157E-1,5.4175246E-1,2.9602135E-2,1.1634165E-1,-9.338926E-2,3.9954774E-2,-2.764214E-2,4.6378087E-2,2.0172443E-2,1.1469423E-1],"split_indices":[5,3,8,0,0,3,12,0,0,3,6,13,1,0,0,0,0,0,0,0,0],"split_type":[0,0,0,0,0,0,0,0,0,0,0,0,0,0,0,0,0,0,0,0,0],"sum_hessian":[1E2,6E0,9.4E1,3E0,3E0,1.5E1,7.9E1,2E0,1E0,5E0,1E1,5.1E1,2.8E1,3E0,2E0,8E0,2E0,1.7E1,3.4E1,1.2E1,1.6E1],"tree_param":{"num_deleted":"0","num_feature":"17","num_nodes":"21","size_leaf_vector":"0"}},{"base_weights":[3.4419435E-1,2.9221702E-1,1.0004306E0,3.3898464E-1,-6.1739725E-1,1.4380795E0,3.1267405E-1,9.232494E-1,2.5545505E-1,1.7468238E-1,-8.590877E-1,1.1508353E0,2.3726523E-1,-9.352223E-2,4.0403357E-1],"categories":[],"categories_nodes":[],"categories_segments":[],"categories_sizes":[],"default_left":[true,true,true,true,true,false,false,true,true,false,false,false,false,false,false],"id":26,"left_children":[1,3,5,7,9,-1,-1,11,13,-1,-1,-1,-1,-1,-1],"loss_changes":[3.152708E0,4.250636E0,1.6573205E0,4.205261E0,1.107258E0,0E0,0E0,1.4442701E0,4.2376795E0,0E0,0E0,0E0,0E0,0E0,0E0],"parents":[2147483647,0,0,1,1,2,2,3,3,4,4,7,7,8,8],"right_children":[2,4,6,8,10,-1,-1,12,14,-1,-1,-1,-1,-1,-1],"split_conditions":[9.312953E-1,8.388008E-1,3.8398415E-1,8.737923E-2,1.3793056E-1,1.4380795E-1,3.1267405E-2,8.0401045E-1,2.05659E-1,1.7468238E-2,-8.590877E-2,1.1508353E-1,2.3726523E-2,-9.352223E-3,4.040336E-2],"split_indices":[5,5,6,10,0,0,0,4,11,0,0,0,0,0,0],"split_type":[0,0,0,0,0,0,0,0,0,0,0,0,0,0,0],"sum_hessian":[1E2,9.4E1,6E0,9E1,4E0,3E0,3E0,1E1,8E1,1E0,3E0,7E0,3E0,2.4E1,5.6E1],"tree_param":{"num_deleted":"0","num_feature":"17","num_nodes":"15","size_leaf_vector":"0"}},{"base_weights":[3.125125E-1,-3.8253504E-1,3.526976E-1,-1.4007993E-1,-7.974053E-1,4.3876436E-1,-7.306923E-2,6.801677E-2,-2.091083E-1,7.715243E-1,2.992429E-1,-2.463209E-1,3.9199895E-1,6.0219564E-2,1.2244903E0,4.7261637E-1,-4.844997E-1,-4.5444527E-1,-3.0078462E-3,5.8071995E-1,7.261165E-2],"categories":[],"categories_nodes":[],"categories_segments":[],"categories_sizes":[],"default_left":[true,true,true,true,false,true,true,false,false,true,true,true,true,false,false,false,false,false,false,false,false],"id":27,"left_children":[1,3,5,7,-1,9,11,-1,-1,13,15,17,19,-1,-1,-1,-1,-1,-1,-1,-1],"loss_changes":[2.9559069E0,4.918239E-1,3.5499191E0,8.604574E-2,0E0,3.4832993E0,1.4663129E0,0E0,0E0,7.33679E0,8.110031E0,6.569449E-1,2.5920844E-1,0E0,0E0,0E0,0E0,0E0,0E0,0E0,0E0],"parents":[2147483647,0,0,1,1,2,2,3,3,5,5,6,6,9,9,10,10,11,11,12,12],"right_children":[2,4,6,8,-1,10,12,-1,-1,14,16,18,20,-1,-1,-1,-1,-1,-1,-1,-1],"split_conditions":[7.188234E-2,6.928458E-1,8.5874736E-1,3.170372E-1,-7.974053E-2,2.932952E-1,7.6191807E-1,6.801677E-3,-2.091083E-2,2.9751414E-1,8.1041586E-1,4.066885E-1,4.43338E-1,6.0219564E-3,1.2244903E-1,4.7261637E-2,-4.844997E-2,-4.544453E-2,-3.0078462E-4,5.8071997E-2,7.2611654E-3],"split_indices":[14,0,15,0,0,7,4,0,0,10,14,11,1,0,0,0,0,0,0,0,0],"split_type":[0,0,0,0,0,0,0,0,0,0,0,0,0,0,0,0,0,0,0,0,0],"sum_hessian":[1E2,5E0,9.5E1,4E0,1E0,7.9E1,1.6E1,1E0,3E0,2.2E1,5.7E1,1.2E1,4E0,9E0,1.3E1,4.7E1,1E1,6E0,6E0,2E0,2E0],"tree_param":{"num_deleted":"0","num_feature":"17","num_nodes":"21","size_leaf_vector":"0"}},{"base_weights":[2.8178617E-1,9.316923E-1,2.3093219E-1,1.3722456E0,2.5821596E-1,-1.9313073E-1,3.1285813E-1,3.290243E-1,2.2895455E-2,5.576569E-1,-6.99369E-1,8.3100206E-1,1.9035786E-1,8.761263E-1,9.977329E-2,-9.827383E-1,2.894055E-1,-3.556517E-1,1.040922E0,-4.1113085E-1,3.753277E-1],"categories":[],"categories_nodes":[],"categories_segments":[],"categories_sizes":[],"default_left":[true,true,true,false,true,true,true,false,false,true,true,true,true,false,false,false,false,false,false,false,false],"id":28,"left_children":[1,3,5,-1,7,9,11,-1,-1,13,15,17,19,-1,-1,-1,-1,-1,-1,-1,-1],"loss_changes":[3.1229248E0,1.7225795E0,3.3608885E0,0E0,5.9117466E-2,6.4712467E0,4.919634E0,0E0,0E0,9.3333936E-1,3.0862932E0,4.106739E0,7.4972887E0,0E0,0E0,0E0,0E0,0E0,0E0,0E0,0E0],"parents":[2147483647,0,0,1,1,2,2,4,4,5,5,6,6,9,9,10,10,11,11,12,12],"right_children":[2,4,6,-1,8,10,12,-1,-1,14,16,18,20,-1,-1,-1,-1,-1,-1,-1,-1],"split_conditions":[8.3049566E-2,4.5715404E-1,1.9828293E-1,1.3722456E-1,5.447328E-1,2.606691E-1,3.252602E-1,3.290243E-2,2.2895455E-3,7.4893117E-1,7.838559E-1,1.17116265E-1,5.1044786E-1,8.761263E-2,9.977329E-3,-9.8273836E-2,2.894055E-2,-3.556517E-2,1.040922E-1,-4.1113086E-2,3.7532773E-2],"split_indices":[5,3,8,0,0,3,8,0,0,1,6,5,8,0,0,0,0,0,0,0,0],"split_type":[0,0,0,0,0,0,0,0,0,0,0,0,0,0,0,0,0,0,0,0,0],"sum_hessian":[1E2,6E0,9.4E1,3E0,3E0,1.5E1,7.9E1,2E0,1E0,6E0,9E0,1.4E1,6.5E1,3E0,3E0,7E0,2E0,2E0,1.2E1,1.5E1,5E1],"tree_param":{"num_deleted":"0","num_feature":"17","num_nodes":"21","size_leaf_vector":"0"}},{"base_weights":[2.5623745E-1,3.8007176E-1,3.1765353E-2,9.2734396E-1,2.5141737E-1,-1.8363641E-1,6.3171375E-1,1.3337857E0,4.464877E-1,4.4596377E-1,-2.3850313E-1,-3.9216527E-1,6.463303E-1,1.1530939E-1,1.1250563E0,3.81258E-1,1.4480395E0,6.684135E-1,1.12939954E-1,1.3045598E-2,9.5031023E-1,-4.8202744E-1,1.4346065E-1,-5.121289E-1,5.783017E-1,2.6105416E-1,9.4458836E-1,2.056326E-1,-1.6815332E-1,1.2977508E0,2.17139E-1],"categories":[],"categories_nodes":[],"categories_segments":[],"categories_sizes":[],"default_left":[true,true,true,true,true,true,true,true,true,true,true,true,true,true,true,false,false,false,false,false,false,false,false,false,false,false,false,false,false,false,false],"id":29,"left_children":[1,3,5,7,9,11,13,15,17,19,21,23,25,27,29,-1,-1,-1,-1,-1,-1,-1,-1,-1,-1,-1,-1,-1,-1,-1,-1],"loss_changes":[2.7954588E0,4.3434334E0,4.8975134E0,1.7497616E0,5.2532263E0,5.0994844E0,2.4179132E0,1.0090351E-1,4.426694E-1,8.502892E0,1.5574317E0,2.9738417E0,4.4288158E-1,1.8819734E-1,5.021696E-1,0E0,0E0,0E0,0E0,0E0,0E0,0E0,0E0,0E0,0E0,0E0,0E0,0E0,0E0,0E0,0E0],"parents":[2147483647,0,0,1,1,2,2,3,3,4,4,5,5,6,6,7,7,8,8,9,9,10,10,11,11,12,12,13,13,14,14],"right_children":[2,4,6,8,10,12,14,16,18,20,22,24,26,28,30,-1,-1,-1,-1,-1,-1,-1,-1,-1,-1,-1,-1,-1,-1,-1,-1],"split_conditions":[6.3205075E-1,1.4723794E-1,8.814182E-1,3.2721525E-1,8.0080366E-1,8.912604E-1,6.103482E-1,1.3793863E-2,9.248072E-2,4.4766325E-1,6.433356E-1,9.5812285E-1,9.9189353E-1,6.294856E-1,6.1085653E-1,3.81258E-2,1.4480396E-1,6.684136E-2,1.1293995E-2,1.3045598E-3,9.503102E-2,-4.8202746E-2,1.4346065E-2,-5.121289E-2,5.7830174E-2,2.6105417E-2,9.445884E-2,2.056326E-2,-1.6815333E-2,1.2977509E-1,2.1713901E-2],"split_indices":[6,1,6,11,16,2,1,1,1,16,11,1,2,0,0,0,0,0,0,0,0,0,0,0,0,0,0,0,0,0,0],"split_type":[0,0,0,0,0,0,0,0,0,0,0,0,0,0,0,0,0,0,0,0,0,0,0,0,0,0,0,0,0,0,0],"sum_hessian":[1E2,6.4E1,3.6E1,1.1E1,5.3E1,2.7E1,9E0,5E0,6E0,3.8E1,1.5E1,2.2E1,5E0,5E0,4E0,1E0,4E0,3E0,3E0,2.1E1,1.7E1,9E0,6E0,2E1,2E0,3E0,2E0,4E0,1E0,3E0,1E0],"tree_param":{"num_deleted":"0","num_feature":"17","num_nodes":"31","size_leaf_vector":"0"}},{"base_weights":[2.3661332E-1,8.289398E-1,1.9047755E-1,3.33731E-1,1.3779745E0,-4.1080788E-2,3.202163E-1,4.0661454E-1,2.1098375E-2,2.4125719E-1,-5.374418E-1,1.1822202E-1,6.9933766E-1,3.9842132E-1,-6.0487765E-1,-8.1460005E-1,2.8981435E-1,-3.7574092E-1,3.3557707E-1,1.3217622E0,2.1463317E-1],"categories":[],"categories_nodes":[],"categories_segments":[],"categories_sizes":[],"default_left":[true,true,true,true,false,true,true,false,false,true,true,true,true,false,false,false,false,false,false,false,false],"id":30,"left_children":[1,3,5,7,-1,9,11,-1,-1,13,15,17,19,-1,-1,-1,-1,-1,-1,-1,-1],"loss_changes":[2.6021771E0,1.443335E0,2.8671532E0,1.0534996E-1,0E0,5.034616E0,4.5887246E0,0E0,0E0,3.2995832E0,3.2167342E0,4.5280685E0,6.051839E0,0E0,0E0,0E0,0E0,0E0,0E0,0E0,0E0],"parents":[2147483647,0,0,1,1,2,2,3,3,5,5,6,6,9,9,10,10,11,11,12,12],"right_children":[2,4,6,8,-1,10,12,-1,-1,14,16,18,20,-1,-1,-1,-1,-1,-1,-1,-1],"split_conditions":[8.3049566E-2,4.3154754E-2,4.238029E-1,6.0234535E-1,1.3779746E-1,2.9610932E-1,6.676035E-1,4.0661454E-2,2.1098375E-3,8.7561476E-1,7.131394E-1,3.3702582E-1,8.361579E-1,3.9842132E-2,-6.0487766E-2,-8.146001E-2,2.8981436E-2,-3.7574094E-2,3.355771E-2,1.3217622E-1,2.1463318E-2],"split_indices":[5,5,3,0,0,3,12,0,0,13,13,0,12,0,0,0,0,0,0,0,0],"split_type":[0,0,0,0,0,0,0,0,0,0,0,0,0,0,0,0,0,0,0,0,0],"sum_hessian":[1E2,6E0,9.4E1,4E0,2E0,3.4E1,6E1,3E0,1E0,2.2E1,1.2E1,4E1,2E1,1.9E1,3E0,9E0,3E0,1.2E1,2.8E1,8E0,1.2E1],"tree_param":{"num_deleted":"0","num_feature":"17","num_nodes":"21","size_leaf_vector":"0"}},{"base_weights":[2.1549718E-1,4.9406666E-1,1.270207E-1,1.3171163E0,2.0815276E-1,6.2796146E-2,7.6947033E-1,2.4943638E-1,1.480765E0,-3.8946528E-2,1.1445117E0,-3.1916633E-1,2.158426E-1,1.1249027E0,2.2167039E-1,3.835721E-1,-2.6587063E-1,1.2957382E0,3.4541607E-1,3.6965746E-1,-6.1933964E-1,3.7071916E-1,-2.3101658E-1],"categories":[],"categories_nodes":[],"categories_segments":[],"categories_sizes":[],"default_left":[true,true,true,true,true,true,true,false,false,true,true,true,true,false,false,false,false,false,false,false,false,false,false],"id":31,"left_children":[1,3,5,7,9,11,13,-1,-1,15,17,19,21,-1,-1,-1,-1,-1,-1,-1,-1,-1,-1],"loss_changes":[2.4265742E0,5.373551E0,3.1700418E0,6.7899036E-1,4.440674E0,4.277866E0,1.1135831E0,0E0,0E0,1.6360552E0,3.580904E-2,4.571041E0,3.684459E0,0E0,0E0,0E0,0E0,0E0,0E0,0E0,0E0,0E0,0E0],"parents":[2147483647,0,0,1,1,2,2,3,3,4,4,5,5,6,6,9,9,10,10,11,11,12,12],"right_children":[2,4,6,8,10,12,14,-1,-1,16,18,20,22,-1,-1,-1,-1,-1,-1,-1,-1,-1,-1],"split_conditions":[1.7165074E-1,1.7371637E-1,9.312953E-1,1.4364545E-1,1.5661204E-1,3.5408962E-1,3.8398415E-1,2.4943639E-2,1.480765E-1,3.618151E-1,5.4019535E-1,1.7495081E-1,7.703816E-1,1.12490274E-1,2.216704E-2,3.835721E-2,-2.6587063E-2,1.2957382E-1,3.4541607E-2,3.6965746E-2,-6.1933964E-2,3.7071917E-2,-2.3101658E-2],"split_indices":[5,6,5,0,5,6,6,0,0,10,0,7,8,0,0,0,0,0,0,0,0,0,0],"split_type":[0,0,0,0,0,0,0,0,0,0,0,0,0,0,0,0,0,0,0,0,0,0,0],"sum_hessian":[1E2,2.3E1,7.7E1,5E0,1.8E1,7.1E1,6E0,1E0,4E0,1.5E1,3E0,2E1,5.1E1,3E0,3E0,5E0,1E1,2E0,1E0,6E0,1.4E1,3.8E1,1.3E1],"tree_param":{"num_deleted":"0","num_feature":"17","num_nodes":"23","size_leaf_vector":"0"}},{"base_weights":[1.9862637E-1,4.591977E-1,1.1590408E-1,1.2142414E0,1.9659458E-1,5.450052E-2,7.3092586E-1,2.3696446E-1,1.3623039E0,-3.4316286E-2,1.0710894E0,1.382627E-1,-5.4719734E-1,1.5789855E-1,1.1212217E0,3.516077E-1,-2.4170062E-1,1.2093557E0,3.2814527E-1,3.0497727E-1,-2.7263904E-1,4.7775206E-1,-9.082903E-1,4.429722E-2,1.8099992E-1],"categories":[],"categories_nodes":[],"categories_segments":[],"categories_sizes":[],"default_left":[true,true,true,true,true,true,true,false,false,true,true,true,true,true,false,false,false,false,false,false,false,false,false,false,false],"id":32,"left_children":[1,3,5,7,9,11,13,-1,-1,15,17,19,21,23,-1,-1,-1,-1,-1,-1,-1,-1,-1,-1,-1],"loss_changes":[2.123838E0,4.5199304E0,2.9057972E0,5.4537106E-1,3.8734326E0,3.7044232E0,1.3885117E0,0E0,0E0,1.3655373E0,1.4051914E-2,4.4673605E0,3.7648556E0,2.479598E-3,0E0,0E0,0E0,0E0,0E0,0E0,0E0,0E0,0E0,0E0,0E0],"parents":[2147483647,0,0,1,1,2,2,3,3,4,4,5,5,6,6,9,9,10,10,11,11,12,12,13,13],"right_children":[2,4,6,8,10,12,14,-1,-1,16,18,20,22,24,-1,-1,-1,-1,-1,-1,-1,-1,-1,-1,-1],"split_conditions":[1.7165074E-1,1.7371637E-1,8.891528E-1,1.4364545E-1,1.5661204E-1,8.810546E-1,2.6849473E-1,2.3696447E-2,1.362304E-1,3.618151E-1,5.4019535E-1,6.3205075E-1,7.900065E-2,4.2791594E-2,1.1212217E-1,3.5160773E-2,-2.4170062E-2,1.20935574E-1,3.281453E-2,3.0497728E-2,-2.7263904E-2,4.7775205E-2,-9.082904E-2,4.4297217E-3,1.8099992E-2],"split_indices":[5,6,6,0,5,1,0,0,0,10,0,6,15,0,0,0,0,0,0,0,0,0,0,0,0],"split_type":[0,0,0,0,0,0,0,0,0,0,0,0,0,0,0,0,0,0,0,0,0,0,0,0,0],"sum_hessian":[1E2,2.3E1,7.7E1,5E0,1.8E1,7.1E1,6E0,1E0,4E0,1.5E1,3E0,6.3E1,8E0,3E0,3E0,5E0,1E1,2E0,1E0,4.5E1,1.8E1,2E0,6E0,1E0,2E0],"tree_param":{"num_deleted":"0","num_feature":"17","num_nodes":"25","size_leaf_vector":"0"}},{"base_weights":[1.8291728E-1,3.2144718E-2,3.0843353E-1,-5.309515E-2,1.3000278E0,8.123221E-1,9.916726E-2,1.1989108E-1,-4.881298E-1,-1.1852413E-2,1.0034279E0,-3.2785407E-1,2.724462E-1,-1.2147902E0,1.9956206E-1,1.8095097E-1,-7.069491E-1,-3.3941144E-1,2.1047108E-1,5.0937635E-1,1.3541327E0,-3.8814147E-3,-5.587086E-1,5.6267107E-1,-1.2803605E-1],"categories":[],"categories_nodes":[],"categories_segments":[],"categories_sizes":[],"default_left":[true,true,true,true,false,true,true,true,true,true,true,true,true,false,false,false,false,false,false,false,false,false,false,false,false],"id":33,"left_children":[1,3,5,7,-1,9,11,13,15,17,19,21,23,-1,-1,-1,-1,-1,-1,-1,-1,-1,-1,-1,-1],"loss_changes":[1.9014504E0,5.148512E0,5.7190228E0,3.4449975E0,0E0,2.5319653E0,3.0490742E0,3.7514932E0,2.0312243E0,3.6273256E-1,1.5626984E0,8.9531815E-1,3.4427092E0,0E0,0E0,0E0,0E0,0E0,0E0,0E0,0E0,0E0,0E0,0E0,0E0],"parents":[2147483647,0,0,1,1,2,2,3,3,5,5,6,6,7,7,8,8,9,9,10,10,11,11,12,12],"right_children":[2,4,6,8,-1,10,12,14,16,18,20,22,24,-1,-1,-1,-1,-1,-1,-1,-1,-1,-1,-1,-1],"split_conditions":[5.1044786E-1,9.6556014E-1,6.183616E-1,3.4873253E-1,1.3000278E-1,1.5566994E-1,1.8253985E-1,9.5294215E-2,1.5116364E-1,6.97898E-1,5.607616E-1,2.615376E-1,6.9431615E-1,-1.2147903E-1,1.9956207E-2,1.8095097E-2,-7.0694916E-2,-3.3941146E-2,2.1047108E-2,5.0937634E-2,1.3541327E-1,-3.8814146E-4,-5.587086E-2,5.626711E-2,-1.2803606E-2],"split_indices":[8,14,8,8,0,14,9,0,7,2,2,4,7,0,0,0,0,0,0,0,0,0,0,0,0],"split_type":[0,0,0,0,0,0,0,0,0,0,0,0,0,0,0,0,0,0,0,0,0,0,0,0,0],"sum_hessian":[1E2,4.6E1,5.4E1,4.4E1,2E0,1.5E1,3.9E1,3.2E1,1.2E1,3E0,1.2E1,1.1E1,2.8E1,1E0,3.1E1,3E0,9E0,1E0,2E0,6E0,6E0,5E0,6E0,1.6E1,1.2E1],"tree_param":{"num_deleted":"0","num_feature":"17","num_nodes":"25","size_leaf_vector":"0"}},{"base_weights":[1.6597745E-1,6.685296E-1,1.2720016E-1,2.7942887E-1,1.0941877E0,-2.1892478E-1,1.9483514E-1,3.26478E-1,4.561615E-2,4.7361377E-1,-5.7677084E-1,5.939996E-1,1.0116389E-1,1.4299518E-1,7.565673E-1,-1.0125804E0,-1.8308248E-1,7.5502336E-1,-3.017696E-1,-3.7203148E-1,2.4763373E-1],"categories":[],"categories_nodes":[],"categories_segments":[],"categories_sizes":[],"default_left":[true,true,true,true,false,true,true,false,false,true,true,true,true,false,false,false,false,false,false,false,false],"id":34,"left_children":[1,3,5,7,-1,9,11,-1,-1,13,15,17,19,-1,-1,-1,-1,-1,-1,-1,-1],"loss_changes":[1.8832119E0,8.536198E-1,2.266619E0,4.0110767E-2,0E0,4.238322E0,2.931128E0,0E0,0E0,4.531126E-1,1.7019188E0,2.3914442E0,4.666512E0,0E0,0E0,0E0,0E0,0E0,0E0,0E0,0E0],"parents":[2147483647,0,0,1,1,2,2,3,3,5,5,6,6,9,9,10,10,11,11,12,12],"right_children":[2,4,6,8,-1,10,12,-1,-1,14,16,18,20,-1,-1,-1,-1,-1,-1,-1,-1],"split_conditions":[8.3049566E-2,4.3154754E-2,1.9828293E-1,6.0234535E-1,1.0941877E-1,2.2443226E-1,3.252602E-1,3.26478E-2,4.561615E-3,1.6739228E-1,3.2415545E-1,8.5413885E-1,5.1044786E-1,1.4299518E-2,7.5656734E-2,-1.0125804E-1,-1.8308248E-2,7.5502336E-2,-3.0176962E-2,-3.7203148E-2,2.4763374E-2],"split_indices":[5,5,8,0,0,3,8,0,0,3,0,15,8,0,0,0,0,0,0,0,0],"split_type":[0,0,0,0,0,0,0,0,0,0,0,0,0,0,0,0,0,0,0,0,0],"sum_hessian":[1E2,6E0,9.4E1,4E0,2E0,1.5E1,7.9E1,3E0,1E0,5E0,1E1,1.4E1,6.5E1,3E0,2E0,4E0,6E0,1.2E1,2E0,1.5E1,5E1],"tree_param":{"num_deleted":"0","num_feature":"17","num_nodes":"21","size_leaf_vector":"0"}},{"base_weights":[1.5086383E-1,1.1344553E-1,6.371317E-1,3.734492E-1,2.5202006E-2,9.546145E-1,1.6036594E-1,9.02477E-1,1.0252734E-1,-2.8794906E-1,1.511822E-1,1.8659051E-1,4.084611E-2,1.24104105E-1,1.1412506E0,6.836461E-1,-1.288666E-1,4.2263442E-1,-4.80006E-1,2.887444E-1,-2.4282545E-1],"categories":[],"categories_nodes":[],"categories_segments":[],"categories_sizes":[],"default_left":[true,true,true,true,true,false,true,true,true,true,true,false,false,false,false,false,false,false,false,false,false],"id":35,"left_children":[1,3,5,7,9,-1,11,13,15,17,19,-1,-1,-1,-1,-1,-1,-1,-1,-1,-1],"loss_changes":[1.7654471E0,2.170234E0,9.0646696E-1,3.3472762E0,2.8839927E0,0E0,4.9159303E-3,1.3452053E0,2.3740442E0,3.0687892E0,2.8885431E0,0E0,0E0,0E0,0E0,0E0,0E0,0E0,0E0,0E0,0E0],"parents":[2147483647,0,0,1,1,2,2,3,3,4,4,6,6,7,7,8,8,9,9,10,10],"right_children":[2,4,6,8,10,-1,12,14,16,18,20,-1,-1,-1,-1,-1,-1,-1,-1,-1,-1],"split_conditions":[9.312953E-1,1.7165074E-1,3.8398415E-1,3.0538642E-1,3.5408962E-1,9.546145E-2,4.2085785E-1,1.669882E-1,2.3772413E-1,1.2229957E-1,7.703816E-1,1.8659052E-2,4.084611E-3,1.2410411E-2,1.14125066E-1,6.836461E-2,-1.288666E-2,4.2263445E-2,-4.80006E-2,2.887444E-2,-2.4282545E-2],"split_indices":[5,5,6,12,6,0,0,0,2,7,8,0,0,0,0,0,0,0,0,0,0],"split_type":[0,0,0,0,0,0,0,0,0,0,0,0,0,0,0,0,0,0,0,0,0],"sum_hessian":[1E2,9.4E1,6E0,2.3E1,7.1E1,3E0,3E0,7E0,1.6E1,2E1,5.1E1,2E0,1E0,2E0,5E0,4E0,1.2E1,4E0,1.6E1,3.8E1,1.3E1],"tree_param":{"num_deleted":"0","num_feature":"17","num_nodes":"21","size_leaf_vector":"0"}},{"base_weights":[1.3873857E-1,2.3035465E-1,-2.5958292E-2,1.3472533E-1,7.428433E-1,-1.2207036E-1,7.974838E-1,3.2652748E-1,-2.0049384E-1,1.4696136E0,3.7744904E-1,7.3283696E-1,-2.2844322E-1,-4.728961E-2,1.0948381E0,-1.1452392E-1,5.0056744E-1,3.2786313E-1,-4.880911E-1,5.3194016E-1,-5.734952E-2,9.025857E-1,1.11795425E-1,-3.923511E-1,1.0523938E-1],"categories":[],"categories_nodes":[],"categories_segments":[],"categories_sizes":[],"default_left":[true,true,true,true,true,true,true,true,true,false,true,true,true,false,false,false,false,false,false,false,false,false,false,false,false],"id":36,"left_children":[1,3,5,7,9,11,13,15,17,-1,19,21,23,-1,-1,-1,-1,-1,-1,-1,-1,-1,-1,-1,-1],"loss_changes":[1.5299567E0,3.085501E0,3.0256295E0,3.666029E0,2.1008725E0,3.2593355E0,1.0565627E0,2.8207066E0,3.3510613E0,0E0,5.678866E-1,3.207791E-1,1.7367802E0,0E0,0E0,0E0,0E0,0E0,0E0,0E0,0E0,0E0,0E0,0E0,0E0],"parents":[2147483647,0,0,1,1,2,2,3,3,4,4,5,5,6,6,7,7,8,8,10,10,11,11,12,12],"right_children":[2,4,6,8,10,12,14,16,18,-1,20,22,24,-1,-1,-1,-1,-1,-1,-1,-1,-1,-1,-1,-1],"split_conditions":[6.3205075E-1,5.471753E-1,9.33375E-1,5.0396574E-1,4.0659404E-1,8.324392E-2,2.820017E-1,2.0501706E-1,2.8761905E-1,1.4696136E-1,2.5751245E-1,6.3036394E-1,8.694051E-1,-4.7289613E-3,1.09483816E-1,-1.1452392E-2,5.0056744E-2,3.2786313E-2,-4.880911E-2,5.3194016E-2,-5.734952E-3,9.025857E-2,1.1179543E-2,-3.923511E-2,1.0523938E-2],"split_indices":[6,6,1,11,13,9,0,9,15,0,1,0,6,0,0,0,0,0,0,0,0,0,0,0,0],"split_type":[0,0,0,0,0,0,0,0,0,0,0,0,0,0,0,0,0,0,0,0,0,0,0,0,0],"sum_hessian":[1E2,6.4E1,3.6E1,5.5E1,9E0,3.3E1,3E0,3.5E1,2E1,2E0,7E0,3E0,3E1,1E0,2E0,1E1,2.5E1,7E0,1.3E1,5E0,2E0,2E0,1E0,2E1,1E1],"tree_param":{"num_deleted":"0","num_feature":"17","num_nodes":"25","size_leaf_vector":"0"}},{"base_weights":[1.2877047E-1,4.666969E-2,3.0434185E-1,3.5253242E-1,-1.0086181E-1,7.828371E-1,5.1260494E-2,5.043599E-1,-1.6170548E-1,-2.5803E-2,-7.41207E-1,-2.1017712E-1,1.02686E0,-4.0508533E-1,2.4770801E-1,9.669381E-1,2.5206536E-1,-4.8691508E-1,1.2262809E-1,1.3577144E-1,-4.2153984E-1,-1.0791603E0,-1.5618472E-1,1.382459E0,2.3674625E-1,1.912334E-1,-5.36344E-1,5.856631E-1,4.084997E-2],"categories":[],"categories_nodes":[],"categories_segments":[],"categories_sizes":[],"default_left":[true,true,true,true,true,true,true,true,true,true,true,false,true,true,true,false,false,false,false,false,false,false,false,false,false,false,false,false,false],"id":37,"left_children":[1,3,5,7,9,11,13,15,17,19,21,-1,23,25,27,-1,-1,-1,-1,-1,-1,-1,-1,-1,-1,-1,-1,-1,-1],"loss_changes":[1.4416655E0,3.1942642E0,3.8350146E0,1.8772929E0,2.287925E0,2.8813224E0,2.072599E0,1.8569756E0,6.1451757E-1,2.8706353E0,8.2000256E-1,0E0,2.2013817E0,6.5047085E-1,1.0946152E0,0E0,0E0,0E0,0E0,0E0,0E0,0E0,0E0,0E0,0E0,0E0,0E0,0E0,0E0],"parents":[2147483647,0,0,1,1,2,2,3,3,4,4,5,5,6,6,7,7,8,8,9,9,10,10,12,12,13,13,14,14],"right_children":[2,4,6,8,10,12,14,16,18,20,22,-1,24,26,28,-1,-1,-1,-1,-1,-1,-1,-1,-1,-1,-1,-1,-1,-1],"split_conditions":[7.9217875E-1,3.1995404E-1,8.7015575E-1,8.562025E-1,8.767512E-1,1.1819163E-1,3.5692263E-1,2.7297485E-1,2.8474173E-1,7.5209737E-1,3.7924755E-1,-2.1017713E-2,8.2309234E-1,3.001036E-1,6.5704054E-1,9.669381E-2,2.5206536E-2,-4.8691507E-2,1.2262809E-2,1.3577144E-2,-4.2153984E-2,-1.07916035E-1,-1.5618472E-2,1.3824591E-1,2.3674626E-2,1.912334E-2,-5.36344E-2,5.856631E-2,4.084997E-3],"split_indices":[2,7,2,3,12,12,15,9,11,8,2,0,9,3,15,0,0,0,0,0,0,0,0,0,0,0,0,0,0],"split_type":[0,0,0,0,0,0,0,0,0,0,0,0,0,0,0,0,0,0,0,0,0,0,0,0,0,0,0,0,0],"sum_hessian":[1E2,6.9E1,3.1E1,2.2E1,4.7E1,1E1,2.1E1,1.7E1,5E0,4.3E1,4E0,2E0,8E0,6E0,1.5E1,5E0,1.2E1,2E0,3E0,3.1E1,1.2E1,2E0,2E0,5E0,3E0,1E0,5E0,5E0,1E1],"tree_param":{"num_deleted":"0","num_feature":"17","num_nodes":"29","size_leaf_vector":"0"}},{"base_weights":[1.1690731E-1,-3.4118527E-1,1.4432031E-1,-1.5005736E-1,-6.484124E-1,1.134251E-2,2.5199395E-1,-2.9892445E-2,-1.7262548E-1,-6.0880907E-2,1.0186895E0,6.1896515E-1,9.084835E-2,1.7513615E-1,-3.0523777E-1,3.2799938E-1,1.19349E0,-2.926296E-1,2.5791824E-1],"categories":[],"categories_nodes":[],"categories_segments":[],"categories_sizes":[],"default_left":[true,true,true,true,false,true,true,false,false,true,false,true,true,false,false,false,false,false,false],"id":38,"left_children":[1,3,5,7,-1,9,11,-1,-1,13,-1,15,17,-1,-1,-1,-1,-1,-1],"loss_changes":[1.317567E0,2.55019E-1,1.3716896E0,8.399285E-3,0E0,3.2631962E0,3.0779655E0,0E0,0E0,2.4756985E0,0E0,2.2832093E0,2.510044E0,0E0,0E0,0E0,0E0,0E0,0E0],"parents":[2147483647,0,0,1,1,2,2,3,3,5,5,6,6,9,9,11,11,12,12],"right_children":[2,4,6,8,-1,10,12,-1,-1,14,-1,16,18,-1,-1,-1,-1,-1,-1],"split_conditions":[7.188234E-2,6.928458E-1,5.1044786E-1,3.170372E-1,-6.484124E-2,9.6556014E-1,6.183616E-1,-2.9892444E-3,-1.7262548E-2,5.189997E-1,1.0186895E-1,6.8712896E-1,1.8253985E-1,1.7513616E-2,-3.0523777E-2,3.279994E-2,1.19349E-1,-2.926296E-2,2.5791824E-2],"split_indices":[14,0,8,0,0,14,8,0,0,4,0,11,9,0,0,0,0,0,0],"split_type":[0,0,0,0,0,0,0,0,0,0,0,0,0,0,0,0,0,0,0],"sum_hessian":[1E2,5E0,9.5E1,4E0,1E0,4.3E1,5.2E1,1E0,3E0,4.1E1,2E0,1.5E1,3.7E1,2.1E1,2E1,1.1E1,4E0,1.1E1,2.6E1],"tree_param":{"num_deleted":"0","num_feature":"17","num_nodes":"19","size_leaf_vector":"0"}},{"base_weights":[1.0672595E-1,3.0817674E-2,2.6944014E-1,3.0653775E-1,-1.0194023E-1,6.8402886E-1,4.989848E-2,4.396112E-1,-1.4377217E-1,1.6148089E-1,-2.5160605E-1,-1.9624908E-1,9.0145165E-1,-3.6393124E-1,2.2783032E-1,8.627426E-1,2.1050352E-1,-4.505376E-1,1.22244954E-1,4.99458E-1,-2.3199153E-1,2.5977656E-1,-3.847289E-1,1.2177001E0,2.01716E-1,1.7291474E-1,-4.8222467E-1,4.9277145E-1,1.9588495E-2],"categories":[],"categories_nodes":[],"categories_segments":[],"categories_sizes":[],"default_left":[true,true,true,true,true,true,true,true,true,true,true,false,true,true,true,false,false,false,false,false,false,false,false,false,false,false,false,false,false],"id":39,"left_children":[1,3,5,7,9,11,13,15,17,19,21,-1,23,25,27,-1,-1,-1,-1,-1,-1,-1,-1,-1,-1,-1,-1,-1,-1],"loss_changes":[1.2391833E0,2.59353E0,2.8784916E0,1.4414625E0,1.9330359E0,2.2822266E0,1.7028512E0,1.5633574E0,5.447051E-1,2.509594E0,2.2103224E0,0E0,1.7459826E0,5.2792126E-1,8.730965E-1,0E0,0E0,0E0,0E0,0E0,0E0,0E0,0E0,0E0,0E0,0E0,0E0,0E0,0E0],"parents":[2147483647,0,0,1,1,2,2,3,3,4,4,5,5,6,6,7,7,8,8,9,9,10,10,12,12,13,13,14,14],"right_children":[2,4,6,8,10,12,14,16,18,20,22,-1,24,26,28,-1,-1,-1,-1,-1,-1,-1,-1,-1,-1,-1,-1,-1,-1],"split_conditions":[7.9217875E-1,3.1995404E-1,8.7015575E-1,8.562025E-1,2.9904264E-1,1.1819163E-1,3.5692263E-1,2.7297485E-1,2.8474173E-1,5.197869E-1,1.5097442E-1,-1.962491E-2,8.2309234E-1,3.001036E-1,4.6097654E-1,8.627426E-2,2.1050353E-2,-4.505376E-2,1.2224495E-2,4.9945798E-2,-2.3199154E-2,2.5977656E-2,-3.847289E-2,1.2177002E-1,2.0171601E-2,1.7291475E-2,-4.8222467E-2,4.9277145E-2,1.9588496E-3],"split_indices":[2,7,2,3,15,12,15,9,11,0,1,0,9,3,0,0,0,0,0,0,0,0,0,0,0,0,0,0,0],"split_type":[0,0,0,0,0,0,0,0,0,0,0,0,0,0,0,0,0,0,0,0,0,0,0,0,0,0,0,0,0],"sum_hessian":[1E2,6.9E1,3.1E1,2.2E1,4.7E1,1E1,2.1E1,1.7E1,5E0,1.7E1,3E1,2E0,8E0,6E0,1.5E1,5E0,1.2E1,2E0,3E0,9E0,8E0,6E0,2.4E1,5E0,3E0,1E0,5E0,6E0,9E0],"tree_param":{"num_deleted":"0","num_feature":"17","num_nodes":"29","size_leaf_vector":"0"}},{"base_weights":[9.834413E-2,6.775487E-2,4.9943495E-1,-1.9533256E-2,2.4859272E-1,8.7955666E-1,1.7147493E-1,1.4919586E-1,-2.2135709E-1,6.69808E-1,4.5831565E-2,1.4325857E-2,2.0718074E-1,-6.98622E-2,3.98135E-1,-7.1968764E-1,-6.678747E-2,-6.209124E-2,9.9234927E-1,-3.319568E-1,2.0824951E-1],"categories":[],"categories_nodes":[],"categories_segments":[],"categories_sizes":[],"default_left":[true,true,true,true,true,false,true,true,true,true,true,false,false,false,false,false,false,false,false,false,false],"id":40,"left_children":[1,3,5,7,9,-1,11,13,15,17,19,-1,-1,-1,-1,-1,-1,-1,-1,-1,-1],"loss_changes":[1.2053373E0,1.5044305E0,7.2183096E-1,2.246507E0,2.6168904E0,0E0,2.5087625E-2,1.9909712E0,2.2627366E0,2.4222932E0,1.4190413E0,0E0,0E0,0E0,0E0,0E0,0E0,0E0,0E0,0E0,0E0],"parents":[2147483647,0,0,1,1,2,2,3,3,4,4,6,6,7,7,8,8,9,9,10,10],"right_children":[2,4,6,8,10,-1,12,14,16,18,20,-1,-1,-1,-1,-1,-1,-1,-1,-1,-1],"split_conditions":[9.312953E-1,7.9217875E-1,9.7121143E-1,5.0711834E-1,8.7015575E-1,8.795567E-2,3.055687E-1,5.55811E-1,3.4569556E-1,3.159666E-1,3.5692263E-1,1.4325858E-3,2.0718073E-2,-6.9862204E-3,3.98135E-2,-7.1968764E-2,-6.6787465E-3,-6.209124E-3,9.923493E-2,-3.3195682E-2,2.0824952E-2],"split_indices":[5,2,5,7,2,0,3,1,3,14,15,0,0,0,0,0,0,0,0,0,0],"split_type":[0,0,0,0,0,0,0,0,0,0,0,0,0,0,0,0,0,0,0,0,0],"sum_hessian":[1E2,9.4E1,6E0,6.4E1,3E1,2E0,4E0,3.5E1,2.9E1,9E0,2.1E1,1E0,3E0,1.9E1,1.6E1,6E0,2.3E1,3E0,6E0,6E0,1.5E1],"tree_param":{"num_deleted":"0","num_feature":"17","num_nodes":"21","size_leaf_vector":"0"}},{"base_weights":[8.994477E-2,6.134605E-2,4.65221E-1,2.6849088E-1,-8.554253E-3,8.209197E-1,1.587576E-1,6.555759E-1,7.053966E-2,-2.3538347E-1,1.0976418E-1,1.3609648E-2,1.9164217E-1,6.569362E-2,8.412543E-1,5.305292E-1,-1.1180553E-1,-3.3330154E-2,-5.3513044E-1,1.9631791E-1,-3.475442E-1],"categories":[],"categories_nodes":[],"categories_segments":[],"categories_sizes":[],"default_left":[true,true,true,true,true,false,true,true,true,true,true,false,false,false,false,false,false,false,false,false,false],"id":41,"left_children":[1,3,5,7,9,-1,11,13,15,17,19,-1,-1,-1,-1,-1,-1,-1,-1,-1,-1],"loss_changes":[1.055435E0,1.3778478E0,6.327332E-1,1.7927303E0,1.9581783E0,0E0,2.125746E-2,8.2096267E-1,1.485223E0,1.4962857E0,1.968153E0,0E0,0E0,0E0,0E0,0E0,0E0,0E0,0E0,0E0,0E0],"parents":[2147483647,0,0,1,1,2,2,3,3,4,4,6,6,7,7,8,8,9,9,10,10],"right_children":[2,4,6,8,10,-1,12,14,16,18,20,-1,-1,-1,-1,-1,-1,-1,-1,-1,-1],"split_conditions":[9.312953E-1,1.7165074E-1,9.7121143E-1,3.0538642E-1,4.6064144E-1,8.209197E-2,3.055687E-1,2.5273716E-1,2.3772413E-1,3.2068753E-1,8.6820734E-1,1.3609648E-3,1.9164218E-2,6.569362E-3,8.412543E-2,5.305292E-2,-1.1180553E-2,-3.3330154E-3,-5.3513046E-2,1.9631792E-2,-3.475442E-2],"split_indices":[5,5,5,12,3,0,3,3,2,3,16,0,0,0,0,0,0,0,0,0,0],"split_type":[0,0,0,0,0,0,0,0,0,0,0,0,0,0,0,0,0,0,0,0,0],"sum_hessian":[1E2,9.4E1,6E0,2.3E1,7.1E1,2E0,4E0,7E0,1.6E1,2.4E1,4.7E1,1E0,3E0,2E0,5E0,4E0,1.2E1,1.5E1,9E0,4E1,7E0],"tree_param":{"num_deleted":"0","num_feature":"17","num_nodes":"21","size_leaf_vector":"0"}},{"base_weights":[8.256628E-2,5.5849317E-2,4.3335846E-1,8.26353E-2,-4.428254E-1,7.661915E-1,1.4698696E-1,-1.4667171E-1,1.5352271E-1,9.3186855E-2,-6.001252E-1,1.2929201E-2,1.772691E-1,-3.351269E-1,9.576266E-3,-9.10375E-3,3.259832E-1],"categories":[],"categories_nodes":[],"categories_segments":[],"categories_sizes":[],"default_left":[true,true,true,true,true,false,true,true,true,false,false,false,false,false,false,false,false],"id":42,"left_children":[1,3,5,7,9,-1,11,13,15,-1,-1,-1,-1,-1,-1,-1,-1],"loss_changes":[9.2237955E-1,1.3055547E0,5.545771E-1,1.5017208E0,4.7749686E-1,0E0,1.8005818E-2,6.5101564E-1,1.9662323E0,0E0,0E0,0E0,0E0,0E0,0E0,0E0,0E0],"parents":[2147483647,0,0,1,1,2,2,3,3,4,4,6,6,7,7,8,8],"right_children":[2,4,6,8,10,-1,12,14,16,-1,-1,-1,-1,-1,-1,-1,-1],"split_conditions":[9.312953E-1,8.388008E-1,9.7121143E-1,2.1189356E-1,1.3793056E-1,7.661915E-2,3.055687E-1,4.3430308E-1,4.749946E-1,9.318686E-3,-6.001252E-2,1.2929201E-3,1.7726911E-2,-3.3512693E-2,9.5762656E-4,-9.10375E-4,3.259832E-2],"split_indices":[5,5,5,13,0,0,3,9,8,0,0,0,0,0,0,0,0],"split_type":[0,0,0,0,0,0,0,0,0,0,0,0,0,0,0,0,0],"sum_hessian":[1E2,9.4E1,6E0,9E1,4E0,2E0,4E0,2.1E1,6.9E1,1E0,3E0,1E0,3E0,9E0,1.2E1,3.6E1,3.3E1],"tree_param":{"num_deleted":"0","num_feature":"17","num_nodes":"17","size_leaf_vector":"0"}},{"base_weights":[7.474601E-2,-4.6785975E-1,9.0433605E-2,-1.1874914E-1,-5.830405E-1,1.4003964E-1,-7.957066E-2,6.53841E-1,9.527786E-2,-3.733448E-1,2.7485067E-1,7.0662516E-1,1.9496012E-1,-8.0332005E-1,1.3242808E-1,1.2193461E-1,-6.070173E-1,-1.11925304E-1,6.158182E-1],"categories":[],"categories_nodes":[],"categories_segments":[],"categories_sizes":[],"default_left":[true,true,true,false,false,true,true,true,true,true,true,false,false,false,false,false,false,false,false],"id":43,"left_children":[1,3,5,-1,-1,7,9,11,13,15,17,-1,-1,-1,-1,-1,-1,-1,-1],"loss_changes":[9.0204E-1,5.1396906E-2,8.4603345E-1,0E0,0E0,1.7086005E0,2.49737E0,7.565975E-3,2.5099666E0,1.5785475E0,1.5195842E0,0E0,0E0,0E0,0E0,0E0,0E0,0E0,0E0],"parents":[2147483647,0,0,1,1,2,2,5,5,6,6,7,7,8,8,9,9,10,10],"right_children":[2,4,6,-1,-1,8,10,12,14,16,18,-1,-1,-1,-1,-1,-1,-1,-1],"split_conditions":[1.5611874E-2,5.870935E-1,8.1517535E-1,-1.1874914E-2,-5.830405E-2,5.9112977E-2,9.422232E-1,7.2143483E-1,9.379433E-2,3.6129224E-1,4.856945E-1,7.066252E-2,1.9496012E-2,-8.0332E-2,1.3242808E-2,1.2193461E-2,-6.0701728E-2,-1.119253E-2,6.158182E-2],"split_indices":[14,0,3,0,0,6,3,5,6,4,5,0,0,0,0,0,0,0,0],"split_type":[0,0,0,0,0,0,0,0,0,0,0,0,0,0,0,0,0,0,0],"sum_hessian":[1E2,2E0,9.8E1,1E0,1E0,7.6E1,2.2E1,5E0,7.1E1,1.2E1,1E1,4E0,1E0,2E0,6.9E1,4E0,8E0,5E0,5E0],"tree_param":{"num_deleted":"0","num_feature":"17","num_nodes":"19","size_leaf_vector":"0"}},{"base_weights":[6.6823654E-2,-4.4446668E-1,8.1642315E-2,-1.12811565E-1,-5.5388844E-1,-1.3671067E-2,1.6462508E-1,-6.9040366E-2,8.2142544E-1,4.6628416E-1,3.327849E-2,1.0371878E-1,-2.543667E-1,2.2098051E-1,9.617561E-1,-2.5485906E-1,1.6010709E-1],"categories":[],"categories_nodes":[],"categories_segments":[],"categories_sizes":[],"default_left":[true,true,true,false,false,true,true,true,false,true,true,false,false,false,false,false,false],"id":44,"left_children":[1,3,5,-1,-1,7,9,11,-1,13,15,-1,-1,-1,-1,-1,-1],"loss_changes":[8.015277E-1,4.6385884E-2,7.85278E-1,0E0,0E0,2.2299306E0,2.084443E0,1.4671394E0,0E0,1.7321279E0,1.4294797E0,0E0,0E0,0E0,0E0,0E0,0E0],"parents":[2147483647,0,0,1,1,2,2,5,5,6,6,7,7,9,9,10,10],"right_children":[2,4,6,-1,-1,8,10,12,-1,14,16,-1,-1,-1,-1,-1,-1],"split_conditions":[1.5611874E-2,5.870935E-1,5.1044786E-1,-1.1281157E-2,-5.5388846E-2,9.6556014E-1,6.183616E-1,5.189997E-1,8.214255E-2,6.8712896E-1,1.8253985E-1,1.0371878E-2,-2.543667E-2,2.2098051E-2,9.617561E-2,-2.5485907E-2,1.601071E-2],"split_indices":[14,0,8,0,0,14,8,4,0,11,9,0,0,0,0,0,0],"split_type":[0,0,0,0,0,0,0,0,0,0,0,0,0,0,0,0,0],"sum_hessian":[1E2,2E0,9.8E1,1E0,1E0,4.6E1,5.2E1,4.4E1,2E0,1.5E1,3.7E1,2.3E1,2.1E1,1.1E1,4E0,1.1E1,2.6E1],"tree_param":{"num_deleted":"0","num_feature":"17","num_nodes":"17","size_leaf_vector":"0"}},{"base_weights":[6.1222576E-2,2.4298793E-1,1.8876016E-2,-4.841929E-2,5.100964E-1,2.3314E-1,-6.714418E-2,-1.435157E-1,2.2131093E-1,5.621016E-2,6.96589E-1,3.6679897E-1,-2.2897002E-1,-3.6485347E-1,4.0200107E-2,-1.8899204E-1,8.740926E-2,7.6509476E-2,-2.343893E-3,1.2365699E-1,7.7146816E-1,-1.8919793E-1,5.27678E-1,4.41343E-2,-3.7655574E-1,-1.585605E-1,-7.8698593E-1,-2.0332347E-1,1.5673733E-1],"categories":[],"categories_nodes":[],"categories_segments":[],"categories_sizes":[],"default_left":[true,true,true,true,true,true,true,true,false,true,true,true,true,true,true,false,false,false,false,false,false,false,false,false,false,false,false,false,false],"id":45,"left_children":[1,3,5,7,9,11,13,15,-1,17,19,21,23,25,27,-1,-1,-1,-1,-1,-1,-1,-1,-1,-1,-1,-1,-1,-1],"loss_changes":[7.7282417E-1,1.5036077E0,1.5454296E0,2.8826538E-1,8.073089E-1,1.5663494E0,1.9321108E0,1.00532606E-1,0E0,4.9337596E-3,2.0490718E-1,1.7993522E0,2.5845686E-1,1.2685428E0,1.3089485E0,0E0,0E0,0E0,0E0,0E0,0E0,0E0,0E0,0E0,0E0,0E0,0E0,0E0,0E0],"parents":[2147483647,0,0,1,1,2,2,3,3,4,4,5,5,6,6,7,7,9,9,10,10,11,11,12,12,13,13,14,14],"right_children":[2,4,6,8,10,12,14,16,-1,18,20,22,24,26,28,-1,-1,-1,-1,-1,-1,-1,-1,-1,-1,-1,-1,-1,-1],"split_conditions":[1.4723794E-1,5.129503E-1,2.4040487E-1,6.7648447E-1,4.0323126E-1,6.9073427E-1,4.038797E-1,8.841976E-1,2.2131093E-2,4.2085785E-1,1.3793863E-2,2.1189356E-1,2.349564E-1,3.4580028E-1,2.1055844E-1,-1.8899204E-2,8.740926E-3,7.6509477E-3,-2.3438931E-4,1.2365699E-2,7.714682E-2,-1.8919794E-2,5.2767802E-2,4.41343E-3,-3.7655573E-2,-1.585605E-2,-7.86986E-2,-2.0332348E-2,1.5673732E-2],"split_indices":[1,14,5,11,15,10,5,2,0,0,1,13,0,5,11,0,0,0,0,0,0,0,0,0,0,0,0,0,0],"split_type":[0,0,0,0,0,0,0,0,0,0,0,0,0,0,0,0,0,0,0,0,0,0,0,0,0,0,0,0,0],"sum_hessian":[1E2,1.8E1,8.2E1,9E0,9E0,2.3E1,5.9E1,7E0,2E0,3E0,6E0,1.8E1,5E0,1.5E1,4.4E1,6E0,1E0,2E0,1E0,1E0,5E0,4E0,1.4E1,2E0,3E0,1.1E1,4E0,1.4E1,3E1],"tree_param":{"num_deleted":"0","num_feature":"17","num_nodes":"29","size_leaf_vector":"0"}},{"base_weights":[5.5202298E-2,3.007867E-1,2.4909655E-2,4.251875E-2,9.7532827E-1,8.7199405E-2,-1.868752E-1,2.3240681E-1,-1.5587306E-1,9.112693E-3,4.0447298E-1,5.3755064E-2,-4.56944E-1,9.460068E-2,2.92744E-1,-2.510771E-1,-8.711338E-3,3.5636562E-1,-6.194122E-2,6.4406407E-1,7.287274E-2,-1.24310136E-1,1.9870308E-1,2.4223495E-1,-5.6154555E-1],"categories":[],"categories_nodes":[],"categories_segments":[],"categories_sizes":[],"default_left":[true,true,true,true,false,true,true,true,true,true,true,true,true,false,false,false,false,false,false,false,false,false,false,false,false],"id":46,"left_children":[1,3,5,7,-1,9,11,13,15,17,19,21,23,-1,-1,-1,-1,-1,-1,-1,-1,-1,-1,-1,-1],"loss_changes":[7.4388695E-1,1.8748674E0,1.2167697E0,3.7527606E-1,0E0,1.7553284E0,1.3892844E0,1.3880402E-2,6.786474E-2,1.453147E0,1.0653436E0,3.3442318E-1,8.67378E-1,0E0,0E0,0E0,0E0,0E0,0E0,0E0,0E0,0E0,0E0,0E0,0E0],"parents":[2147483647,0,0,1,1,2,2,3,3,5,5,6,6,7,7,8,8,9,9,10,10,11,11,12,12],"right_children":[2,4,6,8,-1,10,12,14,16,18,20,22,24,-1,-1,-1,-1,-1,-1,-1,-1,-1,-1,-1,-1],"split_conditions":[8.324392E-2,5.7859516E-1,8.1517535E-1,7.4471784E-1,9.753283E-2,6.565742E-1,4.8217452E-1,8.8987255E-1,7.550708E-1,1.4039555E-1,6.146157E-1,4.2927045E-1,8.151246E-2,9.460068E-3,2.9274402E-2,-2.510771E-2,-8.711338E-4,3.5636563E-2,-6.194122E-3,6.440641E-2,7.2872746E-3,-1.2431013E-2,1.987031E-2,2.4223495E-2,-5.6154557E-2],"split_indices":[9,11,3,8,0,3,16,4,2,10,15,5,1,0,0,0,0,0,0,0,0,0,0,0,0],"split_type":[0,0,0,0,0,0,0,0,0,0,0,0,0,0,0,0,0,0,0,0,0,0,0,0,0],"sum_hessian":[1E2,1E1,9E1,8E0,2E0,7E1,2E1,4E0,4E0,5.7E1,1.3E1,1.1E1,9E0,2E0,2E0,2E0,2E0,9E0,4.8E1,7E0,6E0,5E0,6E0,1E0,8E0],"tree_param":{"num_deleted":"0","num_feature":"17","num_nodes":"25","size_leaf_vector":"0"}},{"base_weights":[5.153289E-2,-4.2674133E-1,6.550551E-2,-1.2494302E-1,-5.1516896E-1,9.7801395E-2,-1.3756244E-1,-1.3156218E-2,2.2573155E-1,-2.644068E-1,-9.378314E-3,-6.2276285E-2,7.280302E-1,4.8026327E-2,4.633312E-1,-1.19481266E-1,-3.4323063E-1,-7.733989E-2,4.6866607E-2],"categories":[],"categories_nodes":[],"categories_segments":[],"categories_sizes":[],"default_left":[true,true,true,false,false,true,true,true,true,true,true,false,false,false,false,false,false,false,false],"id":47,"left_children":[1,3,5,-1,-1,7,9,11,13,15,17,-1,-1,-1,-1,-1,-1,-1,-1],"loss_changes":[7.0291126E-1,1.5695155E-2,6.627214E-1,0E0,0E0,1.2237248E0,2.251524E-1,1.756474E0,1.6666558E0,3.895548E-2,3.4204606E-2,0E0,0E0,0E0,0E0,0E0,0E0,0E0,0E0],"parents":[2147483647,0,0,1,1,2,2,5,5,6,6,7,7,8,8,9,9,10,10],"right_children":[2,4,6,-1,-1,8,10,12,14,16,18,-1,-1,-1,-1,-1,-1,-1,-1],"split_conditions":[1.5611874E-2,5.870935E-1,8.7930226E-1,-1.2494302E-2,-5.1516898E-2,5.1044786E-1,4.6649975E-1,9.6556014E-1,5.00064E-1,4.5335686E-1,3.3670425E-1,-6.227629E-3,7.280302E-2,4.8026326E-3,4.633312E-2,-1.1948126E-2,-3.4323063E-2,-7.733989E-3,4.6866606E-3],"split_indices":[14,0,8,0,0,8,14,14,12,0,7,0,0,0,0,0,0,0,0],"split_type":[0,0,0,0,0,0,0,0,0,0,0,0,0,0,0,0,0,0,0],"sum_hessian":[1E2,2E0,9.8E1,1E0,1E0,8.5E1,1.3E1,4.6E1,3.9E1,6E0,7E0,4.4E1,2E0,2.3E1,1.6E1,3E0,3E0,3E0,4E0],"tree_param":{"num_deleted":"0","num_feature":"17","num_nodes":"19","size_leaf_vector":"0"}},{"base_weights":[4.642291E-2,3.415901E-1,2.4185088E-2,1.0342355E-1,6.24671E-1,-1.002885E-1,9.5207885E-2,1.4544296E-1,2.6929617E-2,1.8621624E-1,-2.578656E-1,-4.6748626E-3,2.8568336E-1,3.7507296E-2,2.8871298E-3,-1.18746944E-1,3.9166158E-1,-7.0014125E-1,-1.5651718E-1,5.9685993E-1,-6.7871295E-2,5.375006E-1,-4.5065727E-2],"categories":[],"categories_nodes":[],"categories_segments":[],"categories_sizes":[],"default_left":[true,true,true,true,false,true,true,false,true,true,true,true,true,false,false,false,false,false,false,false,false,false,false],"id":48,"left_children":[1,3,5,7,-1,9,11,-1,13,15,17,19,21,-1,-1,-1,-1,-1,-1,-1,-1,-1,-1],"loss_changes":[6.546901E-1,4.0733713E-1,8.493922E-1,1.215443E-2,0E0,1.6281493E0,1.1618735E0,0E0,6.546527E-4,8.61001E-1,9.2136633E-1,1.5991187E0,1.7732779E0,0E0,0E0,0E0,0E0,0E0,0E0,0E0,0E0,0E0,0E0],"parents":[2147483647,0,0,1,1,2,2,3,3,5,5,6,6,8,8,9,9,10,10,11,11,12,12],"right_children":[2,4,6,8,-1,10,12,-1,14,16,18,20,22,-1,-1,-1,-1,-1,-1,-1,-1,-1,-1],"split_conditions":[8.3049566E-2,4.3154754E-2,4.238029E-1,7.356353E-1,6.24671E-2,2.1332301E-1,6.676035E-1,1.4544296E-2,3.626674E-1,9.6603714E-2,1.9744614E-1,4.9281347E-1,5.6901973E-1,3.7507296E-3,2.88713E-4,-1.1874694E-2,3.916616E-2,-7.001413E-2,-1.5651718E-2,5.9685994E-2,-6.7871297E-3,5.3750064E-2,-4.5065726E-3],"split_indices":[5,5,3,8,0,3,12,0,0,3,0,3,0,0,0,0,0,0,0,0,0,0,0],"split_type":[0,0,0,0,0,0,0,0,0,0,0,0,0,0,0,0,0,0,0,0,0,0,0],"sum_hessian":[1E2,6E0,9.4E1,4E0,2E0,3.4E1,6E1,2E0,2E0,1.2E1,2.2E1,4E1,2E1,1E0,1E0,5E0,7E0,3E0,1.9E1,3E0,3.7E1,1.1E1,9E0],"tree_param":{"num_deleted":"0","num_feature":"17","num_nodes":"23","size_leaf_vector":"0"}},{"base_weights":[4.30165E-2,-2.7866536E-1,6.267353E-2,-1.4176457E-1,-4.8158467E-1,9.37144E-2,-1.2583116E-1,-1.6120523E-1,-3.200096E-2,-2.7615929E-3,1.9749513E-1,-2.1247226E-1,2.5102338E-2,-5.0380014E-2,6.6481686E-1,2.4639116E-1,-4.8768625E-1,-3.101818E-1,-1.1192051E-1,-2.2246996E-2,5.4338753E-2],"categories":[],"categories_nodes":[],"categories_segments":[],"categories_sizes":[],"default_left":[true,true,true,true,false,true,true,false,false,true,true,true,true,false,false,false,false,false,false,false,false],"id":49,"left_children":[1,3,5,7,-1,9,11,-1,-1,13,15,17,19,-1,-1,-1,-1,-1,-1,-1,-1],"loss_changes":[6.561192E-1,9.840724E-2,5.7352173E-1,5.5106655E-3,0E0,8.315703E-1,1.8841214E-1,0E0,0E0,1.4322108E0,1.4602675E0,5.3708076E-2,9.514824E-3,0E0,0E0,0E0,0E0,0E0,0E0,0E0,0E0],"parents":[2147483647,0,0,1,1,2,2,3,3,5,5,6,6,9,9,10,10,11,11,12,12],"right_children":[2,4,6,8,-1,10,12,-1,-1,14,16,18,20,-1,-1,-1,-1,-1,-1,-1,-1],"split_conditions":[7.188234E-2,6.928458E-1,8.7930226E-1,5.386957E-1,-4.8158467E-2,5.1044786E-1,5.81792E-1,-1.6120523E-2,-3.2000958E-3,9.6556014E-1,8.933332E-1,3.0566525E-1,3.292693E-1,-5.0380016E-3,6.648169E-2,2.4639117E-2,-4.8768625E-2,-3.101818E-2,-1.1192052E-2,-2.2246996E-3,5.4338756E-3],"split_indices":[14,0,8,0,0,8,14,0,0,14,14,11,4,0,0,0,0,0,0,0,0],"split_type":[0,0,0,0,0,0,0,0,0,0,0,0,0,0,0,0,0,0,0,0,0],"sum_hessian":[1E2,5E0,9.5E1,4E0,1E0,8.2E1,1.3E1,3E0,1E0,4.3E1,3.9E1,8E0,5E0,4.1E1,2E0,3.7E1,2E0,3E0,5E0,2E0,3E0],"tree_param":{"num_deleted":"0","num_feature":"17","num_nodes":"21","size_leaf_vector":"0"}},{"base_weights":[3.802999E-2,1.9829561E-1,8.844902E-4,4.3240875E-2,5.270407E-1,5.651825E-2,-2.3561427E-1,2.8563195E-1,-8.227874E-2,1.1691141E-1,7.028775E-1,-3.4268726E-2,2.356349E-1,-3.499816E-1,1.9498312E-1,3.2354915E-1,6.6981554E-2,-1.3472179E-1,3.0066252E-2,-1.5800166E-1,1.3448417E-1,4.9628788E-1,-4.465435E-2,5.0040662E-2,-4.7499236E-1,3.2914877E-2,2.3803425E-1],"categories":[],"categories_nodes":[],"categories_segments":[],"categories_sizes":[],"default_left":[true,true,true,true,true,true,true,true,true,false,false,true,true,true,true,false,false,false,false,false,false,false,false,false,false,false,false],"id":50,"left_children":[1,3,5,7,9,11,13,15,17,-1,-1,19,21,23,25,-1,-1,-1,-1,-1,-1,-1,-1,-1,-1,-1,-1],"loss_changes":[6.0109246E-1,9.4570655E-1,1.1053736E0,4.4944912E-1,3.505205E-1,1.113854E0,8.5618085E-1,1.9781262E-2,6.296771E-2,0E0,0E0,9.817422E-1,1.7025008E0,6.73861E-1,2.007401E-2,0E0,0E0,0E0,0E0,0E0,0E0,0E0,0E0,0E0,0E0,0E0,0E0],"parents":[2147483647,0,0,1,1,2,2,3,3,4,4,5,5,6,6,7,7,8,8,11,11,12,12,13,13,14,14],"right_children":[2,4,6,8,10,12,14,16,18,-1,-1,20,22,24,26,-1,-1,-1,-1,-1,-1,-1,-1,-1,-1,-1,-1],"split_conditions":[1.4723794E-1,5.789948E-1,8.1041586E-1,8.737923E-2,2.103926E-1,5.447031E-1,9.336815E-1,7.6979595E-1,7.127209E-1,1.1691141E-2,7.028776E-2,6.7893445E-1,7.103265E-1,2.2469032E-1,2.6582348E-1,3.2354917E-2,6.6981553E-3,-1.3472179E-2,3.0066252E-3,-1.5800167E-2,1.3448417E-2,4.962879E-2,-4.465435E-3,5.0040665E-3,-4.7499236E-2,3.2914877E-3,2.3803426E-2],"split_indices":[1,10,14,10,2,14,4,0,5,0,0,2,9,4,0,0,0,0,0,0,0,0,0,0,0,0,0],"split_type":[0,0,0,0,0,0,0,0,0,0,0,0,0,0,0,0,0,0,0,0,0,0,0,0,0,0,0],"sum_hessian":[1E2,1.8E1,8.2E1,1.3E1,5E0,6.7E1,1.5E1,4E0,9E0,2E0,3E0,4.5E1,2.2E1,1.2E1,3E0,3E0,1E0,6E0,3E0,2.6E1,1.9E1,1.1E1,1.1E1,3E0,9E0,1E0,2E0],"tree_param":{"num_deleted":"0","num_feature":"17","num_nodes":"27","size_leaf_vector":"0"}},{"base_weights":[3.5593107E-2,2.2341898E-2,4.610187E-1,8.629955E-2,-9.707495E-2,6.69013E-1,2.2515059E-2,3.981533E-2,4.6576667E-1,-1.6724654E-1,2.699621E-1,1.4145486E-1,-1.5083978E-1,-1.0129523E-1,7.1285045E-1,-4.9879378E-1,-8.098532E-2,5.045819E-1,1.22121766E-1],"categories":[],"categories_nodes":[],"categories_segments":[],"categories_sizes":[],"default_left":[true,true,true,true,true,false,false,true,true,true,true,false,false,false,false,false,false,false,false],"id":51,"left_children":[1,3,5,7,9,-1,-1,11,13,15,17,-1,-1,-1,-1,-1,-1,-1,-1],"loss_changes":[5.5907786E-1,7.6450205E-1,2.5855595E-1,1.1280057E0,9.465952E-1,0E0,0E0,1.1646447E0,1.0529912E0,8.1759506E-1,1.4649719E-1,0E0,0E0,0E0,0E0,0E0,0E0,0E0,0E0],"parents":[2147483647,0,0,1,1,2,2,3,3,4,4,7,7,8,8,9,9,10,10],"right_children":[2,4,6,8,10,-1,-1,12,14,16,18,-1,-1,-1,-1,-1,-1,-1,-1],"split_conditions":[9.881323E-1,6.3205075E-1,6.1085653E-1,5.635222E-1,8.912604E-1,6.6901304E-2,2.2515059E-3,5.0396574E-1,5.1896673E-1,1.2152886E-1,4.751376E-1,1.4145486E-2,-1.5083978E-2,-1.0129523E-2,7.128505E-2,-4.987938E-2,-8.098532E-3,5.0458193E-2,1.2212177E-2],"split_indices":[6,6,0,6,2,0,0,11,3,14,4,0,0,0,0,0,0,0,0],"split_type":[0,0,0,0,0,0,0,0,0,0,0,0,0,0,0,0,0,0,0],"sum_hessian":[1E2,9.8E1,2E0,6.4E1,3.4E1,1E0,1E0,5.8E1,6E0,2.9E1,5E0,3.8E1,2E1,2E0,4E0,5E0,2.4E1,1E0,4E0],"tree_param":{"num_deleted":"0","num_feature":"17","num_nodes":"19","size_leaf_vector":"0"}},{"base_weights":[3.336115E-2,1.4643416E-1,-1.2015263E-2,5.002352E-1,6.981658E-2,-1.9548082E-1,6.090534E-2,8.910656E-2,5.807407E-1,3.109638E-1,-4.1238666E-2,3.9539695E-2,-3.750412E-1,2.3606E-1,-2.1217212E-2,4.9274856E-1,5.9919357E-3,2.1859476E-1,-1.893716E-1,2.2191906E-1,-3.379503E-2,-8.123601E-1,-2.0634139E-1,1.2167667E-1,7.2929E-1,-2.75334E-1,9.68835E-2],"categories":[],"categories_nodes":[],"categories_segments":[],"categories_sizes":[],"default_left":[true,true,true,true,true,true,true,false,false,true,true,true,true,true,true,false,false,false,false,false,false,false,false,false,false,false,false],"id":52,"left_children":[1,3,5,7,9,11,13,-1,-1,15,17,19,21,23,25,-1,-1,-1,-1,-1,-1,-1,-1,-1,-1,-1,-1],"loss_changes":[5.19975E-1,7.511891E-1,9.8853046E-1,1.1374283E-1,6.823403E-1,9.0103674E-1,7.673683E-1,0E0,0E0,4.405614E-1,7.3421365E-1,1.4124715E-1,7.176838E-1,8.703565E-1,1.1370962E0,0E0,0E0,0E0,0E0,0E0,0E0,0E0,0E0,0E0,0E0,0E0,0E0],"parents":[2147483647,0,0,1,1,2,2,3,3,4,4,5,5,6,6,9,9,10,10,11,11,12,12,13,13,14,14],"right_children":[2,4,6,8,10,12,14,-1,-1,16,18,20,22,24,26,-1,-1,-1,-1,-1,-1,-1,-1,-1,-1,-1,-1],"split_conditions":[2.4040487E-1,9.49126E-2,4.038797E-1,6.656144E-1,2.9766935E-1,3.928708E-1,3.6493778E-1,8.910656E-3,5.807407E-2,7.831859E-1,2.7259183E-1,7.355769E-2,3.2721478E-1,8.874645E-1,5.4175246E-1,4.9274858E-2,5.9919356E-4,2.1859476E-2,-1.8937161E-2,2.2191906E-2,-3.379503E-3,-8.123601E-2,-2.0634139E-2,1.2167667E-2,7.2929E-2,-2.75334E-2,9.68835E-3],"split_indices":[5,8,5,1,12,9,1,0,0,1,2,1,4,14,1,0,0,0,0,0,0,0,0,0,0,0,0],"split_type":[0,0,0,0,0,0,0,0,0,0,0,0,0,0,0,0,0,0,0,0,0,0,0,0,0,0,0],"sum_hessian":[1E2,2.8E1,7.2E1,4E0,2.4E1,2E1,5.2E1,1E0,3E0,7E0,1.7E1,9E0,1.1E1,1.6E1,3.6E1,4E0,3E0,6E0,1.1E1,2E0,7E0,2E0,9E0,1.4E1,2E0,1.1E1,2.5E1],"tree_param":{"num_deleted":"0","num_feature":"17","num_nodes":"27","size_leaf_vector":"0"}},{"base_weights":[3.105448E-2,1.851401E-2,4.345385E-1,7.367296E-2,-8.445301E-2,6.3071823E-1,2.1089554E-2,3.1044537E-2,4.224449E-1,-1.460285E-1,2.3749995E-1,2.0209901E-1,-6.8803966E-2,8.54208E-1,7.8898095E-2,-2.2632559E-1,1.03079185E-1,4.547155E-1,1.0311375E-1],"categories":[],"categories_nodes":[],"categories_segments":[],"categories_sizes":[],"default_left":[true,true,true,true,true,false,false,true,true,true,true,false,false,false,false,false,false,false,false],"id":53,"left_children":[1,3,5,7,9,-1,-1,11,13,15,17,-1,-1,-1,-1,-1,-1,-1,-1],"loss_changes":[5.0300276E-1,5.684976E-1,2.3002934E-1,9.532792E-1,7.285362E-1,0E0,0E0,1.0215977E0,9.7092056E-1,6.2340814E-1,1.2825719E-1,0E0,0E0,0E0,0E0,0E0,0E0,0E0,0E0],"parents":[2147483647,0,0,1,1,2,2,3,3,4,4,7,7,8,8,9,9,10,10],"right_children":[2,4,6,8,10,-1,-1,12,14,16,18,-1,-1,-1,-1,-1,-1,-1,-1],"split_conditions":[9.881323E-1,6.3205075E-1,6.1085653E-1,5.635222E-1,8.912604E-1,6.3071825E-2,2.1089555E-3,2.9904264E-1,4.0659404E-1,8.814182E-1,4.751376E-1,2.0209901E-2,-6.8803965E-3,8.54208E-2,7.88981E-3,-2.263256E-2,1.0307918E-2,4.547155E-2,1.0311375E-2],"split_indices":[6,6,0,6,2,0,0,15,13,6,4,0,0,0,0,0,0,0,0],"split_type":[0,0,0,0,0,0,0,0,0,0,0,0,0,0,0,0,0,0,0],"sum_hessian":[1E2,9.8E1,2E0,6.4E1,3.4E1,1E0,1E0,5.8E1,6E0,2.9E1,5E0,2.1E1,3.7E1,2E0,4E0,2.2E1,7E0,1E0,4E0],"tree_param":{"num_deleted":"0","num_feature":"17","num_nodes":"19","size_leaf_vector":"0"}},{"base_weights":[3.0080494E-2,1.3711949E-1,-1.2853907E-2,2.0351463E-3,3.0322057E-1,2.091888E-1,-6.4449646E-2,-2.5106058E-1,1.6291104E-1,-1.5286724E-1,4.0004265E-1,4.594117E-2,4.9384633E-1,-1.08274736E-1,2.828367E-1,-1.0545969E-2,-2.893887E-1,4.9176013E-1,-2.1877378E-2,-2.4933589E-1,2.0035028E-2,5.1033014E-1,7.9457045E-2,1.7823434E-1,-3.621795E-2,1.378196E-1,6.852576E-1,-4.269757E-2,-4.8000622E-1,6.973448E-2,5.437282E-1],"categories":[],"categories_nodes":[],"categories_segments":[],"categories_sizes":[],"default_left":[true,true,true,true,true,true,true,true,true,true,true,true,true,true,true,false,false,false,false,false,false,false,false,false,false,false,false,false,false,false,false],"id":54,"left_children":[1,3,5,7,9,11,13,15,17,19,21,23,25,27,29,-1,-1,-1,-1,-1,-1,-1,-1,-1,-1,-1,-1,-1,-1,-1,-1],"loss_changes":[4.659237E-1,6.50075E-1,8.498035E-1,7.330896E-1,6.352253E-1,6.2788737E-1,9.4381547E-1,6.1477393E-2,6.7920095E-1,5.5034384E-2,3.4837317E-1,1.1514619E-1,2.4629581E-1,1.2958679E0,3.512593E-1,0E0,0E0,0E0,0E0,0E0,0E0,0E0,0E0,0E0,0E0,0E0,0E0,0E0,0E0,0E0,0E0],"parents":[2147483647,0,0,1,1,2,2,3,3,4,4,5,5,6,6,7,7,8,8,9,9,10,10,11,11,12,12,13,13,14,14],"right_children":[2,4,6,8,10,12,14,16,18,20,22,24,26,28,30,-1,-1,-1,-1,-1,-1,-1,-1,-1,-1,-1,-1,-1,-1,-1,-1],"split_conditions":[2.4040487E-1,5.641577E-1,1.4723794E-1,1.9365534E-1,1.5476923E-1,5.6805766E-1,8.863646E-1,1.8217827E-1,2.6314697E-1,4.9504754E-1,7.822366E-1,7.4881546E-2,4.8426196E-1,8.810546E-1,3.842978E-1,-1.054597E-3,-2.8938869E-2,4.9176015E-2,-2.187738E-3,-2.493359E-2,2.0035028E-3,5.1033016E-2,7.945704E-3,1.7823434E-2,-3.621795E-3,1.378196E-2,6.852576E-2,-4.2697573E-3,-4.8000623E-2,6.9734477E-3,5.4372817E-2],"split_indices":[5,9,1,11,14,10,6,0,8,0,4,10,2,1,0,0,0,0,0,0,0,0,0,0,0,0,0,0,0,0,0],"split_type":[0,0,0,0,0,0,0,0,0,0,0,0,0,0,0,0,0,0,0,0,0,0,0,0,0,0,0,0,0,0,0],"sum_hessian":[1E2,2.8E1,7.2E1,1.6E1,1.2E1,1.3E1,5.9E1,6E0,1E1,2E0,1E1,9E0,4E0,5.3E1,6E0,1E0,5E0,3E0,7E0,1E0,1E0,7E0,3E0,3E0,6E0,2E0,2E0,4.6E1,7E0,4E0,2E0],"tree_param":{"num_deleted":"0","num_feature":"17","num_nodes":"31","size_leaf_vector":"0"}},{"base_weights":[2.8642995E-2,1.7281665E-2,3.9401928E-1,1.2834983E-1,-2.6151534E-2,5.7199574E-1,1.9033194E-2,2.831296E-3,2.9547194E-1,3.4732163E-2,-3.0514157E-1,-2.3023927E-1,1.5089154E-1,3.654001E-1,-2.368691E-1,5.67286E-1,6.587444E-3,-5.597542E-1,-7.6039374E-2],"categories":[],"categories_nodes":[],"categories_segments":[],"categories_sizes":[],"default_left":[true,true,true,true,true,false,false,true,true,true,true,false,false,false,false,false,false,false,false],"id":55,"left_children":[1,3,5,7,9,-1,-1,11,13,15,17,-1,-1,-1,-1,-1,-1,-1,-1],"loss_changes":[4.12458E-1,4.80937E-1,1.8932924E-1,5.865172E-1,1.2335862E0,0E0,0E0,6.2138546E-1,5.3325975E-1,8.955777E-1,7.157568E-1,0E0,0E0,0E0,0E0,0E0,0E0,0E0,0E0],"parents":[2147483647,0,0,1,1,2,2,3,3,4,4,7,7,8,8,9,9,10,10],"right_children":[2,4,6,8,10,-1,-1,12,14,16,18,-1,-1,-1,-1,-1,-1,-1,-1],"split_conditions":[9.881323E-1,2.4040487E-1,6.1085653E-1,5.641577E-1,8.212576E-1,5.7199575E-2,1.9033194E-3,1.9365534E-1,8.549067E-1,3.4010515E-2,3.0846852E-1,-2.3023928E-2,1.5089154E-2,3.6540013E-2,-2.368691E-2,5.67286E-2,6.587444E-4,-5.597542E-2,-7.6039373E-3],"split_indices":[6,5,0,9,1,0,0,11,3,9,0,0,0,0,0,0,0,0,0],"split_type":[0,0,0,0,0,0,0,0,0,0,0,0,0,0,0,0,0,0,0],"sum_hessian":[1E2,9.8E1,2E0,2.7E1,7.1E1,1E0,1E0,1.6E1,1.1E1,5.9E1,1.2E1,6E0,1E1,1E1,1E0,2E0,5.7E1,5E0,7E0],"tree_param":{"num_deleted":"0","num_feature":"17","num_nodes":"19","size_leaf_vector":"0"}},{"base_weights":[2.635133E-2,8.869118E-3,2.5984547E-1,3.0068696E-2,-2.6193538E-1,4.4708133E-1,7.6482296E-3,-2.9943472E-1,4.90975E-2,-4.2140257E-1,9.115505E-2,5.0981075E-1,1.294465E-1,3.6337614E-2,-1.4027436E-2,1.493454E-3,-3.750401E-1,8.1175394E-2,-1.3480896E-1],"categories":[],"categories_nodes":[],"categories_segments":[],"categories_sizes":[],"default_left":[true,true,true,true,true,true,true,true,true,false,false,false,false,false,false,false,false,false,false],"id":56,"left_children":[1,3,5,7,9,11,13,15,17,-1,-1,-1,-1,-1,-1,-1,-1,-1,-1],"loss_changes":[4.099768E-1,5.532655E-1,3.2712322E-1,5.727365E-1,4.3255734E-1,1.37069225E-2,2.9971695E-3,1.14319086E-1,5.1238644E-1,0E0,0E0,0E0,0E0,0E0,0E0,0E0,0E0,0E0,0E0],"parents":[2147483647,0,0,1,1,2,2,3,3,4,4,5,5,6,6,7,7,8,8],"right_children":[2,4,6,8,10,12,14,16,18,-1,-1,-1,-1,-1,-1,-1,-1,-1,-1],"split_conditions":[9.312953E-1,8.1663835E-1,3.8398415E-1,4.884218E-2,8.761316E-1,6.2099326E-1,2.3076412E-1,1.4692387E-1,8.709096E-1,-4.2140257E-2,9.115505E-3,5.0981075E-2,1.2944651E-2,3.6337615E-3,-1.4027436E-3,1.493454E-4,-3.7504014E-2,8.11754E-3,-1.3480896E-2],"split_indices":[5,5,6,11,6,0,0,0,12,0,0,0,0,0,0,0,0,0,0],"split_type":[0,0,0,0,0,0,0,0,0,0,0,0,0,0,0,0,0,0,0],"sum_hessian":[1E2,9.4E1,6E0,8.8E1,6E0,3E0,3E0,4E0,8.4E1,4E0,2E0,2E0,1E0,1E0,2E0,1E0,3E0,7.2E1,1.2E1],"tree_param":{"num_deleted":"0","num_feature":"17","num_nodes":"19","size_leaf_vector":"0"}},{"base_weights":[2.3621205E-2,1.15347534E-1,-1.8648276E-2,1.5782602E-1,-3.4788656E-1,-9.430081E-2,1.4004605E-1,4.1818455E-2,3.5440105E-1,-5.0102245E-2,-4.6438795E-1,5.318142E-1,2.9578328E-2,-1.2752905E-2,5.3933716E-1,-3.041659E-1,4.5067436E-1,4.5249045E-2,-2.809591E-1,-6.862695E-1,-8.771038E-2,1.2356138E-1,6.0298705E-1,-5.817379E-2,2.8691903E-1],"categories":[],"categories_nodes":[],"categories_segments":[],"categories_sizes":[],"default_left":[true,true,true,true,false,true,true,true,true,true,true,true,true,false,false,false,false,false,false,false,false,false,false,false,false],"id":57,"left_children":[1,3,5,7,-1,9,11,13,15,17,19,21,23,-1,-1,-1,-1,-1,-1,-1,-1,-1,-1,-1,-1],"loss_changes":[3.9375067E-1,6.845851E-1,8.536003E-1,6.693052E-1,0E0,7.618844E-1,9.7965765E-1,5.498836E-1,8.3450615E-1,9.812631E-1,3.5769606E-1,7.07767E-2,4.4575283E-1,0E0,0E0,0E0,0E0,0E0,0E0,0E0,0E0,0E0,0E0,0E0,0E0],"parents":[2147483647,0,0,1,1,2,2,3,3,5,5,6,6,7,7,8,8,9,9,10,10,11,11,12,12],"right_children":[2,4,6,8,-1,10,12,14,16,18,20,22,24,-1,-1,-1,-1,-1,-1,-1,-1,-1,-1,-1,-1],"split_conditions":[3.1995404E-1,9.2514914E-1,7.9217875E-1,6.568749E-1,-3.4788657E-2,8.767512E-1,8.448293E-1,9.6419716E-1,1.7781883E-2,6.0795873E-1,3.7924755E-1,2.3549125E-1,9.548806E-1,-1.2752905E-3,5.3933717E-2,-3.0416591E-2,4.5067437E-2,4.524905E-3,-2.809591E-2,-6.8626955E-2,-8.771039E-3,1.2356139E-2,6.0298707E-2,-5.8173793E-3,2.8691903E-2],"split_indices":[7,2,2,14,0,12,2,6,7,2,2,3,2,0,0,0,0,0,0,0,0,0,0,0,0],"split_type":[0,0,0,0,0,0,0,0,0,0,0,0,0,0,0,0,0,0,0,0,0,0,0,0,0],"sum_hessian":[1E2,3.1E1,6.9E1,2.9E1,2E0,4.7E1,2.2E1,1.9E1,1E1,4.3E1,4E0,4E0,1.8E1,1.8E1,1E0,1E0,9E0,3.1E1,1.2E1,2E0,2E0,1E0,3E0,1.4E1,4E0],"tree_param":{"num_deleted":"0","num_feature":"17","num_nodes":"25","size_leaf_vector":"0"}},{"base_weights":[2.1527195E-2,5.5622547E-3,2.3511894E-1,2.4657983E-2,-2.3802091E-1,4.0482497E-1,6.6331625E-3,1.8496193E-1,-7.731577E-3,-3.836261E-1,8.399471E-2,4.5929208E-1,1.207118E-1,3.2258272E-2,-1.2661298E-2,6.8890095E-2,6.2628585E-1,-5.277845E-1,2.1267636E-2,-2.737999E-3,-1.6253948E-2],"categories":[],"categories_nodes":[],"categories_segments":[],"categories_sizes":[],"default_left":[true,true,true,true,true,true,true,true,true,false,false,false,false,false,true,false,false,false,false,false,false],"id":58,"left_children":[1,3,5,7,9,11,13,15,17,-1,-1,-1,-1,-1,19,-1,-1,-1,-1,-1,-1],"loss_changes":[3.431001E-1,4.4775197E-1,2.6874265E-1,4.6353352E-1,3.6043254E-1,6.457329E-3,2.3861225E-3,7.2523427E-1,1.1423091E0,0E0,0E0,0E0,0E0,0E0,6.244957E-5,0E0,0E0,0E0,0E0,0E0,0E0],"parents":[2147483647,0,0,1,1,2,2,3,3,4,4,5,5,6,6,7,7,8,8,14,14],"right_children":[2,4,6,8,10,12,14,16,18,-1,-1,-1,-1,-1,20,-1,-1,-1,-1,-1,-1],"split_conditions":[9.312953E-1,8.1663835E-1,3.8398415E-1,1.7276087E-1,8.761316E-1,6.2099326E-1,2.3076412E-1,1.6187337E-1,2.0088646E-1,-3.836261E-2,8.399471E-3,4.592921E-2,1.207118E-2,3.2258274E-3,4.2085785E-1,6.8890094E-3,6.262859E-2,-5.2778453E-2,2.1267636E-3,-2.737999E-4,-1.6253948E-3],"split_indices":[5,5,6,2,6,0,0,2,2,0,0,0,0,0,0,0,0,0,0,0,0],"split_type":[0,0,0,0,0,0,0,0,0,0,0,0,0,0,0,0,0,0,0,0,0],"sum_hessian":[1E2,9.4E1,6E0,8.8E1,6E0,3E0,3E0,1.4E1,7.4E1,4E0,2E0,2E0,1E0,1E0,2E0,1.2E1,2E0,3E0,7.1E1,1E0,1E0],"tree_param":{"num_deleted":"0","num_feature":"17","num_nodes":"21","size_leaf_vector":"0"}},{"base_weights":[1.9852038E-2,9.603096E-3,3.5144982E-1,5.4683316E-2,-7.4391685E-2,5.1130676E-1,1.5867949E-2,1.754104E-2,3.5992774E-1,2.2477683E-1,-1.2024494E-1,1.598895E-1,-6.533284E-2,7.3430663E-1,6.331487E-2,3.423883E-1,3.2239754E-2,-1.4700724E-1,3.4131193E-1],"categories":[],"categories_nodes":[],"categories_segments":[],"categories_sizes":[],"default_left":[true,true,true,true,true,false,false,true,true,true,true,false,false,false,false,false,false,false,false],"id":59,"left_children":[1,3,5,7,9,-1,-1,11,13,15,17,-1,-1,-1,-1,-1,-1,-1,-1],"loss_changes":[3.3987617E-1,3.7893185E-1,1.5282193E-1,7.306223E-1,5.0715303E-1,0E0,0E0,7.064672E-1,7.3082674E-1,1.02184355E-1,4.330973E-1,0E0,0E0,0E0,0E0,0E0,0E0,0E0,0E0],"parents":[2147483647,0,0,1,1,2,2,3,3,4,4,7,7,8,8,9,9,10,10],"right_children":[2,4,6,8,10,-1,-1,12,14,16,18,-1,-1,-1,-1,-1,-1,-1,-1],"split_conditions":[9.881323E-1,6.3205075E-1,6.1085653E-1,5.635222E-1,8.324392E-2,5.113068E-2,1.5867949E-3,2.9904264E-1,4.0659404E-1,4.3082613E-1,9.5812285E-1,1.5988952E-2,-6.5332837E-3,7.3430665E-2,6.331487E-3,3.423883E-2,3.2239754E-3,-1.4700725E-2,3.4131195E-2],"split_indices":[6,6,0,6,9,0,0,15,13,5,1,0,0,0,0,0,0,0,0],"split_type":[0,0,0,0,0,0,0,0,0,0,0,0,0,0,0,0,0,0,0],"sum_hessian":[1E2,9.8E1,2E0,6.4E1,3.4E1,1E0,1E0,5.8E1,6E0,4E0,3E1,2.1E1,3.7E1,2E0,4E0,2E0,2E0,2.9E1,1E0],"tree_param":{"num_deleted":"0","num_feature":"17","num_nodes":"19","size_leaf_vector":"0"}},{"base_weights":[1.9835444E-2,1.3602188E-1,-7.0004337E-3,4.880496E-2,4.508841E-1,3.845737E-2,-1.9975857E-1,1.9373855E-1,-1.5651114E-2,3.5177708E-2,5.77727E-1,8.4668435E-2,-1.6356392E-1,-2.7862793E-1,1.0650647E-1,2.2556293E-1,3.322053E-2,-5.8370598E-2,1.319642E-1,-2.5698793E-1,1.23203136E-1,2.3421335E-1,-2.1622981E-1,-3.4641966E-1,6.281773E-2,1.2590885E-2,1.336147E-1],"categories":[],"categories_nodes":[],"categories_segments":[],"categories_sizes":[],"default_left":[true,true,true,true,true,true,true,true,true,false,false,true,true,true,true,false,false,false,false,false,false,false,false,false,false,false,false],"id":60,"left_children":[1,3,5,7,9,11,13,15,17,-1,-1,19,21,23,25,-1,-1,-1,-1,-1,-1,-1,-1,-1,-1,-1,-1],